-0.00121358688920736313,
0.00323652685619890690,
0.00670562637969851494,
0.00133652694057673216,
0.00015098627773113549,
-0.01610539853572845459,
-0.02709485776722431183,
-0.04136689752340316772,
-0.04046469926834106445,
-0.03341043740510940552,
-0.02066157199442386627,
-0.00152757822070270777,
0.00236130831763148308,
0.01272690016776323318,
0.02709035761654376984,
0.05774185433983802795,
0.07155666500329971313,
0.06160929799079895020,
0.02915913239121437073,
-0.01034402288496494293,
-0.01297660730779170990,
-0.01198248378932476044,
-0.01687950082123279572,
-0.01969671435654163361,
-0.02780072018504142761,
-0.03436669334769248962,
0.00729978457093238831,
0.05986451730132102966,
0.09947918355464935303,
0.09407240897417068481,
0.06514255702495574951,
0.02698485180735588074,
0.01140419393777847290,
0.00005334137313184328,
-0.02170728705823421478,
-0.04311479628086090088,
-0.07521135360002517700,
-0.10146337747573852539,
-0.07423851639032363892,
-0.00409321300685405731,
0.05585505440831184387,
0.06861276924610137939,
0.05731517821550369263,
0.03443385288119316101,
0.03002779930830001831,
0.03490163385868072510,
0.01505093835294246674,
-0.02980753406882286072,
-0.09075807780027389526,
-0.14241254329681396484,
-0.12885972857475280762,
-0.06315867602825164795,
-0.00199840078130364418,
0.02439684979617595673,
0.03392703458666801453,
0.00772406999021768570,
0.03519919514656066895,
0.07243318110704421997,
0.06424494087696075439,
0.02756682224571704865,
-0.04071904718875885010,
-0.10219362378120422363,
-0.10964293777942657471,
-0.07169578969478607178,
-0.02405168302357196808,
-0.00424657715484499931,
-0.01552601810544729233,
-0.00907914619892835617,
0.02646217867732048035,
0.06669445335865020752,
0.09888706356287002563,
0.07485398650169372559,
0.02373032271862030029,
-0.03572562709450721741,
-0.06056976690888404846,
-0.02552550472319126129,
-0.01868715323507785797,
-0.00232667848467826843,
-0.02333514392375946045,
-0.02316677197813987732,
-0.00296991341747343540,
0.04381480067968368530,
0.07918082177639007568,
0.06873871386051177979,
0.03375312685966491699,
-0.00533042196184396744,
-0.00993315223604440689,
-0.00751548493281006813,
0.00330793811008334160,
-0.00173901021480560303,
-0.01386966928839683533,
-0.03671263903379440308,
-0.02125653252005577087,
0.01576506905257701874,
0.04338634759187698364,
0.03936558589339256287,
0.01150319539010524750,
-0.00262027769349515438,
-0.00035813037538900971,
0.00163359649013727903,
0.00397288100793957710,
0.00548139866441488266,
-0.01238308660686016083,
-0.01983559317886829376,
-0.01349054928869009018,
0.00571247702464461327,
0.01914301328361034393,
0.01215024385601282120,
-0.00019571084703784436,
-0.01427241787314414978,
-0.00082532269880175591,
-0.00514897936955094337,
-0.00521101988852024078,
-0.00825015362352132797,
-0.00037099001929163933,
-0.01621160097420215607,
-0.01978952810168266296,
-0.00018976409046445042,
0.01219514850527048111,
0.00827158242464065552,
-0.00990395527333021164,
-0.00671558128669857979,
0.01283656060695648193,
0.02050779573619365692,
0.02746586129069328308,
0.03664308786392211914,
0.02053574286401271820,
-0.00216148304753005505,
-0.02725187130272388458,
-0.03819632530212402344,
-0.03595534339547157288,
-0.02396581694483757019,
-0.01532304566353559494,
-0.01417137682437896729,
0.00174819165840744972,
0.03448155149817466736,
0.08184367418289184570,
0.11260413378477096558,
0.10730228573083877563,
0.07169079780578613281,
0.01007621176540851593,
-0.00281953741796314716,
-0.00880346633493900299,
-0.03246212750673294067,
-0.04858729988336563110,
-0.06458753347396850586,
-0.07345020771026611328,
-0.01492135133594274521,
0.06833686679601669312,
0.13824242353439331055,
0.15217086672782897949,
0.11358157545328140259,
0.06320102512836456299,
0.03287468478083610535,
-0.00633519189432263374,
-0.03683567792177200317,
-0.07683753222227096558,
-0.13039505481719970703,
-0.16868263483047485352,
-0.13030597567558288574,
-0.03017738088965415955,
0.06623525917530059814,
0.10509544610977172852,
0.09666363149881362915,
0.06716556102037429810,
0.04135740175843238831,
0.04293712973594665527,
0.01065601687878370285,
-0.05848689749836921692,
-0.14777724444866180420,
-0.22716993093490600586,
-0.21651093661785125732,
-0.12785880267620086670,
-0.02640719152987003326,
0.02977352030575275421,
0.05225213989615440369,
0.02126983180642127991,
0.05513601750135421753,
0.09297156333923339844,
0.07892906665802001953,
0.01886144839227199554,
-0.07639438658952713013,
-0.16854301095008850098,
-0.18875961005687713623,
-0.13996364176273345947,
-0.06393594294786453247,
-0.02109291777014732361,
-0.00612411368638277054,
0.00286880927160382271,
0.04562523216009140015,
0.10326585918664932251,
0.13795958459377288818,
0.09423086792230606079,
0.01183678954839706421,
-0.07212047278881072998,
-0.11551512777805328369,
-0.06996255367994308472,
-0.05407614633440971375,
0.00636618398129940033,
-0.01680946350097656250,
-0.01677394472062587738,
0.01562895812094211578,
0.07618465274572372437,
0.11927801370620727539,
0.09718628227710723877,
0.04480720683932304382,
-0.02317566797137260437,
-0.03680605068802833557,
-0.03923767432570457458,
0.01419046707451343536,
0.00628915987908840179,
-0.00679602287709712982,
-0.02945609018206596375,
-0.01043689623475074768,
0.04159047454595565796,
0.08174418658018112183,
0.06688365340232849121,
0.01888042129576206207,
-0.01355386804789304733,
-0.02316267229616641998,
0.00390472216531634331,
0.00896415952593088150,
0.01480278000235557556,
-0.00493793981149792671,
-0.01353582181036472321,
-0.00148475344758480787,
0.03015345335006713867,
0.04568395018577575684,
0.02848259359598159790,
0.00462237372994422913,
-0.02051777951419353485,
-0.00287828245200216770,
-0.00574162462726235390,
-0.00653217500075697899,
-0.00723969284445047379,
0.00045931618660688400,
-0.01210045535117387772,
-0.00816845893859863281,
0.01656613498926162720,
0.03089925274252891541,
0.02476483769714832306,
0.00116843450814485550,
-0.01443875674158334732,
0.00945320352911949158,
0.02311749756336212158,
0.03408689051866531372,
0.04217570275068283081,
0.02090132981538772583,
-0.00104922428727149963,
-0.02443643659353256226,
-0.04617650806903839111,
-0.04685876518487930298,
-0.02193713001906871796,
-0.02184376120567321777,
-0.01681551337242126465,
0.00274114031344652176,
0.03452570736408233643,
0.08338334411382675171,
0.11085506528615951538,
0.10533761233091354370,
0.07224129885435104370,
0.01041104272007942200,
-0.00879168603569269180,
-0.01007235143333673477,
-0.03635019436478614807,
-0.05233943089842796326,
-0.06085059046745300293,
-0.06481730937957763672,
-0.01052876655012369156,
0.06897139549255371094,
0.13370791077613830566,
0.14552113413810729980,
0.10824249684810638428,
0.05524325370788574219,
0.03287831321358680725,
-0.01239002775400876999,
-0.04207560792565345764,
-0.07603064179420471191,
-0.12385438382625579834,
-0.15953525900840759277,
-0.11820010840892791748,
-0.02075417526066303253,
0.06629135459661483765,
0.09754888713359832764,
0.09304440766572952271,
0.07135101407766342163,
0.02995700202882289886,
0.02955573424696922302,
0.00098045379854738712,
-0.06626380980014801025,
-0.14921769499778747559,
-0.21795077621936798096,
-0.20334857702255249023,
-0.12153966724872589111,
-0.02348219603300094604,
0.02809846960008144379,
0.05696003884077072144,
0.01731452159583568573,
0.04526439681649208069,
0.07854183018207550049,
0.06493125855922698975,
0.00095538556342944503,
-0.09201700240373611450,
-0.17346693575382232666,
-0.18865098059177398682,
-0.13236351311206817627,
-0.05960714071989059448,
-0.01477591041475534439,
-0.00136700028087943792,
0.00269815674982964993,
0.04267067834734916687,
0.09525477141141891479,
0.11954735964536666870,
0.07036861032247543335,
-0.00663712248206138611,
-0.08252645283937454224,
-0.11628448963165283203,
-0.07119993865489959717,
-0.04814098402857780457,
0.01549503579735755920,
-0.00660913903266191483,
-0.00363335525617003441,
0.02629983238875865936,
0.07514675706624984741,
0.10606398433446884155,
0.08149916678667068481,
0.03057973459362983704,
-0.03040151670575141907,
-0.04424972087144851685,
-0.03874720260500907898,
0.02034966833889484406,
0.01594237983226776123,
0.00532038602977991104,
-0.01608872227370738983,
0.00048788829008117318,
0.04522246494889259338,
0.07514353841543197632,
0.06440695375204086304,
0.01721381954848766327,
-0.02036563120782375336,
-0.03113153576850891113,
0.00598500343039631844,
0.00877868570387363434,
0.01795089803636074066,
0.00430342135950922966,
-0.00653902534395456314,
0.00301656965166330338,
0.03675716742873191833,
0.06094805151224136353,
0.03981487825512886047,
0.01454231701791286469,
-0.01421533990651369095,
-0.00373289617709815502,
-0.00983647070825099945,
-0.00876358617097139359,
-0.00513789011165499687,
-0.00119879934936761856,
-0.00835395511239767075,
0.00142609653994441032,
0.02909041009843349457,
0.04488909617066383362,
0.04255304113030433655,
0.02411824278533458710,
0.01590686477720737457,
0.01345320791006088257,
-0.01059327926486730576,
-0.05104615539312362671,
-0.06585335731506347656,
-0.06098303571343421936,
-0.04425867274403572083,
-0.02128314226865768433,
-0.01555317919701337814,
0.00310678943060338497,
0.00545703480020165443,
-0.00437398953363299370,
-0.04427464306354522705,
-0.08643778413534164429,
-0.08688735216856002808,
-0.05290992930531501770,
0.00028860513702966273,
0.02966754883527755737,
0.03556294366717338562,
0.04056131094694137573,
0.02624448761343955994,
0.01523331739008426666,
-0.04337012767791748047,
-0.07823249697685241699,
-0.06486105918884277344,
-0.00501367775723338127,
0.07048235088586807251,
0.12300349026918411255,
0.11531267315149307251,
0.08275022357702255249,
0.04802244529128074646,
0.02127247117459774017,
0.00936781987547874451,
-0.03904363512992858887,
-0.00943218450993299484,
0.07252159714698791504,
0.15814487636089324951,
0.19644039869308471680,
0.15671828389167785645,
0.07744373381137847900,
0.02178347669541835785,
-0.00998255424201488495,
-0.02106296643614768982,
-0.02542932517826557159,
0.03150504082441329956,
0.10610631108283996582,
0.17787735164165496826,
0.18417988717555999756,
0.10981032252311706543,
-0.01437227148562669754,
-0.09520714730024337769,
-0.09648721665143966675,
-0.06563425064086914062,
-0.03922561183571815491,
-0.04248287528753280640,
0.09800972789525985718,
0.12498806416988372803,
0.08780562132596969604,
-0.01856056042015552521,
-0.12470232695341110229,
-0.16951251029968261719,
-0.13435399532318115234,
-0.07283099740743637085,
-0.02474454417824745178,
-0.00767408078536391258,
-0.02252361364662647247,
0.06121712177991867065,
0.00138594210147857666,
-0.09031767398118972778,
-0.16717760264873504639,
-0.16063857078552246094,
-0.08819183707237243652,
-0.01590194739401340485,
0.01171680446714162827,
0.00895033683627843857,
0.00131297274492681026,
-0.01125238463282585144,
-0.00839199405163526535,
-0.06147890537977218628,
-0.09196011722087860107,
-0.07310974597930908203,
-0.00425889436155557632,
0.03783418983221054077,
0.04033137112855911255,
0.02339247986674308777,
0.00746516697108745575,
0.00325037515722215176,
0.00333544518798589706,
-0.02264777384698390961,
-0.04087021201848983765,
-0.02661633677780628204,
0.02447650022804737091,
0.04866089671850204468,
0.02812964469194412231,
-0.00450786156579852104,
-0.00844471994787454605,
-0.00004598391387844458,
0.00471984222531318665,
0.00391583051532506943,
-0.01279533002525568008,
-0.00782943889498710632,
0.01553484238684177399,
0.02759045176208019257,
0.01078665908426046371,
-0.00603112438693642616,
-0.00582621200010180473,
0.00329847075045108795,
0.01259753480553627014,
0.00815359875559806824,
0.00758828828111290932,
-0.01971708983182907104,
-0.00017609405040275306,
0.01377193070948123932,
0.00095540744950994849,
-0.00564807886257767677,
0.00651654880493879318,
0.01416337955743074417,
0.00905744172632694244,
0.00018099034787155688,
0.00536854611709713936,
0.01032139919698238373,
0.00972609035670757294,
0.00511547923088073730,
-0.02826862409710884094,
-0.06550101935863494873,
-0.07186339795589447021,
-0.05944893881678581238,
-0.03925531357526779175,
-0.01676948368549346924,
-0.01025612559169530869,
0.00534879881888628006,
0.00646099261939525604,
-0.01063659880310297012,
-0.05820158496499061584,
-0.10382925719022750854,
-0.09288894385099411011,
-0.03822014480829238892,
0.02549960277974605560,
0.05529880523681640625,
0.05515521764755249023,
0.05234400928020477295,
0.03316531702876091003,
0.01983000524342060089,
-0.04872192814946174622,
-0.08835593611001968384,
-0.05812079831957817078,
0.02499397285282611847,
0.12074711173772811890,
0.17392398416996002197,
0.15105509757995605469,
0.10043378174304962158,
0.05113317444920539856,
0.01915896683931350708,
0.00877689383924007416,
-0.03664433583617210388,
0.00618308270350098610,
0.11668099462985992432,
0.22359789907932281494,
0.26231297850608825684,
0.19188359379768371582,
0.07681420445442199707,
0.00857710372656583786,
-0.03145923092961311340,
-0.03365411236882209778,
-0.02365623414516448975,
0.05228495970368385315,
0.14852735400199890137,
0.23537386953830718994,
0.23135367035865783691,
0.11746402084827423096,
-0.04654686525464057922,
-0.14306773245334625244,
-0.13856615126132965088,
-0.09581995010375976562,
-0.05525603890419006348,
-0.04280024394392967224,
0.12403573095798492432,
0.15764395892620086670,
0.09689738601446151733,
-0.05315472930669784546,
-0.19353662431240081787,
-0.24625350534915924072,
-0.19177143275737762451,
-0.10319985449314117432,
-0.03840238228440284729,
-0.01346127875149250031,
-0.02209036983549594879,
0.06540064513683319092,
-0.01180366706103086472,
-0.13908958435058593750,
-0.24902200698852539062,
-0.23420201241970062256,
-0.13273295760154724121,
-0.03353769332170486450,
0.00897123292088508606,
0.01142609771341085434,
0.00516393966972827911,
-0.00873071048408746719,
-0.02439695782959461212,
-0.09740183502435684204,
-0.14597935974597930908,
-0.12286728620529174805,
-0.02709805220365524292,
0.04353589937090873718,
0.05609709769487380981,
0.03603305295109748840,
0.01507713831961154938,
0.01055033691227436066,
0.00530508533120155334,
-0.03632102906703948975,
-0.06094506382942199707,
-0.04452018067240715027,
0.01772193983197212219,
0.05974045395851135254,
0.04870205745100975037,
0.01137637533247470856,
0.00122966966591775417,
0.00894351396709680557,
0.01406162418425083160,
0.01056003663688898087,
-0.01617014780640602112,
-0.01076664309948682785,
0.01857796870172023773,
0.04129071906208992004,
0.03025934472680091858,
0.00714903883635997772,
0.00449988618493080139,
0.01424842234700918198,
0.02098819613456726074,
0.01442695222795009613,
0.01061202213168144226,
-0.01679824106395244598,
0.00653089536353945732,
0.02791254036128520966,
0.01537968963384628296,
0.00729371700435876846,
0.01614951901137828827,
0.02355902269482612610,
0.01699873618781566620,
0.00984659511595964432,
0.00768001424148678780,
0.01488582603633403778,
-0.00586945842951536179,
-0.00701321614906191826,
-0.03738366812467575073,
-0.07343063503503799438,
-0.08394724130630493164,
-0.06943964958190917969,
-0.05067082121968269348,
-0.02444284036755561829,
-0.01586982607841491699,
-0.00351466960273683071,
-0.00006807797035435215,
-0.01628518849611282349,
-0.05887993425130844116,
-0.10525949299335479736,
-0.09537184983491897583,
-0.04655637219548225403,
0.01658563874661922455,
0.04507585614919662476,
0.04643715173006057739,
0.04042024910449981689,
0.02414034679532051086,
0.01452768128365278244,
-0.05083006992936134338,
-0.08490435779094696045,
-0.06040584668517112732,
0.01669740676879882812,
0.10853943228721618652,
0.15700456500053405762,
0.13769416511058807373,
0.09455544501543045044,
0.04929080978035926819,
0.02063629589974880219,
0.00943326018750667572,
-0.04062049090862274170,
-0.00229955301620066166,
0.10229092091321945190,
0.20477534830570220947,
0.24240821599960327148,
0.17780898511409759521,
0.07768867164850234985,
0.01389882806688547134,
-0.01842658035457134247,
-0.02213172055780887604,
-0.01359786838293075562,
0.04670621454715728760,
0.13077807426452636719,
0.22005046904087066650,
0.22416086494922637939,
0.12015907466411590576,
-0.03218331187963485718,
-0.11917817592620849609,
-0.11865130066871643066,
-0.08196994662284851074,
-0.04131782054901123047,
-0.03168772906064987183,
0.12006381899118423462,
0.14981800317764282227,
0.09310358017683029175,
-0.03813752532005310059,
-0.16592907905578613281,
-0.21430431306362152100,
-0.16987511515617370605,
-0.08684999495744705200,
-0.02954137325286865234,
-0.00655000377446413040,
-0.01807801611721515656,
0.06628932803869247437,
-0.00282819196581840515,
-0.12640349566936492920,
-0.22508038580417633057,
-0.20762579143047332764,
-0.11195411533117294312,
-0.02236818894743919373,
0.01416479144245386124,
0.01434876862913370132,
0.00927702989429235458,
-0.00743132969364523888,
-0.01753288321197032928,
-0.08544562757015228271,
-0.13026569783687591553,
-0.10966140776872634888,
-0.01814034208655357361,
0.04778096079826354980,
0.05544396117329597473,
0.03560381010174751282,
0.01425335276871919632,
0.00730670243501663208,
0.00181689218152314425,
-0.02504384331405162811,
-0.05138272792100906372,
-0.03559374809265136719,
0.02347042597830295563,
0.06461384147405624390,
0.05105435475707054138,
0.00963096041232347488,
-0.00043078570161014795,
0.00258123804815113544,
0.00732142664492130280,
0.00310231093317270279,
-0.01085981260985136032,
-0.00591010414063930511,
0.02226416394114494324,
0.04170829430222511292,
0.02699371241033077240,
0.00119630189146846533,
-0.00446537788957357407,
0.00433180062100291252,
0.01004200335592031479,
0.00419145170599222183,
0.00454741809517145157,
-0.01229315996170043945,
0.01033240463584661484,
0.02733244933187961578,
0.01313739269971847534,
0.00548622757196426392,
0.00813722331076860428,
0.00962360948324203491,
0.00336273200809955597,
0.00068786554038524628,
0.00041355943540111184,
0.00674745207652449608,
-0.02502687647938728333,
-0.04192071408033370972,
-0.07008234411478042603,
-0.06765705347061157227,
-0.06012381240725517273,
-0.05846539139747619629,
-0.04184772446751594543,
-0.03026686795055866241,
-0.01731316000223159790,
-0.01551035512238740921,
-0.01702170632779598236,
-0.03495048731565475464,
-0.03678452968597412109,
-0.04942708089947700500,
-0.03746942058205604553,
-0.02170693315565586090,
-0.02289759926497936249,
-0.01255428232252597809,
-0.00232971529476344585,
-0.00095875718398019671,
-0.00574149889871478081,
-0.00001591524232935626,
-0.03707621991634368896,
-0.02544233016669750214,
-0.04201100766658782959,
-0.03992106392979621887,
-0.02786725014448165894,
-0.03568784147500991821,
-0.01936314813792705536,
0.00028092044522054493,
0.00491161132231354713,
0.00401318212971091270,
0.01175569649785757065,
-0.04835348576307296753,
-0.02409861981868743896,
-0.05066973716020584106,
-0.04100421816110610962,
-0.03237261995673179626,
-0.03983206301927566528,
-0.02050384134054183960,
0.01045276504009962082,
0.01645447127521038055,
0.00191025296226143837,
0.02513272874057292938,
-0.04945051670074462891,
-0.02147734351456165314,
-0.03982940316200256348,
-0.02802739478647708893,
-0.01550150662660598755,
-0.01760383136570453644,
-0.00556245911866426468,
0.02052742615342140198,
0.01820378005504608154,
0.00625845743343234062,
0.03226425498723983765,
-0.04286894574761390686,
-0.01677071489393711090,
-0.03868065401911735535,
-0.01480090804398059845,
0.00126598216593265533,
-0.00205370807088911533,
0.01276712026447057724,
0.02751002088189125061,
0.02034346573054790497,
0.01230028178542852402,
0.03992665559053421021,
-0.02043008804321289062,
0.00114785507321357727,
-0.02963157743215560913,
-0.01203244458884000778,
0.00733827427029609680,
0.01222743280231952667,
0.02800002135336399078,
0.02778120338916778564,
0.02625118941068649292,
0.02540985122323036194,
0.04578778892755508423,
-0.00088362046517431736,
0.01619354262948036194,
-0.00557019095867872238,
0.01115000806748867035,
0.02321272529661655426,
0.03055363148450851440,
0.04089591279625892639,
0.03955415636301040649,
0.04804550111293792725,
0.03972130641341209412,
0.06122407317161560059,
0.00710507296025753021,
0.00891987886279821396,
0.00046743845450691879,
0.02187949605286121368,
0.03666753694415092468,
0.03882766515016555786,
0.03603956475853919983,
0.03114284947514533997,
0.03845543041825294495,
0.03269141912460327148,
0.05288867652416229248,
0.01187761593610048294,
0.00177609012462198734,
-0.00986758526414632797,
0.00361467292532324791,
0.02323076315224170685,
0.02848123759031295776,
0.02757049538195133209,
0.02438548579812049866,
0.03090844489634037018,
0.02307953499257564545,
0.03216719999909400940,
0.02656642720103263855,
0.01435887534171342850,
0.00398309342563152313,
0.02053994871675968170,
0.02940806746482849121,
0.03110623918473720551,
0.04226302355527877808,
0.04407828673720359802,
0.03923207521438598633,
0.02896695397794246674,
0.01951034925878047943,
-0.04844407737255096436,
-0.06257237493991851807,
-0.09284827858209609985,
-0.09022906422615051270,
-0.07826728373765945435,
-0.07507148385047912598,
-0.05404078587889671326,
-0.03565305471420288086,
-0.01803761348128318787,
-0.01498065516352653503,
-0.01227512396872043610,
-0.06281483173370361328,
-0.05848216637969017029,
-0.07205355167388916016,
-0.05572263523936271667,
-0.03102046623826026917,
-0.03134229779243469238,
-0.02134825475513935089,
-0.00565221253782510757,
0.00307359592989087105,
-0.00059246906312182546,
0.00426053442060947418,
-0.06928534060716629028,
-0.04892101138830184937,
-0.05869952216744422913,
-0.05445749312639236450,
-0.03841972723603248596,
-0.04231620952486991882,
-0.02193539217114448547,
0.00272155762650072575,
0.01185986772179603577,
0.00921327900141477585,
0.01691365987062454224,
-0.08153569698333740234,
-0.04527619108557701111,
-0.06461387127637863159,
-0.05354703217744827271,
-0.03986710309982299805,
-0.03959567099809646606,
-0.02001705020666122437,
0.01982554793357849121,
0.02804877609014511108,
0.01409144885838031769,
0.03665650263428688049,
-0.08054975420236587524,
-0.04145935922861099243,
-0.05433122813701629639,
-0.03744150698184967041,
-0.02004633843898773193,
-0.01540248561650514603,
-0.00435398845002055168,
0.02704223990440368652,
0.02808279916644096375,
0.01531799789518117905,
0.03849822282791137695,
-0.07094306498765945435,
-0.03831985965371131897,
-0.04653874784708023071,
-0.01687772385776042938,
0.00132686260621994734,
0.00515320757403969765,
0.02043393254280090332,
0.03394658118486404419,
0.03402605280280113220,
0.01951443590223789215,
0.04631347954273223877,
-0.04863056540489196777,
-0.01291283406317234039,
-0.03240538761019706726,
-0.00872199516743421555,
0.01323362719267606735,
0.01706882193684577942,
0.03510120883584022522,
0.03948132693767547607,
0.03864033520221710205,
0.03376610204577445984,
0.05624609813094139099,
-0.02438000589609146118,
0.00227359286509454250,
-0.01060815993696451187,
0.01381394825875759125,
0.03163823112845420837,
0.03829798102378845215,
0.04779528453946113586,
0.05261583626270294189,
0.05914839729666709900,
0.05198607593774795532,
0.07517274469137191772,
-0.00992398243397474289,
0.00035241703153587878,
-0.00155548157636076212,
0.02550533600151538849,
0.04445840790867805481,
0.04836441203951835632,
0.04472007229924201965,
0.04368745908141136169,
0.04751322790980339050,
0.04380918294191360474,
0.06875686347484588623,
0.00201973342336714268,
0.00268018920905888081,
-0.00911717396229505539,
0.01155285723507404327,
0.03564793244004249573,
0.04062405601143836975,
0.03688417375087738037,
0.03383843973278999329,
0.04220889508724212646,
0.03239084035158157349,
0.04695554077625274658,
0.02299978956580162048,
0.02181697264313697815,
0.01683728955686092377,
0.03990140184760093689,
0.05485074222087860107,
0.05739681422710418701,
0.06021101772785186768,
0.05904211103916168213,
0.05856250226497650146,
0.04544293135404586792,
0.03494961932301521301,
-0.04582713544368743896,
-0.06203948333859443665,
-0.09229665994644165039,
-0.08848252892494201660,
-0.07278522849082946777,
-0.06687950342893600464,
-0.04253960400819778442,
-0.02254066243767738342,
-0.00720592262223362923,
-0.00187825527973473072,
0.00054478796664625406,
-0.06735370308160781860,
-0.06218876317143440247,
-0.07368592172861099243,
-0.05557710304856300354,
-0.02608853764832019806,
-0.03036667965352535248,
-0.01576295681297779083,
0.00138282787520438433,
0.00770241720601916313,
0.00583120947703719139,
0.01031140610575675964,
-0.07400338351726531982,
-0.05359379574656486511,
-0.06182425096631050110,
-0.05375957861542701721,
-0.03065392747521400452,
-0.03957744315266609192,
-0.01979956217110157013,
0.00310483714565634727,
0.01247499138116836548,
0.01022559870034456253,
0.01754654757678508759,
-0.08910509198904037476,
-0.05360175669193267822,
-0.07112511992454528809,
-0.05259493738412857056,
-0.03588075190782546997,
-0.04026764631271362305,
-0.01975910551846027374,
0.01860013045370578766,
0.02705546095967292786,
0.00977386813610792160,
0.03010029718279838562,
-0.09322033822536468506,
-0.04919925332069396973,
-0.05954204872250556946,
-0.03542425855994224548,
-0.02094396017491817474,
-0.01668035984039306641,
-0.00428783195093274117,
0.02444514632225036621,
0.02557313442230224609,
0.01354941446334123611,
0.03401570022106170654,
-0.08718585968017578125,
-0.04459648206830024719,
-0.05143883824348449707,
-0.01845738478004932404,
0.00122559722512960434,
0.00376549479551613331,
0.01673987321555614471,
0.03082980401813983917,
0.03034643642604351044,
0.01824316568672657013,
0.04255083575844764709,
-0.06569643318653106689,
-0.02201483584940433502,
-0.03522554039955139160,
-0.00579563202336430550,
0.01711600646376609802,
0.02111782506108283997,
0.03618912771344184875,
0.03965450450778007507,
0.03949646651744842529,
0.03381813317537307739,
0.05329961702227592468,
-0.03715402632951736450,
-0.00520050665363669395,
-0.01165944989770650864,
0.02124020271003246307,
0.03809681162238121033,
0.04451891034841537476,
0.05136900022625923157,
0.05562183633446693420,
0.06076979264616966248,
0.04661780223250389099,
0.06816150248050689697,
-0.02061918936669826508,
-0.00507476786151528358,
-0.00327861914411187172,
0.03368806838989257812,
0.05274000391364097595,
0.05586829036474227905,
0.04908752441406250000,
0.04325959831476211548,
0.04752773791551589966,
0.04246916621923446655,
0.06164782866835594177,
-0.00873762648552656174,
-0.00144392088986933231,
-0.00568642793223261833,
0.02218418940901756287,
0.05092466995120048523,
0.05337084084749221802,
0.04429720714688301086,
0.03549281135201454163,
0.04537637531757354736,
0.03540267050266265869,
0.04815153032541275024,
0.01094239857047796249,
0.01937693171203136444,
0.02222648262977600098,
0.04915208369493484497,
0.07046318799257278442,
0.06846045702695846558,
0.06630718708038330078,
0.05978164821863174438,
0.06201522424817085266,
0.04778262227773666382,
0.03745222464203834534,
0.01781426183879375458,
0.01555007509887218475,
0.01019400078803300858,
0.00734455185011029243,
-0.00212795846164226532,
-0.01293709874153137207,
-0.02351653389632701874,
-0.02893953770399093628,
-0.04170077666640281677,
-0.03541072085499763489,
-0.03224325925111770630,
0.02953800186514854431,
0.01902692578732967377,
0.02602255903184413910,
0.02411665953695774078,
0.01592731289565563202,
-0.00656185857951641083,
-0.02415089122951030731,
-0.04359643161296844482,
-0.05523804947733879089,
-0.05216319486498832703,
-0.04564698413014411926,
0.05363117530941963196,
0.03556845337152481079,
0.04706926643848419189,
0.04433403536677360535,
0.01684349775314331055,
-0.01750850863754749298,
-0.04141307994723320007,
-0.06751386076211929321,
-0.08179885894060134888,
-0.07212565094232559204,
-0.07342571765184402466,
0.08305288106203079224,
0.07072273641824722290,
0.08191192895174026489,
0.06917672604322433472,
0.02180142141878604889,
-0.02021935395896434784,
-0.04981688037514686584,
-0.08038488030433654785,
-0.08882977068424224854,
-0.08233831822872161865,
-0.08836098015308380127,
0.10525978356599807739,
0.09683883190155029297,
0.09480608999729156494,
0.06863908469676971436,
0.02405037544667720795,
-0.00871078670024871826,
-0.04270470514893531799,
-0.07870906591415405273,
-0.08213511109352111816,
-0.07951655238866806030,
-0.08727690577507019043,
0.12194105237722396851,
0.10456639528274536133,
0.09490530937910079956,
0.06887589395046234131,
0.03896393254399299622,
-0.00324871996417641640,
-0.03751746937632560730,
-0.07120298594236373901,
-0.08639761060476303101,
-0.07744325697422027588,
-0.08262334018945693970,
0.11641976982355117798,
0.09162386506795883179,
0.08828803151845932007,
0.07494492828845977783,
0.05077143013477325439,
0.00147703813854604959,
-0.04182870313525199890,
-0.07030596584081649780,
-0.08022987097501754761,
-0.07768389582633972168,
-0.07840693742036819458,
0.09848814457654953003,
0.08113729953765869141,
0.07524228096008300781,
0.06414217501878738403,
0.03613341227173805237,
-0.00929723959416151047,
-0.04326007515192031860,
-0.06421110779047012329,
-0.07384458929300308228,
-0.06844943016767501831,
-0.06512169539928436279,
0.07751989364624023438,
0.07418067008256912231,
0.06988946348428726196,
0.04995622113347053528,
0.02326709590852260590,
-0.01333243586122989655,
-0.03436871990561485291,
-0.04979465156793594360,
-0.06401678174734115601,
-0.05023149773478507996,
-0.03832106292247772217,
0.06572900712490081787,
0.05289681628346443176,
0.05163772776722908020,
0.03488342091441154480,
0.00943380873650312424,
-0.01506763789802789688,
-0.02566812187433242798,
-0.03597982227802276611,
-0.03804283961653709412,
-0.02846355549991130829,
-0.01980790309607982635,
0.06150465458631515503,
0.04758965969085693359,
0.04964064434170722961,
0.04036621749401092529,
0.02813987247645854950,
0.00775583786889910698,
-0.00749182468280196190,
-0.00624283449724316597,
-0.00655024265870451927,
-0.00230280542746186256,
-0.00754485186189413071,
0.02740573324263095856,
0.01990911923348903656,
0.01450921688228845596,
0.00524679804220795631,
-0.00832867249846458435,
-0.01902604289352893829,
-0.03225705772638320923,
-0.04619605839252471924,
-0.06159041821956634521,
-0.05450090020895004272,
-0.05252745375037193298,
0.04143359884619712830,
0.03111330978572368622,
0.03691486269235610962,
0.02813510410487651825,
0.01384076941758394241,
-0.00643944647163152695,
-0.02915699221193790436,
-0.05483626946806907654,
-0.06801225990056991577,
-0.06590423732995986938,
-0.06553467363119125366,
0.06663551181554794312,
0.04655887931585311890,
0.05961604043841362000,
0.05419874936342239380,
0.02430409938097000122,
-0.01770549267530441284,
-0.04373242706060409546,
-0.07435596734285354614,
-0.09490963816642761230,
-0.08941906690597534180,
-0.09523469209671020508,
0.09569005668163299561,
0.08140759915113449097,
0.09388847649097442627,
0.07904544472694396973,
0.03012995794415473938,
-0.01946416310966014862,
-0.05350668355822563171,
-0.09233734756708145142,
-0.10411743074655532837,
-0.10062763094902038574,
-0.10944278538227081299,
0.12240304052829742432,
0.11159093677997589111,
0.11016895622014999390,
0.08085764199495315552,
0.03087462112307548523,
-0.00837886426597833633,
-0.04863006621599197388,
-0.09380658715963363647,
-0.10141504555940628052,
-0.09988611936569213867,
-0.11137334257364273071,
0.14214302599430084229,
0.11818881332874298096,
0.10953016579151153564,
0.08332962542772293091,
0.04567046463489532471,
-0.00274902977980673313,
-0.04176973178982734680,
-0.08350552618503570557,
-0.10319767892360687256,
-0.09712594747543334961,
-0.10654807090759277344,
0.13615719974040985107,
0.10775616765022277832,
0.10705050081014633179,
0.09075725823640823364,
0.06127830594778060913,
0.00255186972208321095,
-0.04349196329712867737,
-0.08040831238031387329,
-0.09487226605415344238,
-0.09492422640323638916,
-0.09689971804618835449,
0.11847786605358123779,
0.09499564766883850098,
0.09208735823631286621,
0.07901589572429656982,
0.04937312752008438110,
-0.00358627643436193466,
-0.04608293995261192322,
-0.07362773269414901733,
-0.08759808540344238281,
-0.08504851162433624268,
-0.08372577279806137085,
0.09573076665401458740,
0.08785273879766464233,
0.08116346597671508789,
0.06799149513244628906,
0.03513548895716667175,
-0.00873480550944805145,
-0.03567737340927124023,
-0.05711163207888603210,
-0.07357992976903915405,
-0.06319252401590347290,
-0.05535708367824554443,
0.07837871462106704712,
0.06385187059640884399,
0.06285557895898818970,
0.04610552638769149780,
0.01943962834775447845,
-0.01111870165914297104,
-0.02261244133114814758,
-0.03832461312413215637,
-0.04594013094902038574,
-0.04212721064686775208,
-0.03597571700811386108,
0.07637023180723190308,
0.05887203291058540344,
0.06019564718008041382,
0.05103627219796180725,
0.03780004009604454041,
0.01188934221863746643,
-0.00431336089968681335,
-0.00605744589120149612,
-0.01214540097862482071,
-0.01227748673409223557,
-0.01924510486423969269,
0.01548882573843002319,
0.00843840092420578003,
0.00929750781506299973,
0.00445153610780835152,
-0.00251114368438720703,
-0.01190873794257640839,
-0.02413460612297058105,
-0.02983824908733367920,
-0.04633430764079093933,
-0.04250996932387351990,
-0.04035850614309310913,
0.02651221305131912231,
0.01973828487098217010,
0.03193534538149833679,
0.02584145776927471161,
0.01547072920948266983,
-0.00337917450815439224,
-0.02335629984736442566,
-0.04362527653574943542,
-0.05683034658432006836,
-0.05633451789617538452,
-0.05622903630137443542,
0.04984277859330177307,
0.03524475172162055969,
0.05385028198361396790,
0.04604617878794670105,
0.02084995433688163757,
-0.01368825323879718781,
-0.03902042657136917114,
-0.06387160718441009521,
-0.08360306173563003540,
-0.08383162319660186768,
-0.08518202602863311768,
0.07907203584909439087,
0.06868058443069458008,
0.08440524339675903320,
0.07174872606992721558,
0.02663025632500648499,
-0.01425575837492942810,
-0.04486123099923133850,
-0.08191961050033569336,
-0.09477377682924270630,
-0.09469994157552719116,
-0.10384836047887802124,
0.09999753534793853760,
0.09672874957323074341,
0.09970161318778991699,
0.07092107087373733521,
0.02610393986105918884,
-0.00771875958889722824,
-0.04805236682295799255,
-0.08678182214498519897,
-0.09472887963056564331,
-0.09372798353433609009,
-0.11037103831768035889,
0.12543776631355285645,
0.10947252810001373291,
0.10635697841644287109,
0.07962591946125030518,
0.04327755421400070190,
-0.00266155344434082508,
-0.03932646661996841431,
-0.07501035928726196289,
-0.09735783934593200684,
-0.09312525391578674316,
-0.10412787646055221558,
0.12420948594808578491,
0.09784505516290664673,
0.10475514084100723267,
0.09025826305150985718,
0.05897942185401916504,
0.00416875397786498070,
-0.03945450857281684875,
-0.07076882570981979370,
-0.09040433913469314575,
-0.09253767132759094238,
-0.09326349943876266479,
0.11019321531057357788,
0.09192895889282226562,
0.09286851435899734497,
0.07869565486907958984,
0.04613786563277244568,
-0.00231877085752785206,
-0.04261587187647819519,
-0.06964185833930969238,
-0.08475850522518157959,
-0.08170206844806671143,
-0.08096674829721450806,
0.08882903307676315308,
0.08632946759462356567,
0.08002592623233795166,
0.06671257317066192627,
0.03429123386740684509,
-0.00937685184180736542,
-0.03262721374630928040,
-0.05452778562903404236,
-0.07030116766691207886,
-0.06349621713161468506,
-0.05949531123042106628,
0.07266300916671752930,
0.06153230369091033936,
0.06223743036389350891,
0.04761037975549697876,
0.02053250558674335480,
-0.00693144695833325386,
-0.02004280872642993927,
-0.03720796853303909302,
-0.04488941282033920288,
-0.04203617572784423828,
-0.03987620770931243896,
0.06965335458517074585,
0.05717946961522102356,
0.06062186509370803833,
0.05226887390017509460,
0.03824549168348312378,
0.01447446737438440323,
-0.00341262877918779850,
-0.00665199197828769684,
-0.01788183674216270447,
-0.01941436715424060822,
-0.02392474189400672913,
-0.00298567325808107853,
0.00826844386756420135,
0.01221076678484678268,
0.03062977455556392670,
0.06385908275842666626,
0.10517640411853790283,
0.08534497767686843872,
0.02443403564393520355,
-0.05341081693768501282,
-0.08909001946449279785,
-0.07065012305974960327,
-0.03313177451491355896,
-0.02568850107491016388,
-0.01803043484687805176,
-0.01166017353534698486,
0.02986101433634757996,
0.10505351424217224121,
0.13182806968688964844,
0.09709206223487854004,
-0.00188988691661506891,
-0.07950294762849807739,
-0.09912439435720443726,
-0.02585214935243129730,
-0.03487673029303550720,
-0.03807837888598442078,
-0.05255268141627311707,
-0.02160105481743812561,
0.07717137038707733154,
0.15176247060298919678,
0.15242265164852142334,
0.07239901274442672729,
-0.03575872629880905151,
-0.09130901098251342773,
-0.00846104230731725693,
-0.03553118556737899780,
-0.06263940036296844482,
-0.10646641254425048828,
-0.11330981552600860596,
-0.01258609443902969360,
0.12051804363727569580,
0.18997633457183837891,
0.15060718357563018799,
0.04063992574810981750,
-0.05224170163273811340,
0.02109234221279621124,
-0.00915923528373241425,
-0.05519292876124382019,
-0.11693216115236282349,
-0.18135578930377960205,
-0.13982746005058288574,
0.01567110046744346619,
0.16177330911159515381,
0.19486293196678161621,
0.11702913045883178711,
0.00459763687103986740,
0.03820662945508956909,
0.02169866859912872314,
0.00125563214533030987,
-0.06100207194685935974,
-0.16264164447784423828,
-0.21494585275650024414,
-0.11984293162822723389,
0.06339891999959945679,
0.17049629986286163330,
0.15028643608093261719,
0.05766379833221435547,
0.03096065670251846313,
0.02803332172334194183,
0.03466077893972396851,
0.00129185104742646217,
-0.09186918288469314575,
-0.20315267145633697510,
-0.19927470386028289795,
-0.05353525280952453613,
0.08502626419067382812,
0.11525027453899383545,
0.07580265402793884277,
0.02442964911460876465,
0.02659753710031509399,
0.04698728024959564209,
0.03782992810010910034,
-0.02967534959316253662,
-0.14327532052993774414,
-0.19013904035091400146,
-0.12133802473545074463,
-0.00090070941951125860,
0.05210196971893310547,
0.05957326665520668030,
0.02340982854366302490,
0.03882667049765586853,
0.05259808525443077087,
0.05627049133181571960,
0.02854786254465579987,
-0.05808303877711296082,
-0.12338209897279739380,
-0.12705229222774505615,
-0.05640726909041404724,
0.01612424291670322418,
0.04106615856289863586,
0.01275737117975950241,
0.02126609534025192261,
0.04244260489940643311,
0.05342693999409675598,
0.05501585453748703003,
0.00773653201758861542,
-0.06273944675922393799,
-0.10167802125215530396,
-0.07912755757570266724,
-0.01070802565664052963,
0.03431591764092445374,
0.00337424175813794136,
0.01224987208843231201,
0.03537762165069580078,
0.05970422551035881042,
0.06752034276723861694,
0.05194859206676483154,
-0.01226862426847219467,
-0.05881615728139877319,
-0.06504189223051071167,
-0.03038795292377471924,
0.01673335954546928406,
-0.00914071314036846161,
0.00505087105557322502,
0.01054497435688972473,
0.03414914757013320923,
0.08317634463310241699,
0.13478125631809234619,
0.11695855110883712769,
0.03874478861689567566,
-0.05818488821387290955,
-0.10134905576705932617,
-0.08259123563766479492,
-0.04193830862641334534,
-0.03738599270582199097,
-0.02991659939289093018,
-0.02103476598858833313,
0.03601233661174774170,
0.13446611166000366211,
0.17729161679744720459,
0.13497842848300933838,
0.01202125102281570435,
-0.08004470169544219971,
-0.10951928049325942993,
-0.03145435452461242676,
-0.04815986379981040955,
-0.06167268753051757812,
-0.07885478436946868896,
-0.03799454867839813232,
0.08915799856185913086,
0.19638688862323760986,
0.20481875538825988770,
0.10988992452621459961,
-0.02249393984675407410,
-0.09659776836633682251,
-0.00916941836476325989,
-0.04096062853932380676,
-0.08041135966777801514,
-0.14113946259021759033,
-0.15262560546398162842,
-0.03266456723213195801,
0.14251464605331420898,
0.24078714847564697266,
0.20392213761806488037,
0.07244109362363815308,
-0.04397640377283096313,
0.02457471378147602081,
-0.00730887707322835922,
-0.06220785900950431824,
-0.14859195053577423096,
-0.23275037109851837158,
-0.18761494755744934082,
0.00270214816555380821,
0.19086860120296478271,
0.25015363097190856934,
0.16316965222358703613,
0.02765635214745998383,
0.04653145372867584229,
0.03498454019427299500,
0.00543241575360298157,
-0.07945086807012557983,
-0.20772126317024230957,
-0.27889385819435119629,
-0.16602125763893127441,
0.06342702358961105347,
0.20521016418933868408,
0.19017517566680908203,
0.08379627764225006104,
0.04248012229800224304,
0.04428038001060485840,
0.05003906041383743286,
0.00379239884205162525,
-0.11472070217132568359,
-0.25820067524909973145,
-0.26075521111488342285,
-0.08645586669445037842,
0.09207521378993988037,
0.13905118405818939209,
0.08961834758520126343,
0.03057834319770336151,
0.04111029952764511108,
0.06662116199731826782,
0.05582040548324584961,
-0.02992209047079086304,
-0.17725434899330139160,
-0.24090044200420379639,
-0.16517239809036254883,
-0.01450906693935394287,
0.05933154746890068054,
0.06429673731327056885,
0.02931793220341205597,
0.05147172510623931885,
0.07141753286123275757,
0.07998122274875640869,
0.04220476001501083374,
-0.06716210395097732544,
-0.15196301043033599854,
-0.16155804693698883057,
-0.07869651913642883301,
0.01103895064443349838,
0.04290562123060226440,
0.00958084035664796829,
0.02727619744837284088,
0.05608455091714859009,
0.07802365720272064209,
0.08046067506074905396,
0.01884830370545387268,
-0.07084040343761444092,
-0.12364520877599716187,
-0.10007453709840774536,
-0.02102235518395900726,
0.03025829605758190155,
-0.00301050092093646526,
0.01321778353303670883,
0.04487502202391624451,
0.08012420684099197388,
0.09487526863813400269,
0.07457363605499267578,
-0.00259300763718783855,
-0.06212716177105903625,
-0.07600112259387969971,
-0.03995012864470481873,
0.01412328146398067474,
-0.00295823416672646999,
0.00700367940589785576,
0.00870463345199823380,
0.02955914288759231567,
0.07705472409725189209,
0.12417990714311599731,
0.10288035869598388672,
0.02013234980404376984,
-0.07649499177932739258,
-0.11782044172286987305,
-0.10020881891250610352,
-0.03094951435923576355,
-0.02904040366411209106,
-0.02492799982428550720,
-0.01937657035887241364,
0.03499871864914894104,
0.13010106980800628662,
0.16960121691226959229,
0.11708278954029083252,
-0.00720625696703791618,
-0.09923452883958816528,
-0.12721464037895202637,
-0.02428421564400196075,
-0.03843621164560317993,
-0.05009641870856285095,
-0.06904013454914093018,
-0.02827982604503631592,
0.09305661171674728394,
0.19040699303150177002,
0.19298273324966430664,
0.08885072171688079834,
-0.03859335929155349731,
-0.10924809426069259644,
-0.00389619800262153149,
-0.03148927167057991028,
-0.06799405068159103394,
-0.12742881476879119873,
-0.13580538332462310791,
-0.01930053718388080597,
0.14292199909687042236,
0.23315751552581787109,
0.18893103301525115967,
0.05719707906246185303,
-0.05821056663990020752,
0.02184848114848136902,
-0.00651447894051671028,
-0.05752651020884513855,
-0.13897094130516052246,
-0.21557848155498504639,
-0.16876503825187683105,
0.01490300893783569336,
0.19009828567504882812,
0.23890134692192077637,
0.14613796770572662354,
0.00619695242494344711,
0.03705713897943496704,
0.02988100238144397736,
0.00305274827405810356,
-0.07690567523241043091,
-0.19484049081802368164,
-0.25794318318367004395,
-0.14821355044841766357,
0.07376851886510848999,
0.20671346783638000488,
0.18357186019420623779,
0.07125483453273773193,
0.03226172551512718201,
0.03741372749209403992,
0.04646485671401023865,
0.00322630698792636395,
-0.11214546114206314087,
-0.24464242160320281982,
-0.23833774030208587646,
-0.06555305421352386475,
0.09650959819555282593,
0.13522373139858245850,
0.08520291745662689209,
0.01755535416305065155,
0.03258985280990600586,
0.06291151791810989380,
0.05099579319357872009,
-0.03462444990873336792,
-0.17126509547233581543,
-0.22437737882137298584,
-0.14966230094432830811,
-0.01027449313551187515,
0.06216233596205711365,
0.06329648196697235107,
0.01604425534605979919,
0.04000782594084739685,
0.06829373538494110107,
0.07847390323877334595,
0.03831806778907775879,
-0.06719711422920227051,
-0.14649723470211029053,
-0.15355987846851348877,
-0.07229939103126525879,
0.01733042672276496887,
0.04381383955478668213,
0.00018087856005877256,
0.01896161772310733795,
0.05066001787781715393,
0.07543021440505981445,
0.07954669743776321411,
0.01759959012269973755,
-0.06867336481809616089,
-0.11450849473476409912,
-0.09051711112260818481,
-0.01415187306702136993,
0.03446885943412780762,
-0.01688309200108051300,
0.00113078427966684103,
0.03704700618982315063,
0.07738521695137023926,
0.09646607190370559692,
0.07528245449066162109,
-0.00033099859138019383,
-0.05351209267973899841,
-0.07123649120330810547,
-0.03359766304492950439,
0.02349504269659519196,
0.00531838508322834969,
0.00106671557296067476,
0.00306404940783977509,
0.01777492091059684753,
0.03425517305731773376,
0.05469572916626930237,
0.07082042098045349121,
0.06717061996459960938,
0.05485032126307487488,
0.03175220265984535217,
0.01110509317368268967,
0.02238153107464313507,
0.03433604910969734192,
0.04910970106720924377,
0.06763289123773574829,
0.07471905648708343506,
0.06243688613176345825,
0.03343116492033004761,
-0.00487055210396647453,
-0.02413974516093730927,
-0.03290674835443496704,
-0.03221418336033821106,
-0.00466860039159655571,
-0.00194087123963981867,
-0.02840697765350341797,
-0.04652805253863334656,
-0.08760270476341247559,
-0.13997678458690643311,
-0.16510242223739624023,
-0.16931226849555969238,
-0.13898144662380218506,
-0.09999527037143707275,
-0.06782492995262145996,
-0.03320769593119621277,
-0.05832188576459884644,
-0.08840017020702362061,
-0.10983761399984359741,
-0.13033810257911682129,
-0.13189089298248291016,
-0.11919744312763214111,
-0.08247469365596771240,
-0.02376973070204257965,
0.01347793452441692352,
0.04483608901500701904,
-0.01147666946053504944,
-0.01736723817884922028,
-0.00791525375097990036,
0.01933266408741474152,
0.03459351882338523865,
0.05901276692748069763,
0.08952535688877105713,
0.12564711272716522217,
0.15858788788318634033,
0.13900825381278991699,
0.11250721663236618042,
0.00603649066761136055,
0.01448840927332639694,
0.03602625429630279541,
0.07396151125431060791,
0.09185971319675445557,
0.12765391170978546143,
0.15435910224914550781,
0.16136546432971954346,
0.13936708867549896240,
0.07502941787242889404,
0.02199041470885276794,
0.03396864235401153564,
0.03748828545212745667,
0.05917704477906227112,
0.08227685093879699707,
0.08622289448976516724,
0.08397601544857025146,
0.06626802682876586914,
0.01761097833514213562,
-0.03545156121253967285,
-0.06491494923830032349,
-0.05447922646999359131,
0.06009598448872566223,
0.06178918853402137756,
0.06331136822700500488,
0.05334026739001274109,
0.02915513888001441956,
0.00559958722442388535,
-0.03048830106854438782,
-0.06586388498544692993,
-0.07032629847526550293,
-0.04125728085637092590,
-0.02098697237670421600,
-0.01963138021528720856,
-0.05145661532878875732,
-0.08348580449819564819,
-0.11787008494138717651,
-0.13463722169399261475,
-0.14375725388526916504,
-0.15038888156414031982,
-0.13098822534084320068,
-0.08046879619359970093,
-0.04637094959616661072,
-0.04974171519279479980,
-0.05535261332988739014,
-0.05784754082560539246,
-0.06794270873069763184,
-0.06172624230384826660,
-0.05534901469945907593,
-0.05571127310395240784,
-0.04457412287592887878,
-0.02922165952622890472,
-0.01466723158955574036,
-0.01182666886597871780,
-0.01648558489978313446,
0.02044993266463279724,
0.03736433759331703186,
0.05064475163817405701,
0.07073896378278732300,
0.07801407575607299805,
0.07803932577371597290,
0.07794012129306793213,
0.06090145185589790344,
0.05806662514805793762,
0.04653590917587280273,
0.03146294504404067993,
0.01386135816574096680,
0.00772819295525550842,
0.01101715769618749619,
0.03397253528237342834,
0.05642189085483551025,
0.07947637885808944702,
0.09120549261569976807,
0.07853287458419799805,
0.06760499626398086548,
0.04454636201262474060,
0.01834887266159057617,
0.02190857939422130585,
0.03589883074164390564,
0.05413221940398216248,
0.07667050510644912720,
0.08179084956645965576,
0.06840649247169494629,
0.02724961936473846436,
-0.02061619982123374939,
-0.03732546791434288025,
-0.04657091200351715088,
-0.04664903506636619568,
-0.02025921270251274109,
-0.02050002105534076691,
-0.05329069122672080994,
-0.07527797669172286987,
-0.12374453246593475342,
-0.18240889906883239746,
-0.22017620503902435303,
-0.22653888165950775146,
-0.18196533620357513428,
-0.12872621417045593262,
-0.08736176043748855591,
-0.04716105386614799500,
-0.08290808647871017456,
-0.12336272001266479492,
-0.15392719209194183350,
-0.17657817900180816650,
-0.18091858923435211182,
-0.16762784123420715332,
-0.11746167391538619995,
-0.03836887702345848083,
0.01435510907322168350,
0.05190563574433326721,
-0.01316683739423751831,
-0.02839578315615653992,
-0.02059196121990680695,
0.01087042596191167831,
0.03812003135681152344,
0.07650701701641082764,
0.12194595485925674438,
0.17416821420192718506,
0.20699685811996459961,
0.18499362468719482422,
0.14371931552886962891,
0.01438443455845117569,
0.01672049053013324738,
0.04858973622322082520,
0.10628549754619598389,
0.14369976520538330078,
0.19238887727260589600,
0.22990553081035614014,
0.23117104172706604004,
0.19348122179508209229,
0.10897514224052429199,
0.03575394675135612488,
0.05034743621945381165,
0.05897277593612670898,
0.09449423104524612427,
0.13025909662246704102,
0.14155350625514984131,
0.13961787521839141846,
0.11007901281118392944,
0.03362565487623214722,
-0.03638829290866851807,
-0.07440269738435745239,
-0.06931192427873611450,
0.08251868933439254761,
0.09025508165359497070,
0.09489051252603530884,
0.08077323436737060547,
0.04791262000799179077,
0.01276090275496244431,
-0.03893240541219711304,
-0.08691383898258209229,
-0.09288968890905380249,
-0.05697280913591384888,
-0.03042045049369335175,
-0.02163951471447944641,
-0.06308941543102264404,
-0.11113116145133972168,
-0.15523195266723632812,
-0.18120211362838745117,
-0.19290517270565032959,
-0.19632063806056976318,
-0.17500576376914978027,
-0.11026544123888015747,
-0.06547298282384872437,
-0.06379889696836471558,
-0.07221850752830505371,
-0.08749141544103622437,
-0.10640487074851989746,
-0.09780538082122802734,
-0.09242554008960723877,
-0.08421590924263000488,
-0.06733910739421844482,
-0.05080089345574378967,
-0.02761458232998847961,
-0.02264830097556114197,
-0.02542184665799140930,
0.02488051727414131165,
0.04402749240398406982,
0.05840830132365226746,
0.08359221369028091431,
0.09588699042797088623,
0.10184543579816818237,
0.10243560373783111572,
0.08290450274944305420,
0.07948775589466094971,
0.06270620971918106079,
0.04120337590575218201,
0.02090569026768207550,
0.01063837017863988876,
0.01567499525845050812,
0.03395741805434226990,
0.05352469533681869507,
0.07931600511074066162,
0.08868543803691864014,
0.07716730982065200806,
0.06733847409486770630,
0.04375660419464111328,
0.02053002081811428070,
0.02553200162947177887,
0.03327008709311485291,
0.05033188685774803162,
0.07092590630054473877,
0.07605280727148056030,
0.06585200130939483643,
0.02467071264982223511,
-0.02285806275904178619,
-0.04009590297937393188,
-0.04994388297200202942,
-0.04469561576843261719,
-0.01997814700007438660,
-0.02205546945333480835,
-0.05717238038778305054,
-0.07920525223016738892,
-0.12170783430337905884,
-0.17694629728794097900,
-0.21384032070636749268,
-0.22290754318237304688,
-0.18022446334362030029,
-0.12422120571136474609,
-0.08481329679489135742,
-0.04837691783905029297,
-0.08265695720911026001,
-0.12333420664072036743,
-0.15192438662052154541,
-0.17238758504390716553,
-0.17512592673301696777,
-0.15895475447177886963,
-0.11546771973371505737,
-0.04184220358729362488,
0.01208326779305934906,
0.05246279388666152954,
-0.00873807631433010101,
-0.02534632012248039246,
-0.02048642560839653015,
0.01184196956455707550,
0.04222104698419570923,
0.08040180057287216187,
0.12080051004886627197,
0.17048110067844390869,
0.20129695534706115723,
0.17986890673637390137,
0.14779639244079589844,
0.01854306273162364960,
0.02104087732732295990,
0.05256071314215660095,
0.10997048765420913696,
0.14678677916526794434,
0.19116204977035522461,
0.22416388988494873047,
0.22978077828884124756,
0.19202628731727600098,
0.11368238180875778198,
0.04516889899969100952,
0.05338221788406372070,
0.06120303273200988770,
0.09707379341125488281,
0.13011248409748077393,
0.14127357304096221924,
0.13333603739738464355,
0.10347266495227813721,
0.03348712250590324402,
-0.03405399248003959656,
-0.06781497597694396973,
-0.05672262609004974365,
0.08384042233228683472,
0.08736818283796310425,
0.08951502293348312378,
0.07504965364933013916,
0.04425657913088798523,
0.00710882153362035751,
-0.04167381301522254944,
-0.08383434265851974487,
-0.08908448368310928345,
-0.05415194109082221985,
-0.02730740420520305634,
-0.01643740944564342499,
-0.06314555555582046509,
-0.10855565220117568970,
-0.15060563385486602783,
-0.17981486022472381592,
-0.19067975878715515137,
-0.19157800078392028809,
-0.17085705697536468506,
-0.11235641688108444214,
-0.06325598806142807007,
-0.06004106625914573669,
-0.06522750109434127808,
-0.08583902567625045776,
-0.10359405726194381714,
-0.09520559757947921753,
-0.09149586409330368042,
-0.08503720909357070923,
-0.07083660364151000977,
-0.05610513687133789062,
-0.03344608098268508911,
-0.02725263684988021851,
-0.02375313825905323029,
0.02984447404742240906,
0.04360369220376014709,
0.06090965494513511658,
0.08127698302268981934,
0.09153020381927490234,
0.09800991415977478027,
0.09944794327020645142,
0.07980681210756301880,
0.07737279683351516724,
0.06149443238973617554,
0.04454883933067321777,
0.04448177665472030640,
0.05382856354117393494,
0.07054780423641204834,
0.07179570198059082031,
0.08929298818111419678,
0.08988998830318450928,
0.08827402442693710327,
0.08612263947725296021,
0.06927951425313949585,
0.05081805586814880371,
0.03889057412743568420,
0.03134556114673614502,
0.03020570985972881317,
0.03903579711914062500,
0.04549906775355339050,
0.05221410095691680908,
0.05350527539849281311,
0.05798588693141937256,
0.06307467073202133179,
0.04747110977768898010,
0.02879211679100990295,
0.01488655712455511093,
0.04402946680784225464,
0.02921267971396446228,
0.03443199768662452698,
0.03802665323019027710,
0.04828570038080215454,
0.04705755785107612610,
0.05327503010630607605,
0.06031060218811035156,
0.03982223570346832275,
0.02909779362380504608,
0.00550083862617611885,
0.03755186498165130615,
0.02496411651372909546,
0.02873610705137252808,
0.01628748141229152679,
0.02186141535639762878,
0.02559303678572177887,
0.02790993079543113708,
0.03384074196219444275,
0.01880581676959991455,
0.01665472425520420074,
-0.00835935678333044052,
0.02407117746770381927,
0.01828464120626449585,
0.02005735412240028381,
0.00986295659095048904,
0.01306224241852760315,
0.01041901856660842896,
0.00681445514783263206,
0.01464013662189245224,
-0.00128182128537446260,
0.00119301071390509605,
-0.02061735652387142181,
0.01665270887315273285,
0.00156523438636213541,
0.00433647260069847107,
-0.00107657175976783037,
0.00060010491870343685,
-0.00242696120403707027,
-0.00127682066522538662,
-0.00091222283663228154,
-0.02151074819266796112,
-0.01413367595523595810,
-0.03393575921654701233,
0.00659178290516138077,
-0.01011553406715393066,
-0.00428638420999050140,
-0.00777613837271928787,
-0.01176968123763799667,
-0.02030097879469394684,
-0.02844753116369247437,
-0.02397389709949493408,
-0.03758759796619415283,
-0.02244141139090061188,
-0.04442146793007850647,
0.00293069262988865376,
-0.00870686117559671402,
-0.01376575976610183716,
-0.02193393930792808533,
-0.02406863309442996979,
-0.03667374700307846069,
-0.04662843048572540283,
-0.04430271312594413757,
-0.05258047580718994141,
-0.03618027642369270325,
-0.05782346427440643311,
-0.01183621585369110107,
-0.01905336230993270874,
-0.02809570357203483582,
-0.03573426231741905212,
-0.03704963997006416321,
-0.04718083143234252930,
-0.05209454894065856934,
-0.04924761876463890076,
-0.05621003359556198120,
-0.04218637570738792419,
-0.05080434307456016541,
-0.02285878174006938934,
-0.01964421756565570831,
-0.04145298153162002563,
-0.04679037258028984070,
-0.04098051413893699646,
-0.05356930196285247803,
-0.04850169643759727478,
-0.04382980987429618835,
-0.05053490400314331055,
-0.03363329917192459106,
-0.03333282470703125000,
-0.03221895918250083923,
-0.02724399417638778687,
-0.05373119190335273743,
-0.06493163853883743286,
-0.06244570389389991760,
-0.07095529884099960327,
-0.06580408662557601929,
-0.05704739689826965332,
-0.04768668487668037415,
-0.03272954747080802917,
-0.02381640672683715820,
0.04622154310345649719,
0.04941057786345481873,
0.06725341081619262695,
0.07598520070314407349,
0.09066902846097946167,
0.09500636160373687744,
0.09733589738607406616,
0.10136339813470840454,
0.07680750638246536255,
0.05501679331064224243,
0.04677263647317886353,
0.03720637410879135132,
0.03196755051612854004,
0.04298648983240127563,
0.05451311916112899780,
0.05930099636316299438,
0.06080202385783195496,
0.06868521869182586670,
0.07896598428487777710,
0.05716712772846221924,
0.03468005359172821045,
0.01892693154513835907,
0.05136230960488319397,
0.03156591951847076416,
0.04076639562845230103,
0.04872475191950798035,
0.05511434748768806458,
0.05008303746581077576,
0.06085225567221641541,
0.07460165023803710938,
0.05092911422252655029,
0.03709280863404273987,
0.00913032703101634979,
0.04674818366765975952,
0.03045956976711750031,
0.03634747490286827087,
0.03126044198870658875,
0.03509292379021644592,
0.03534795716404914856,
0.04201389104127883911,
0.04979074001312255859,
0.03003410808742046356,
0.02383678406476974487,
-0.00842337403446435928,
0.03685934096574783325,
0.02686464972794055939,
0.02816832065582275391,
0.02409712970256805420,
0.02804837003350257874,
0.02423028461635112762,
0.02356922626495361328,
0.03030138835310935974,
0.00882387720048427582,
0.00892945751547813416,
-0.02395260892808437347,
0.02580644562840461731,
0.00569320050999522209,
0.01128593366593122482,
0.00791006535291671753,
0.01425834558904170990,
0.00681174453347921371,
0.00868354644626379013,
0.01350673940032720566,
-0.01378294639289379120,
-0.01185125764459371567,
-0.04388411715626716614,
0.01353918761014938354,
-0.00581692624837160110,
0.00443512341007590294,
0.00520086847245693207,
-0.00005399182191467844,
-0.00941624026745557785,
-0.01658025197684764862,
-0.01388138532638549805,
-0.03461435809731483459,
-0.02727741189301013947,
-0.05808072909712791443,
0.00650009326636791229,
-0.00546264601871371269,
-0.00735456682741641998,
-0.01351461373269557953,
-0.01728706434369087219,
-0.02967272326350212097,
-0.03909740969538688660,
-0.04015839472413063049,
-0.05349802970886230469,
-0.04340762272477149963,
-0.07331424951553344727,
-0.01712173968553543091,
-0.02349398285150527954,
-0.02703667432069778442,
-0.03623768687248229980,
-0.03880558535456657410,
-0.05147032067179679871,
-0.05692645907402038574,
-0.05840678885579109192,
-0.06776401400566101074,
-0.05659834295511245728,
-0.07307963073253631592,
-0.03464603424072265625,
-0.03264696151018142700,
-0.04620054736733436584,
-0.05325729772448539734,
-0.04932622238993644714,
-0.06689925491809844971,
-0.06632008403539657593,
-0.06583016365766525269,
-0.07069242745637893677,
-0.05639965832233428955,
-0.06225206330418586731,
-0.05677982047200202942,
-0.04880008846521377563,
-0.07584170252084732056,
-0.08650242537260055542,
-0.08939968049526214600,
-0.10192247480154037476,
-0.10040424019098281860,
-0.09236721694469451904,
-0.08312696218490600586,
-0.06651698797941207886,
-0.05985537171363830566,
0.03017189539968967438,
0.03764231875538825989,
0.05247617140412330627,
0.06189913302659988403,
0.07767745107412338257,
0.08266828954219818115,
0.08545244485139846802,
0.09451382607221603394,
0.07571037858724594116,
0.05715531483292579651,
0.05365315079689025879,
0.02347131818532943726,
0.02152905426919460297,
0.03304338827729225159,
0.04525445401668548584,
0.05090525001287460327,
0.05638643726706504822,
0.06497608870267868042,
0.07618717104196548462,
0.05873028188943862915,
0.04067464172840118408,
0.03101106546819210052,
0.03932499885559082031,
0.02414718270301818848,
0.03616169095039367676,
0.04349649697542190552,
0.05345051735639572144,
0.04662952572107315063,
0.05957184359431266785,
0.07515058666467666626,
0.05419431254267692566,
0.04187092557549476624,
0.01596711762249469757,
0.03891870006918907166,
0.03089444711804389954,
0.03878353908658027649,
0.03050300292670726776,
0.03893718868494033813,
0.03270029649138450623,
0.04150803759694099426,
0.05140593275427818298,
0.03539095073938369751,
0.02860227972269058228,
-0.00525889266282320023,
0.03201831132173538208,
0.02640316821634769440,
0.03174462169408798218,
0.02909952588379383087,
0.03430528938770294189,
0.02771723642945289612,
0.02507093362510204315,
0.03607288748025894165,
0.01686568558216094971,
0.01336030289530754089,
-0.02077338658273220062,
0.02243406698107719421,
0.01144804898649454117,
0.01911274529993534088,
0.01761385239660739899,
0.02225438505411148071,
0.01177338603883981705,
0.01303302682936191559,
0.01719788461923599243,
-0.00566667830571532249,
-0.00392350042238831520,
-0.03818374872207641602,
0.01661855913698673248,
0.00116409093607217073,
0.01142640504986047745,
0.01105369906872510910,
0.00733639253303408623,
-0.00065734365489333868,
-0.01110761333256959915,
-0.01185761205852031708,
-0.02690583653748035431,
-0.01811734773218631744,
-0.05380553752183914185,
0.01222147885710000992,
-0.00020731186668854207,
0.00134703726507723331,
-0.00431968411430716515,
-0.00684053963050246239,
-0.02190345339477062225,
-0.03128784894943237305,
-0.03351926803588867188,
-0.04847732186317443848,
-0.03804513439536094666,
-0.07223306596279144287,
-0.01492206938564777374,
-0.01751633733510971069,
-0.02068706974387168884,
-0.02968066744506359100,
-0.03312985599040985107,
-0.04724956676363945007,
-0.05244028940796852112,
-0.05187809839844703674,
-0.06317854672670364380,
-0.05383378267288208008,
-0.07588818669319152832,
-0.03970417752861976624,
-0.03309844061732292175,
-0.04510597884654998779,
-0.05628920719027519226,
-0.05378824472427368164,
-0.07119741290807723999,
-0.07119518518447875977,
-0.07258111238479614258,
-0.07777017354965209961,
-0.06082554161548614502,
-0.06999674439430236816,
-0.06662517040967941284,
-0.05861419811844825745,
-0.08431931585073471069,
-0.09774846583604812622,
-0.10165470093488693237,
-0.11565925180912017822,
-0.11759404838085174561,
-0.11412408947944641113,
-0.10100460797548294067,
-0.08149324357509613037,
-0.07621251046657562256,
0.05172031745314598083,
0.01197368837893009186,
-0.04725425690412521362,
-0.08048426359891891479,
-0.02916474826633930206,
0.01593283377587795258,
0.03572385385632514954,
0.04634006693959236145,
0.02703231759369373322,
-0.00179025519173592329,
-0.00575536116957664490,
0.05814668908715248108,
-0.01283339504152536392,
-0.05998753756284713745,
-0.05707266554236412048,
-0.00208764756098389626,
0.04197056964039802551,
0.03486727178096771240,
0.02084049768745899200,
0.00426949327811598778,
-0.01400286518037319183,
-0.01787502132356166840,
0.05563704296946525574,
-0.04662759229540824890,
-0.07920543849468231201,
-0.03914587572216987610,
0.03079907409846782684,
0.05147784575819969177,
0.04321437701582908630,
0.02534990757703781128,
-0.01287157740443944931,
-0.02011200040578842163,
-0.02016339078545570374,
0.03620222955942153931,
-0.06418468058109283447,
-0.07899704575538635254,
-0.02501950971782207489,
0.06310408562421798706,
0.05716535821557044983,
0.03235511854290962219,
0.02221425250172615051,
-0.02909008227288722992,
-0.02806998044252395630,
-0.01104030385613441467,
0.01966259256005287170,
-0.07305689156055450439,
-0.05628588050603866577,
0.00439688749611377716,
0.08484932035207748413,
0.06629232317209243774,
0.02235219627618789673,
-0.00759610766544938087,
-0.03602452948689460754,
-0.02649081125855445862,
-0.00190915726125240326,
-0.00619474099949002266,
-0.08055977523326873779,
-0.03121047839522361755,
0.04499369114637374878,
0.10285025835037231445,
0.07588487118482589722,
0.00832312833517789841,
-0.03572845086455345154,
-0.03566800430417060852,
-0.01261289976537227631,
0.00044479963253252208,
-0.03110101260244846344,
-0.07445070892572402954,
-0.00439656898379325867,
0.07768468558788299561,
0.09839163720607757568,
0.03945038095116615295,
-0.02539253793656826019,
-0.04900089651346206665,
-0.03031655587255954742,
-0.00360098551027476788,
0.00514524150639772415,
-0.05968329310417175293,
-0.04755498096346855164,
0.03470234945416450500,
0.08602951467037200928,
0.06662126630544662476,
-0.01316758431494235992,
-0.06556787341833114624,
-0.03992201387882232666,
-0.01639756187796592712,
0.00213627913035452366,
0.00443547451868653297,
-0.06850122660398483276,
-0.01784118451178073883,
0.06115123257040977478,
0.07740402966737747192,
0.03149343654513359070,
-0.04189020767807960510,
-0.06425521522760391235,
-0.02253888733685016632,
-0.00417645974084734917,
-0.00079017732059583068,
0.00296828988939523697,
-0.04911869764328002930,
0.00900876894593238831,
0.05982994660735130310,
0.04653954505920410156,
-0.00126757577527314425,
-0.04191626608371734619,
-0.03649259731173515320,
-0.00681079132482409477,
-0.00498936278745532036,
-0.00125616707373410463,
0.00359102035872638226,
-0.02951304987072944641,
0.05425488576292991638,
0.07776657491922378540,
0.04403723776340484619,
0.00390847725793719292,
-0.03830244392156600952,
-0.02387409470975399017,
-0.00488375872373580933,
-0.00537539180368185043,
0.00272685731761157513,
0.00041498709470033646,
0.04896177351474761963,
0.00408957013860344887,
-0.06529299169778823853,
-0.10126745700836181641,
-0.04171213135123252869,
0.01233180612325668335,
0.03827913478016853333,
0.05673566833138465881,
0.03754292801022529602,
0.00513897789642214775,
-0.00244880863465368748,
0.05950829014182090759,
-0.02418765239417552948,
-0.08189984411001205444,
-0.07580424100160598755,
-0.00644780136644840240,
0.04471327736973762512,
0.04020366817712783813,
0.02952131815254688263,
0.01219744887202978134,
-0.00887079723179340363,
-0.01816086843609809875,
0.05564911291003227234,
-0.06337966024875640869,
-0.10299196094274520874,
-0.05277165025472640991,
0.03190201520919799805,
0.06383774429559707642,
0.05524339154362678528,
0.04056348651647567749,
-0.00246187602169811726,
-0.01786072552204132080,
-0.02092779241502285004,
0.02649844810366630554,
-0.08729160577058792114,
-0.09603343158960342407,
-0.02973305247724056244,
0.07015092670917510986,
0.06836533546447753906,
0.04825203120708465576,
0.03427472338080406189,
-0.02287452109158039093,
-0.02852016128599643707,
-0.01344227511435747147,
0.00660033570602536201,
-0.09548784792423248291,
-0.07292040437459945679,
0.00420028995722532272,
0.09857732802629470825,
0.08398921787738800049,
0.03453487157821655273,
0.00136323936749249697,
-0.02858622558414936066,
-0.02451983280479907990,
-0.00439573219045996666,
-0.02227404899895191193,
-0.10163167864084243774,
-0.04090577736496925354,
0.05643859505653381348,
0.12198680639266967773,
0.09458979964256286621,
0.02395441010594367981,
-0.02217347174882888794,
-0.03063166514039039612,
-0.01264517195522785187,
-0.00254632881842553616,
-0.04990072175860404968,
-0.09020581841468811035,
-0.00188569305464625359,
0.09787831455469131470,
0.12142212688922882080,
0.05959620326757431030,
-0.01247773785144090652,
-0.03823833912611007690,
-0.02724070101976394653,
-0.00596987362951040268,
-0.00008054362115217373,
-0.07606393098831176758,
-0.05539797618985176086,
0.03715628758072853088,
0.10203780978918075562,
0.08484345674514770508,
0.00038103136466816068,
-0.05853853374719619751,
-0.03387880325317382812,
-0.01565026305615901947,
0.00325192045420408249,
-0.00072744942735880613,
-0.07733610272407531738,
-0.01653681881725788116,
0.07067663222551345825,
0.09030254930257797241,
0.04102866351604461670,
-0.03410114347934722900,
-0.05927877500653266907,
-0.02040153369307518005,
-0.00384428445249795914,
-0.00067192845745012164,
-0.00056855240836739540,
-0.05323860421776771545,
0.01192186400294303894,
0.06451197713613510132,
0.05595868080854415894,
0.00529716396704316139,
-0.03972559794783592224,
-0.03421808034181594849,
-0.00613099103793501854,
-0.00628869514912366867,
-0.00450978707522153854,
-0.00262547540478408337,
-0.03615007549524307251,
0.05313504859805107117,
0.07570642977952957153,
0.04587939754128456116,
0.00640177121385931969,
-0.03590406849980354309,
-0.02110503427684307098,
-0.00455333292484283447,
-0.00961745716631412506,
0.00023531523765996099,
-0.00741873634979128838,
0.04624171182513237000,
0.00573844043537974358,
-0.05551433563232421875,
-0.09119055420160293579,
-0.03987212851643562317,
0.01152875553816556931,
0.03780181705951690674,
0.04881496354937553406,
0.03463143482804298401,
0.00712494645267724991,
0.00187141541391611099,
0.05953167378902435303,
-0.01722167804837226868,
-0.06948536634445190430,
-0.06943091750144958496,
-0.00520175416022539139,
0.03776087611913681030,
0.03594952449202537537,
0.02531269192695617676,
0.00921796262264251709,
-0.00913331378251314163,
-0.01482905633747577667,
0.06063372269272804260,
-0.05220580473542213440,
-0.09370037168264389038,
-0.05232782661914825439,
0.02535650692880153656,
0.05331636220216751099,
0.04878422245383262634,
0.03578345850110054016,
-0.00697976583614945412,
-0.01443742867559194565,
-0.01500100921839475632,
0.03722548857331275940,
-0.07513626664876937866,
-0.09299762547016143799,
-0.03425627201795578003,
0.06286371499300003052,
0.05880345776677131653,
0.03762326017022132874,
0.02730977162718772888,
-0.02191220782697200775,
-0.02261178381741046906,
-0.01177486125379800797,
0.01603854447603225708,
-0.08984886854887008667,
-0.07521376758813858032,
-0.00048691345728002489,
0.08742585778236389160,
0.06871264427900314331,
0.02410452067852020264,
-0.00319245248101651669,
-0.02597839012742042542,
-0.02116150595247745514,
-0.00575874280184507370,
-0.00614772411063313484,
-0.09405914694070816040,
-0.04795613884925842285,
0.04781993478536605835,
0.10924683511257171631,
0.08014933019876480103,
0.01580726169049739838,
-0.02087118476629257202,
-0.02475326694548130035,
-0.01138484477996826172,
-0.00557601219043135643,
-0.03529214859008789062,
-0.08626192808151245117,
-0.01004980690777301788,
0.08306596428155899048,
0.10938485711812973022,
0.05160689726471900940,
-0.01076352503150701523,
-0.03174274414777755737,
-0.02403577975928783417,
-0.00769110303372144699,
-0.00111342384479939938,
-0.06453518569469451904,
-0.05576482787728309631,
0.02682084962725639343,
0.08932277560234069824,
0.07528016716241836548,
-0.00477119209244847298,
-0.05154497176408767700,
-0.02708089910447597504,
-0.01381377410143613815,
0.00008558450645068660,
-0.00251369597390294075,
-0.07072809338569641113,
-0.02363380230963230133,
0.05570939928293228149,
0.07609607279300689697,
0.03239741176366806030,
-0.03560381755232810974,
-0.05698835477232933044,
-0.01833441480994224548,
-0.00812178663909435272,
-0.00322556751780211926,
-0.00665134470909833908,
-0.04712547361850738525,
0.00854566507041454315,
0.05593425035476684570,
0.04758637771010398865,
-0.00126983493100851774,
-0.04219390451908111572,
-0.03501187637448310852,
-0.00505107548087835312,
-0.00748428329825401306,
-0.00470014754682779312,
-0.00427784631028771400,
-0.03074449673295021057,
0.04749476537108421326,
0.07110865414142608643,
0.03988090530037879944,
0.00110464182216674089,
-0.04118094220757484436,
-0.02451515197753906250,
-0.00405072793364524841,
-0.00734383799135684967,
-0.00291208643466234207,
-0.00676653580740094185,
-0.01551887299865484238,
0.01137977372854948044,
0.03018408641219139099,
0.03841675445437431335,
0.04290328174829483032,
0.03895789384841918945,
0.00845419149845838547,
-0.02172791957855224609,
-0.02941586263477802277,
-0.02020267210900783539,
-0.01541430409997701645,
-0.02220592461526393890,
0.00307434215210378170,
0.01094935555011034012,
0.02052903734147548676,
0.03039631620049476624,
0.03758904710412025452,
0.01840270124375820160,
-0.02518760971724987030,
-0.03459613397717475891,
-0.01912342198193073273,
-0.02015451528131961823,
-0.02943924069404602051,
-0.00578980846330523491,
0.00589356292039155960,
0.02450723201036453247,
0.02616935409605503082,
0.04017248004674911499,
0.02988959848880767822,
-0.01194791682064533234,
-0.04179549589753150940,
-0.03386308997869491577,
-0.03411696478724479675,
-0.02847678214311599731,
-0.01861369796097278595,
-0.00453373463824391365,
0.02258931286633014679,
0.03907486423850059509,
0.04480434209108352661,
0.03830378130078315735,
0.01678716763854026794,
-0.02023916505277156830,
-0.03489170596003532410,
-0.04380679503083229065,
-0.03118183463811874390,
-0.02485898323357105255,
-0.00985781382769346237,
0.02160386927425861359,
0.03781845048069953918,
0.04492747411131858826,
0.03217035159468650818,
0.02640366926789283752,
-0.00509870750829577446,
-0.03162903338670730591,
-0.04640707373619079590,
-0.02715334482491016388,
-0.02924081124365329742,
-0.01984384283423423767,
0.01099164504557847977,
0.03197587281465530396,
0.04714204370975494385,
0.04358419775962829590,
0.02687347494065761566,
-0.00200417847372591496,
-0.02357271313667297363,
-0.04520317912101745605,
-0.02569959498941898346,
-0.02783733233809471130,
-0.02831544354557991028,
-0.00522416690364480019,
0.02753670699894428253,
0.04526773467659950256,
0.04960958287119865417,
0.04341031238436698914,
0.00671691680327057838,
-0.02933186851441860199,
-0.05609811842441558838,
-0.02695572376251220703,
-0.03083247132599353790,
-0.03209039568901062012,
-0.00998176168650388718,
0.01299772225320339203,
0.03788492456078529358,
0.05377946421504020691,
0.05265108495950698853,
0.01648768968880176544,
-0.02608122304081916809,
-0.05745249614119529724,
-0.02424463070929050446,
-0.03262383118271827698,
-0.03663670271635055542,
-0.02493150718510150909,
0.00562012149021029472,
0.04307949915528297424,
0.05435006693005561829,
0.05569235980510711670,
0.03186194971203804016,
-0.00749454181641340256,
-0.05181975290179252625,
-0.01363332662731409073,
-0.03381069377064704895,
-0.04069621860980987549,
-0.02939029596745967865,
-0.00364515348337590694,
0.03096064925193786621,
0.03768099471926689148,
0.03714748099446296692,
0.03541050106287002563,
0.00742536550387740135,
-0.04332356899976730347,
-0.02007288672029972076,
-0.03687397390604019165,
-0.05189615860581398010,
-0.04762653261423110962,
-0.02554914169013500214,
0.01658766902983188629,
0.04637740179896354675,
0.05652561411261558533,
0.05582255125045776367,
0.02905511483550071716,
-0.03473928570747375488,
-0.01511022541671991348,
0.00883652921766042709,
0.02473339810967445374,
0.03168393298983573914,
0.04062560200691223145,
0.04410553351044654846,
0.00972123071551322937,
-0.02392473816871643066,
-0.03281242027878761292,
-0.02717129141092300415,
-0.02350981906056404114,
-0.01957638747990131378,
0.00150909286458045244,
0.00789382029324769974,
0.01741768047213554382,
0.02932933717966079712,
0.04257113486528396606,
0.01987526938319206238,
-0.02509608305990695953,
-0.03686749935150146484,
-0.02736626379191875458,
-0.02496338263154029846,
-0.02954328805208206177,
-0.00532938027754426003,
0.00585842970758676529,
0.02332815900444984436,
0.02799362689256668091,
0.04161440953612327576,
0.03007243573665618896,
-0.00841706898063421249,
-0.03661384060978889465,
-0.03467576578259468079,
-0.03869601711630821228,
-0.02719572000205516815,
-0.01282429508864879608,
-0.00480040209367871284,
0.01993822865188121796,
0.03702322766184806824,
0.04279857128858566284,
0.03769605234265327454,
0.01713021658360958099,
-0.01508286874741315842,
-0.03093656152486801147,
-0.04185917228460311890,
-0.02138711884617805481,
-0.01932650245726108551,
-0.01211340911686420441,
0.02034425362944602966,
0.03900011628866195679,
0.05035773664712905884,
0.03732465207576751709,
0.02646951191127300262,
-0.00141789368353784084,
-0.02844963781535625458,
-0.04815998673439025879,
-0.02039119414985179901,
-0.02391975931823253632,
-0.02130206860601902008,
0.00823771953582763672,
0.03018227033317089081,
0.04850638285279273987,
0.04961311817169189453,
0.03075946867465972900,
0.00135567027609795332,
-0.02508398704230785370,
-0.04972683638334274292,
-0.02025544457137584686,
-0.02302335947751998901,
-0.03032341226935386658,
-0.01122793182730674744,
0.01819868199527263641,
0.04345911368727684021,
0.05397678539156913757,
0.05085338652133941650,
0.01360807940363883972,
-0.02619095146656036377,
-0.06161564961075782776,
-0.02033425681293010712,
-0.02768734842538833618,
-0.03237361088395118713,
-0.01410731300711631775,
0.00794826168566942215,
0.03613150864839553833,
0.05463270843029022217,
0.05926478281617164612,
0.02358314394950866699,
-0.02354283817112445831,
-0.06051240488886833191,
-0.01639921963214874268,
-0.02690549753606319427,
-0.03349702805280685425,
-0.02544859424233436584,
0.00064907188061624765,
0.03511727228760719299,
0.05336359888315200806,
0.06064843013882637024,
0.03596265614032745361,
-0.00708162225782871246,
-0.05424141883850097656,
-0.00624054484069347382,
-0.02331998012959957123,
-0.03457740321755409241,
-0.03145676851272583008,
-0.01280322484672069550,
0.02183582447469234467,
0.03166496753692626953,
0.03789445757865905762,
0.03454665094614028931,
0.00775894289836287498,
-0.04442262277007102966,
-0.01647002249956130981,
-0.03384001553058624268,
-0.05144024267792701721,
-0.05310825258493423462,
-0.03811135515570640564,
0.00382843241095542908,
0.03352576866745948792,
0.05065778270363807678,
0.05668017268180847168,
0.02990453504025936127,
-0.03667221963405609131,
-0.01632392033934593201,
0.00127831730060279369,
0.02008506841957569122,
0.03164903819561004639,
0.03925444558262825012,
0.04531658813357353210,
0.01310957036912441254,
-0.01797324046492576599,
-0.02143027074635028839,
-0.01236014720052480698,
-0.00084817904280498624,
-0.01846885122358798981,
-0.00652385316789150238,
0.00389116373844444752,
0.01092573907226324081,
0.01945021003484725952,
0.03496249765157699585,
0.01836659945547580719,
-0.02114539034664630890,
-0.02871187776327133179,
-0.01860034093260765076,
-0.01073255762457847595,
-0.02311349660158157349,
-0.00692456960678100586,
0.00347169232554733753,
0.01621602103114128113,
0.01413315813988447189,
0.03270101547241210938,
0.02929890342056751251,
-0.00680686160922050476,
-0.03700860589742660522,
-0.03169412165880203247,
-0.02722985669970512390,
-0.01952667161822319031,
-0.01457560621201992035,
-0.00513992691412568092,
0.01534462161362171173,
0.02307941392064094543,
0.03518994525074958801,
0.03847795352339744568,
0.01753746531903743744,
-0.01761066354811191559,
-0.02982108108699321747,
-0.03238349035382270813,
-0.01667262427508831024,
-0.01706843078136444092,
-0.01187168713659048080,
0.01367799937725067139,
0.02712870202958583832,
0.03963656723499298096,
0.03150425478816032410,
0.02213040180504322052,
-0.00630383100360631943,
-0.03228181600570678711,
-0.04428128153085708618,
-0.01104522403329610825,
-0.01865176483988761902,
-0.02363749779760837555,
0.00132865179330110550,
0.01978861168026924133,
0.04003232717514038086,
0.04289430379867553711,
0.02440970949828624725,
0.00062725879251956940,
-0.02765696868300437927,
-0.04683928191661834717,
-0.01171880587935447693,
-0.01985326781868934631,
-0.03084053285419940948,
-0.01349158026278018951,
0.00767234573140740395,
0.03236358240246772766,
0.04778378456830978394,
0.04764408990740776062,
0.00957271736115217209,
-0.03139360249042510986,
-0.05563312396407127380,
-0.01520343404263257980,
-0.02341934293508529663,
-0.02522637508809566498,
-0.01275765057653188705,
-0.00094511947827413678,
0.02548241987824440002,
0.04806609451770782471,
0.05553200095891952515,
0.02086984738707542419,
-0.02837372384965419769,
-0.05754481628537178040,
-0.01579651050269603729,
-0.02685675956308841705,
-0.02938854135572910309,
-0.02604180388152599335,
-0.00516417250037193298,
0.02562054432928562164,
0.04409291967749595642,
0.05460222437977790833,
0.03457538411021232605,
-0.00859049335122108459,
-0.05386823043227195740,
-0.00623022206127643585,
-0.02094480209052562714,
-0.02769198454916477203,
-0.03119893744587898254,
-0.01788373664021492004,
0.01068363152444362640,
0.02222301252186298370,
0.03374455124139785767,
0.03727180883288383484,
0.00867203064262866974,
-0.03972124680876731873,
-0.01170876249670982361,
-0.02694614976644515991,
-0.04187917709350585938,
-0.04611865803599357605,
-0.03638947010040283203,
-0.00428251130506396294,
0.02896213904023170471,
0.04950850456953048706,
0.05246363952755928040,
0.02864050678908824921,
-0.03383069857954978943,
-0.00465111853554844856,
0.00367052387446165085,
-0.00066020718077197671,
-0.02545168995857238770,
0.01082955487072467804,
0.06031514331698417664,
-0.05283202603459358215,
-0.03540234267711639404,
0.09652251750230789185,
-0.07012811303138732910,
0.01893894560635089874,
-0.00314928381703794003,
-0.00737421587109565735,
0.01683608256280422211,
0.02121658250689506531,
-0.09896277636289596558,
0.07072510570287704468,
0.10580323636531829834,
-0.19545195996761322021,
0.08748043328523635864,
0.05721576511859893799,
-0.06394204497337341309,
-0.00030871797935105860,
0.00731930509209632874,
-0.04587735608220100403,
0.09247846156358718872,
-0.01943391375243663788,
-0.17557761073112487793,
0.25849857926368713379,
-0.05298667401075363159,
-0.19317127764225006104,
0.20346753299236297607,
-0.06826809048652648926,
-0.01593997702002525330,
0.03933111950755119324,
-0.02887126430869102478,
-0.05099023506045341492,
0.19068489968776702881,
-0.18781168758869171143,
-0.03932907432317733765,
0.27999266982078552246,
-0.24069800972938537598,
0.02601418830454349518,
0.05127176642417907715,
-0.01169426087290048599,
-0.02531486749649047852,
0.08104285597801208496,
-0.10938800126314163208,
0.04073491692543029785,
0.12645711004734039307,
-0.25970548391342163086,
0.17995047569274902344,
0.03541557863354682922,
-0.13578407466411590576,
0.06167728453874588013,
0.02692983299493789673,
-0.04964535683393478394,
0.00116103154141455889,
0.06732995063066482544,
-0.10550950467586517334,
0.11779665946960449219,
-0.07130014151334762573,
-0.02807448804378509521,
0.11466331779956817627,
-0.08823198825120925903,
0.02353892102837562561,
0.00577419763430953026,
0.02418216690421104431,
-0.05472766607999801636,
0.02410694770514965057,
0.00248312181793153286,
0.01835189200937747955,
-0.01015206705778837204,
-0.05534874275326728821,
0.08124240487813949585,
-0.03175190836191177368,
-0.00386436074040830135,
-0.00960487592965364456,
0.01323410123586654663,
0.01237576827406883240,
-0.01804056763648986816,
-0.02713600732386112213,
0.04100949689745903015,
0.02849424444139003754,
-0.07449191808700561523,
0.05492421239614486694,
0.00040483480552211404,
-0.01552489213645458221,
0.00272801588289439678,
-0.00613028416410088539,
0.00259030587039887905,
0.02712276764214038849,
-0.03251467645168304443,
-0.03621928393840789795,
0.07234515249729156494,
-0.02680578641593456268,
-0.01805248856544494629,
0.03081134520471096039,
-0.00792120397090911865,
-0.00290378555655479431,
0.00503248581662774086,
-0.01282948162406682968,
0.00845567695796489716,
0.02263777330517768860,
-0.04552560299634933472,
-0.00761882448568940163,
0.03643254563212394714,
-0.00928591657429933548,
-0.00869584176689386368,
0.00496638566255569458,
-0.00013371952809393406,
0.00279507576487958431,
-0.00077018362935632467,
-0.01102538779377937317,
0.00851397681981325150,
0.00842030346393585205,
-0.01669679395854473114,
-0.01844818703830242157,
0.01800213567912578583,
0.00270090042613446712,
-0.00497224926948547363,
-0.00288232765160501003,
-0.00103296118322759867,
0.00908367149531841278,
-0.02962357364594936371,
0.00455459672957658768,
0.08968029916286468506,
-0.06210888177156448364,
-0.06970496475696563721,
0.11756682395935058594,
-0.05375981330871582031,
0.02904262579977512360,
0.00331244640983641148,
-0.01641973480582237244,
0.02041176147758960724,
0.02887475304305553436,
-0.14354896545410156250,
0.08942019194364547729,
0.15508823096752166748,
-0.28121516108512878418,
0.07517020404338836670,
0.10983791947364807129,
-0.06574067473411560059,
0.01467741653323173523,
0.00121661461889743805,
-0.07001911103725433350,
0.12937141954898834229,
-0.03945055231451988220,
-0.23655214905738830566,
0.35687556862831115723,
-0.06547564268112182617,
-0.30433756113052368164,
0.24910032749176025391,
-0.04353269189596176147,
-0.01354695297777652740,
0.05938202515244483948,
-0.05041769891977310181,
-0.05964877083897590637,
0.24456651508808135986,
-0.27612999081611633301,
-0.03827038407325744629,
0.40266102552413940430,
-0.33878490328788757324,
-0.01966252923011779785,
0.09334289282560348511,
-0.02045765705406665802,
-0.01301241293549537659,
0.10821697115898132324,
-0.14212794601917266846,
0.07448398321866989136,
0.12660162150859832764,
-0.34859478473663330078,
0.28397008776664733887,
0.05440787598490715027,
-0.22179336845874786377,
0.08554864674806594849,
0.02723458409309387207,
-0.06986200809478759766,
0.02128886990249156952,
0.07502632588148117065,
-0.11058849096298217773,
0.14078357815742492676,
-0.14432325959205627441,
-0.01540235057473182678,
0.19005139172077178955,
-0.12959863245487213135,
0.01377891749143600464,
0.01057856157422065735,
0.01764467172324657440,
-0.06969206780195236206,
0.02993684448301792145,
0.02246612496674060822,
0.04721204191446304321,
-0.05731403455138206482,
-0.09136032313108444214,
0.14220853149890899658,
-0.03490527346730232239,
-0.02051799744367599487,
-0.00998962577432394028,
0.02294651605188846588,
0.01087432075291872025,
-0.03621287643909454346,
-0.03415059670805931091,
0.09080728888511657715,
0.02379376441240310669,
-0.14145667850971221924,
0.07099699974060058594,
0.02027524635195732117,
-0.02330726943910121918,
0.00084672594675794244,
-0.00966492295265197754,
0.00915746204555034637,
0.02967904694378376007,
-0.05501618608832359314,
-0.02042053639888763428,
0.10400738567113876343,
-0.05088495090603828430,
-0.03961979225277900696,
0.04171240329742431641,
-0.00141170620918273926,
-0.00509493704885244370,
0.00056439492618665099,
-0.01397566590458154678,
0.01618420332670211792,
0.02073280885815620422,
-0.05268915370106697083,
0.00455144885927438736,
0.04834290221333503723,
-0.02451908402144908905,
-0.01370000746101140976,
0.00462267454713582993,
0.00249571260064840317,
0.00476153101772069931,
0.00241404026746749878,
-0.00792812462896108627,
0.01907829008996486664,
0.01232517417520284653,
-0.01206170860677957535,
-0.01171328313648700714,
0.02381794154644012451,
-0.00046881608432158828,
-0.00881184451282024384,
-0.00111320021096616983,
0.00984930060803890228,
0.00694720586761832237,
-0.02694074809551239014,
0.00208229408599436283,
0.06882043182849884033,
-0.06605466455221176147,
-0.05415530130267143250,
0.10623098164796829224,
-0.07162739336490631104,
0.01257801335304975510,
-0.00073414470534771681,
-0.00923845544457435608,
0.02267775870859622955,
0.02733563259243965149,
-0.11856336891651153564,
0.08645312488079071045,
0.12908640503883361816,
-0.23611904680728912354,
0.08832843601703643799,
0.08569371700286865234,
-0.06721555441617965698,
0.00912190135568380356,
0.00176452531013637781,
-0.05884073674678802490,
0.11575681716203689575,
-0.03154464811086654663,
-0.19529627263545989990,
0.31446272134780883789,
-0.06630766391754150391,
-0.25068852305412292480,
0.23104891180992126465,
-0.06531683355569839478,
-0.01411851961165666580,
0.04450522363185882568,
-0.04585843533277511597,
-0.05927213653922080994,
0.21263293921947479248,
-0.22886742651462554932,
-0.03473431244492530823,
0.34144100546836853027,
-0.29891052842140197754,
0.01440359372645616531,
0.07404320687055587769,
-0.01209357380867004395,
-0.01624909043312072754,
0.09266802668571472168,
-0.13173788785934448242,
0.06110343709588050842,
0.12725494801998138428,
-0.29732277989387512207,
0.24186317622661590576,
0.03824890404939651489,
-0.17945671081542968750,
0.07864592969417572021,
0.03404920548200607300,
-0.05128315463662147522,
0.01484498474746942520,
0.06138263270258903503,
-0.10854928195476531982,
0.12991207838058471680,
-0.11642572283744812012,
-0.01756515167653560638,
0.15393014252185821533,
-0.12074848264455795288,
0.01688475906848907471,
0.00269775046035647392,
0.02075916528701782227,
-0.05829983204603195190,
0.03131487220525741577,
0.00659191468730568886,
0.03760668635368347168,
-0.03899336233735084534,
-0.07231067866086959839,
0.12778896093368530273,
-0.03182601928710937500,
-0.02342561818659305573,
-0.02245926111936569214,
0.01388547569513320923,
0.01094252523034811020,
-0.01690734364092350006,
-0.03731302544474601746,
0.06657022982835769653,
0.02623559162020683289,
-0.11403922736644744873,
0.07275597751140594482,
0.01536283083260059357,
-0.02674785815179347992,
0.00211871392093598843,
-0.00713143171742558479,
0.01082638278603553772,
0.03050019033253192902,
-0.04433010146021842957,
-0.02327381260693073273,
0.08356942981481552124,
-0.04253495484590530396,
-0.02770600281655788422,
0.03943841531872749329,
-0.00910174008458852768,
0.00226569431833922863,
0.00127818761393427849,
-0.01226832624524831772,
0.01248558238148689270,
0.02056604065001010895,
-0.04065115004777908325,
0.00482213171198964119,
0.03598103672266006470,
-0.02638435736298561096,
-0.00694369664415717125,
0.00747243035584688187,
0.00031587123521603644,
-0.00040545125375501812,
-0.00337276374921202660,
-0.01328609604388475418,
0.00613548560068011284,
0.00973354559391736984,
-0.00619979528710246086,
-0.01325025968253612518,
0.01833809353411197662,
0.00168908562045544386,
-0.00874526519328355789,
-0.00890419073402881622,
-0.01173959486186504364,
-0.00961055699735879898,
-0.00894064828753471375,
-0.01043436489999294281,
-0.01053461246192455292,
-0.00502307293936610222,
-0.00454973755404353142,
-0.00605390360578894615,
-0.00856268219649791718,
-0.00220409710891544819,
-0.00790560152381658554,
-0.01074155792593955994,
-0.01275106333196163177,
-0.01092557050287723541,
-0.00967192556709051132,
-0.00836834218353033066,
-0.00719612278044223785,
-0.00972450152039527893,
-0.00937921740114688873,
-0.00962049514055252075,
-0.00837661046534776688,
-0.01040071249008178711,
-0.01022234559059143066,
-0.01051940675824880600,
-0.01032661926001310349,
-0.01058604940772056580,
-0.00896669365465641022,
-0.00637389207258820534,
-0.01167760603129863739,
-0.01071373559534549713,
-0.00843488704413175583,
-0.00938386656343936920,
-0.01052650157362222672,
-0.00894761830568313599,
-0.00672222860157489777,
-0.01173080783337354660,
-0.00951970927417278290,
-0.00950690265744924545,
-0.01140400674194097519,
-0.00953375454992055893,
-0.01029651705175638199,
-0.00829614698886871338,
-0.00665690563619136810,
-0.00651996629312634468,
-0.00709880702197551727,
-0.00858468562364578247,
-0.01117650512605905533,
-0.00801426824182271957,
-0.00958218798041343689,
-0.01100294850766658783,
-0.00791522860527038574,
-0.00817971769720315933,
-0.00943267624825239182,
-0.00581255881115794182,
-0.00460076425224542618,
-0.00971727166324853897,
-0.00973236095160245895,
-0.00894283503293991089,
-0.00537075474858283997,
-0.00702130515128374100,
-0.00758199812844395638,
-0.00556418905034661293,
-0.00663262745365500450,
-0.00834790803492069244,
-0.00416125543415546417,
-0.00647642556577920914,
-0.01188985072076320648,
-0.01247371546924114227,
-0.01027646008878946304,
-0.00680755823850631714,
-0.00691072456538677216,
-0.00768597936257719994,
-0.00400352338328957558,
-0.00736179435625672340,
-0.01036435365676879883,
-0.00930263940244913101,
-0.00728985853493213654,
-0.00964123290032148361,
-0.00842067226767539978,
-0.01189829129725694656,
-0.00690818857401609421,
-0.00738751422613859177,
-0.00898426026105880737,
-0.00318120722658932209,
-0.01157798152416944504,
-0.01211110502481460571,
-0.01008234079927206039,
-0.00896214973181486130,
-0.01044792216271162033,
-0.00742013659328222275,
-0.00998073071241378784,
-0.00827603414654731750,
-0.01048743538558483124,
-0.00913034752011299133,
-0.00433959020301699638,
-0.01094987802207469940,
-0.01191714312881231308,
-0.01057032588869333267,
-0.00885928049683570862,
-0.01338548958301544189,
-0.01069773547351360321,
-0.00807345751672983170,
-0.00733858300372958183,
-0.00847217720001935959,
-0.00591950817033648491,
-0.00739253731444478035,
-0.01205758936703205109,
-0.01184161100536584854,
-0.01184825226664543152,
-0.00138049467932432890,
-0.00605138950049877167,
-0.00099160021636635065,
0.00893810484558343887,
0.00823075883090496063,
0.00664454465731978416,
0.00445444043725728989,
0.00287045631557703018,
0.00177877035457640886,
0.00188569573219865561,
-0.00111600977834314108,
0.01680550538003444672,
0.01630592159926891327,
0.01799544319510459900,
0.01606857404112815857,
0.01414757128804922104,
0.01135431323200464249,
0.01489794533699750900,
0.01660477556288242340,
0.01455967407673597336,
0.01271580718457698822,
0.02110315486788749695,
0.01850653439760208130,
0.01590914651751518250,
0.01291864458471536636,
0.01322382781654596329,
0.01435646135360002518,
0.01387822441756725311,
0.01470840163528919220,
0.01169152464717626572,
0.01155497319996356964,
0.01253965869545936584,
0.01553815137594938278,
0.01909142173826694489,
0.01654241979122161865,
0.01472398266196250916,
0.01652214489877223969,
0.01629981026053428650,
0.01505524851381778717,
0.01648225076496601105,
0.01230044849216938019,
0.01277401577681303024,
0.01461575645953416824,
0.01610711030662059784,
0.01481728535145521164,
0.01710259355604648590,
0.01810845918953418732,
0.01388246379792690277,
0.01705438271164894104,
0.01551381498575210571,
0.01413194462656974792,
0.01426185015588998795,
0.01325520221143960953,
0.01282912865281105042,
0.01602169126272201538,
0.01505616959184408188,
0.01564133726060390472,
0.01613247953355312347,
0.01341922208666801453,
0.01617177389562129974,
0.01407884433865547180,
0.01258886884897947311,
0.01500085834413766861,
0.01150382589548826218,
0.01079745776951313019,
0.01700291782617568970,
0.01857504248619079590,
0.01354152895510196686,
0.01553252898156642914,
0.01558415591716766357,
0.01729560457170009613,
0.01569772325456142426,
0.01547691971063613892,
0.01645563356578350067,
0.01615007780492305756,
0.01443155389279127121,
0.01916261576116085052,
0.01684959232807159424,
0.01333181373775005341,
0.01657314971089363098,
0.01786030642688274384,
0.01746490225195884705,
0.01520903222262859344,
0.01577137224376201630,
0.01777230948209762573,
0.01786220073699951172,
0.01491045113652944565,
0.01787024363875389099,
0.01556881144642829895,
0.01421021297574043274,
0.01560295652598142624,
0.01185262762010097504,
0.01446704100817441940,
0.01412845123559236526,
0.01392155792564153671,
0.01723580621182918549,
0.01355025637894868851,
0.01332324091345071793,
0.01804259605705738068,
0.01267819944769144058,
0.01311303395777940750,
0.01507909968495368958,
0.01048226840794086456,
0.01043582987040281296,
0.01065038703382015228,
0.01537696179002523422,
0.01525145024061203003,
0.01054721139371395111,
0.01113420166075229645,
0.01768278330564498901,
0.01056218519806861877,
0.00800049118697643280,
0.01235041860491037369,
0.01294859498739242554,
0.01127531286329030991,
0.01051365770399570465,
0.01266539189964532852,
0.01084688026458024979,
0.00787654425948858261,
0.00891608837991952896,
0.01378636620938777924,
0.01804105378687381744,
0.01470985449850559235,
0.02051156945526599884,
0.02728061564266681671,
0.02522661536931991577,
0.02372814342379570007,
0.02293844334781169891,
0.02022777497768402100,
0.02176629193127155304,
0.02089199982583522797,
0.02148419991135597229,
-0.01675332151353359222,
-0.01456717681139707565,
-0.01029489282518625259,
-0.01041526813060045242,
-0.01070662122219800949,
-0.01358483638614416122,
-0.00805607531219720840,
-0.00609683198854327202,
-0.00830638688057661057,
-0.01086908020079135895,
-0.00479027489200234413,
-0.01257125567644834518,
-0.01182049792259931564,
-0.01289783138781785965,
-0.00927542988210916519,
-0.00672977976500988007,
-0.00727229658514261246,
-0.00682373298332095146,
-0.00785179901868104935,
-0.00640724319964647293,
-0.00803240947425365448,
-0.00800684746354818344,
-0.01185547560453414917,
-0.01124055217951536179,
-0.01058445218950510025,
-0.00802917778491973877,
-0.00813884008675813675,
-0.00963728595525026321,
-0.00637502735480666161,
-0.00937991309911012650,
-0.00790981296449899673,
-0.00697657512500882149,
-0.00838980916887521744,
-0.01238487474620342255,
-0.00931993220001459122,
-0.00702617689967155457,
-0.01154030673205852509,
-0.00825795065611600876,
-0.00941861514002084732,
-0.00979295559227466583,
-0.00726640457287430763,
-0.00718828197568655014,
-0.00783052947372198105,
-0.00584884406998753548,
-0.01277391426265239716,
-0.01153062935918569565,
-0.01112627331167459488,
-0.01441671419888734818,
-0.00930227711796760559,
-0.01282813213765621185,
-0.01283134240657091141,
-0.00714810006320476532,
-0.00903144944459199905,
-0.01033284794539213181,
-0.00593559164553880692,
-0.00856299512088298798,
-0.01360909361392259598,
-0.01192876044660806656,
-0.01110346429049968719,
-0.00938787125051021576,
-0.01212795451283454895,
-0.01072155032306909561,
-0.00778508698567748070,
-0.00700346240773797035,
-0.00889891386032104492,
-0.00678371405228972435,
-0.00871733482927083969,
-0.01260132156312465668,
-0.01133819762617349625,
-0.01055208500474691391,
-0.01165896188467741013,
-0.01371636986732482910,
-0.01127780508249998093,
-0.00693675596266984940,
-0.00752360699698328972,
-0.00928584486246109009,
-0.00649003591388463974,
-0.00562060670927166939,
-0.00738777080550789833,
-0.00693478994071483612,
-0.01234350167214870453,
-0.01233464665710926056,
-0.01343987882137298584,
-0.01210869010537862778,
-0.00741732819005846977,
-0.01169765088707208633,
-0.00910449586808681488,
-0.00420145364478230476,
-0.00303962151519954205,
-0.00529826479032635689,
-0.00384306604973971844,
-0.00814223010092973709,
-0.00980316195636987686,
-0.01276894100010395050,
-0.00955195352435112000,
-0.00925935897976160049,
-0.01310975942760705948,
-0.01100096944719552994,
-0.00468560215085744858,
-0.00178351788781583309,
-0.00482701184228062630,
-0.00188555719796568155,
-0.00062815367709845304,
-0.00258763507008552551,
-0.00622472306713461876,
-0.00645326729863882065,
-0.01017626002430915833,
-0.01154332701116800308,
-0.01161871757358312607,
-0.00675821164622902870,
0.01134035363793373108,
0.00730528309941291809,
0.01391472760587930679,
0.02221780456602573395,
0.01813698001205921173,
0.01327772065997123718,
0.00974859856069087982,
0.00481861224398016930,
0.00457487162202596664,
0.00432471977546811104,
0.00559769477695226669,
-0.00432528322562575340,
-0.00011166343028889969,
0.03222887590527534485,
-0.05692562460899353027,
0.00920225400477647781,
0.03139294311404228210,
-0.02973419986665248871,
0.01443409360945224762,
0.01684987172484397888,
-0.00664286687970161438,
0.00148512737359851599,
-0.01533293724060058594,
0.02473813854157924652,
0.01431955862790346146,
-0.07225915789604187012,
0.05242760479450225830,
0.01457635406404733658,
-0.03661424666643142700,
0.02487211301922798157,
0.00371141801588237286,
-0.01087725255638360977,
-0.00307704438455402851,
-0.02097120881080627441,
0.05816443264484405518,
-0.02893816493451595306,
-0.06979326903820037842,
0.08684659749269485474,
-0.02545465901494026184,
-0.02412020787596702576,
0.04887162894010543823,
-0.01571039110422134399,
-0.01447344105690717697,
0.00202958239242434502,
-0.01375645585358142853,
0.07111868262290954590,
-0.09186728298664093018,
-0.01739209704101085663,
0.11683398485183715820,
-0.07424245029687881470,
-0.00687913084402680397,
0.05286159738898277283,
-0.02672257460653781891,
-0.00615371763706207275,
0.00325726345181465149,
0.01283452194184064865,
0.05354474112391471863,
-0.13942849636077880859,
0.05570041015744209290,
0.09165253490209579468,
-0.10233903676271438599,
0.02904395014047622681,
0.03830524906516075134,
-0.03678567707538604736,
-0.00112146814353764057,
0.00462231040000915527,
0.04443316161632537842,
-0.01099854428321123123,
-0.13828563690185546875,
0.13929462432861328125,
0.02989753521978855133,
-0.11192761361598968506,
0.07615967839956283569,
0.01288777031004428864,
-0.03621742129325866699,
0.00382395065389573574,
0.00376256927847862244,
0.05381292849779129028,
-0.07421255111694335938,
-0.07062130421400070190,
0.16952228546142578125,
-0.05945062637329101562,
-0.07818235456943511963,
0.10753586888313293457,
-0.03569704666733741760,
-0.02849547378718852997,
0.01304667070508003235,
0.00351596274413168430,
0.03625147044658660889,
-0.10548674315214157104,
0.02534468099474906921,
0.15119609236717224121,
-0.13156566023826599121,
-0.01647444255650043488,
0.09894772619009017944,
-0.06366626173257827759,
-0.00107589794788509607,
0.00945113878697156906,
