-0.0111258151
0.0218566880
0.0112490347
-0.0036623620
0.0001516118
-0.0068758717
0.0122996094
0.0057078386
-0.0118295588
0.0021401332
0.0163286179
0.0083040809
-0.0221961625
-0.0111890221
-0.0150324125
-0.0047865682
-0.0127550354
-0.0213985182
-0.0304746125
-0.0281972960
-0.0037298859
-0.0088613657
-0.0014364321
-0.0097948862
-0.0197495371
-0.0162092689
-0.0306023285
-0.0183156859
0.0042394060
0.0155536169
-0.0224469714
-0.0260992739
-0.0300232917
0.0020241512
0.0073960116
-0.0187668521
-0.0205927845
-0.0353851207
-0.0191824157
0.0037765261
-0.0086345049
-0.0002998375
-0.0149790784
-0.0078853741
0.0033829904
0.0002163765
0.0022664536
0.0006053110
-0.0006574480
0.0062683281
-0.0435705669
-0.0593829416
-0.0205457620
0.0125971371
0.0071732877
-0.0645986795
-0.0999035612
-0.0476015992
0.0135089401
0.0092610307
-0.0848520622
-0.1480262578
-0.0812985525
0.0091325035
0.0171221085
-0.0514635481
-0.0986984521
-0.0549072549
-0.0070924642
-0.0063872896
-0.0325666144
-0.0620816723
-0.0446701981
-0.0090977056
-0.0043647345
-0.0496574454
0.0136253377
0.0197277013
-0.0095940130
-0.0133720739
-0.0415638648
0.0102750249
0.0456403792
0.0070153666
-0.0011733500
0.0467555895
0.0931330472
0.1350156218
0.0530299135
0.0195011441
0.0168299209
0.0663055703
0.0691857114
0.0070583145
-0.0154195847
0.0280515365
0.0728797317
0.0689113811
-0.0044178306
-0.0051111379
-0.0261751059
-0.0363869444
-0.0090099499
-0.0065080416
-0.0085761799
-0.0396467112
-0.0641089752
-0.0252185781
-0.0053083939
-0.0195558891
-0.0380670503
-0.0920103565
-0.0673545375
-0.0019693454
-0.0125009865
-0.0294201951
-0.0747784004
-0.0478220806
-0.0098888380
-0.0137506835
-0.0250713881
-0.0527914725
-0.0217087381
0.0054598465
-0.0110318745
-0.0186793134
-0.0389665850
-0.0304702837
-0.0080896560
0.0026858356
-0.0141376602
-0.0344933458
-0.0289573986
-0.0045792861
0.0069488799
-0.0044222735
-0.0335702784
-0.0369646959
-0.0063191620
0.0067159347
0.0046446142
-0.0175913535
-0.0243221447
-0.0080074500
0.0002610567
-0.0120045180
-0.0044608586
-0.0098407874
-0.0109200673
-0.0055982936
0.0155745754
0.0006014417
-0.0028960302
-0.0185020138
0.0020155837
-0.0015162624
-0.0284484662
-0.0185664892
-0.0095605794
0.0188007038
0.0227325186
-0.0131143909
-0.0620956644
-0.0538018234
0.0029696319
0.0228323657
-0.0006166740
-0.0581173860
-0.0351645723
-0.0167056229
-0.0100254212
-0.0158854350
-0.0370732695
-0.0342051908
-0.0015594392
0.0094539775
0.0065629450
-0.0002208932
0.0223674476
0.0207202099
0.0159306582
0.0094168391
0.0008840762
0.0263024960
0.0071069710
0.0188878775
0.0037292533
0.0225479584
0.0478393771
0.0139837665
-0.0027257446
0.0085128732
0.0200795438
0.0210325941
-0.0005245467
0.0049022320
0.0187763665
0.0172258746
0.0125928596
0.0079880636
-0.0253532156
-0.0141547257
-0.0041071060
0.0092213601
-0.0031208273
-0.0146015389
-0.0414573960
-0.0366765931
0.0033473531
-0.0045686504
0.0352150761
0.0107037285
-0.0317400545
0.0054796766
0.0071179047
-0.0014773119
-0.0119779445
-0.0292246621
-0.0086848615
0.0010501144
-0.0034441887
-0.0166075882
-0.0238809604
-0.0103826923
-0.0092766965
0.0069650775
0.0164298061
0.0152899707
0.0063299276
-0.0008309949
0.0050906185
-0.0015742766
-0.0092845885
-0.0034503369
-0.0028521768
0.0078496318
0.0033717877
0.0029152434
0.0061803735
0.0038827125
-0.0059024990
-0.0124074463
0.0016805516
0.0096005378
0.0028272651
0.0098805269
0.0033913492
0.0144376699
0.0148920128
0.0090523176
-0.0011784916
0.0021133111
-0.0018923472
0.0008717332
0.0115012825
-0.0110175358
-0.0078515587
-0.0114680948
-0.0045104064
0.0024236264
-0.0084415954
-0.0119541306
-0.0139053287
-0.0098290490
-0.0036832746
-0.0146442829
-0.0143694775
-0.0160311330
-0.0152271092
-0.0097502116
-0.0143645965
-0.0120604774
-0.0156054627
-0.0169788357
-0.0122425109
0.0190030113
0.0074333767
-0.0119868601
-0.0046543935
-0.0020879745
0.0088915601
-0.0056098928
-0.0007974379
-0.0014166703
-0.0043709776
-0.0038666916
0.0173689071
0.0298683271
0.0072066332
-0.0103518330
-0.0053975377
0.0254966244
0.0318895578
-0.0027080337
-0.0292850249
-0.0029226600
0.0256736390
0.0279075149
-0.0005776014
-0.0133891562
-0.0045325775
0.0157360826
0.0015408765
0.0032214709
0.0004665988
0.0005436617
0.0334909260
0.0170001145
-0.0104848174
0.0041185687
0.0255665407
0.0449787341
0.0141753629
-0.0114010954
0.0012810583
0.0032837463
0.0177844781
0.0048843231
-0.0029196234
0.0124577610
-0.0069800848
0.0088025611
-0.0010795071
0.0018715757
0.0100130904
0.0158985108
0.0180270150
0.0005623973
-0.0035895819
0.0038762556
0.0174936075
0.0158012621
-0.0136703243
-0.0090734074
0.0000172605
0.0237592477
0.0217914488
0.0068094181
0.0049956888
0.0038386385
0.0050901566
0.0011354425
-0.0000540843
-0.0064017083
-0.0084666265
0.0017604689
0.0017528520
-0.0129967351
-0.0128520615
-0.0148190027
-0.0037682354
0.0167301558
0.0176672395
0.0111396285
0.0137798497
0.0028612199
-0.0001544898
-0.0024867102
0.0132818986
0.0076746140
0.0134216221
0.0039084274
-0.0036195447
0.0047710743
0.0072680921
-0.0040943762
-0.0045191757
-0.0131751867
-0.0008653222
0.0075847763
-0.0000003245
-0.0078806076
-0.0105079310
-0.0060704760
0.0004988546
0.0142582329
0.0209406074
0.0049003898
-0.0133108757
-0.0177507289
0.0233788658
0.0129111009
-0.0024070428
-0.0267737228
-0.0162353441
0.0662315786
0.0767178312
0.0466919094
-0.0249853078
-0.0192464069
0.0299121421
0.0328159183
0.0212966725
0.0012908726
-0.0134148439
0.0169470906
0.0220847726
0.0198027007
-0.0026852011
0.0047679762
-0.0089539196
-0.0251657069
-0.0194796473
0.0017151394
-0.0098015247
-0.0025394990
-0.0187878888
-0.0006863340
-0.0020146605
-0.0077714436
0.0103220390
-0.0012974528
0.0243726149
0.0082946010
0.0028783760
-0.0062879571
0.0145486882
0.0224283915
-0.0041434532
-0.0066234390
0.0018521345
0.0266221091
0.0297880564
0.0081979614
-0.0031818207
0.0032893240
0.0118517522
0.0096012661
0.0127719566
0.0220899414
0.0075617875
-0.0000882252
-0.0003167413
0.0050552078
0.0154105751
0.0187659599
-0.0225704182
-0.0380503461
-0.0085760951
0.0065471856
0.0177489314
-0.0105065573
-0.0266505666
-0.0154690249
0.0005054265
0.0038103638
-0.0046224426
-0.0152065838
-0.0002771879
0.0100809932
0.0164480340
0.0240218807
0.0168615095
0.0089661218
0.0010790058
0.0153149692
0.0021860106
-0.0146028837
0.0026567513
0.0051205289
0.0067217061
-0.0036909014
-0.0080450624
0.0067678117
-0.0016663602
-0.0033400725
-0.0240952708
-0.0113978060
0.0237386581
0.0107467873
0.0000145799
-0.0182126053
0.0021495393
0.0200526081
0.0085114772
0.0071468446
0.0092892526
0.0002556290
-0.0079512717
0.0099555096
-0.0083229141
-0.0118167931
-0.0081164194
-0.0085077165
0.0067897383
-0.0126020992
0.0016631377
0.0022949525
-0.0026506393
0.0060823364
-0.0233241022
0.0037978499
0.0155279720
-0.0053997138
-0.0046861186
-0.0061557735
0.0095312176
0.0049069789
-0.0076655750
-0.0021873186
0.0077556740
0.0262803324
-0.0026117370
-0.0191097595
-0.0384100899
0.0345849842
0.0544913448
0.0029629238
-0.0134499269
-0.0275892727
0.0701031163
0.0785143822
0.0315951742
0.0022778139
-0.0061367587
0.0122119375
0.0326606482
-0.0046238718
-0.0246933661
-0.0214597993
-0.0095924521
0.0045644417
-0.0085241394
-0.0287466217
-0.0283078682
-0.0029627164
-0.0118985716
-0.0125595266
0.0004440947
-0.0147839375
-0.0147513989
-0.0271860026
-0.0094642350
-0.0051093227
-0.0278088972
-0.0044423048
-0.0028937992
0.0225326680
0.0044360110
-0.0126035959
-0.0117225396
-0.0128341066
0.0188703854
0.0117805498
-0.0135479970
-0.0138590429
0.0084011722
0.0268959273
0.0149951512
-0.0063097198
0.0055884141
0.0195507463
-0.0063734469
-0.0150248986
-0.0069900695
0.0170491561
0.0191224795
-0.0107530290
-0.0128185647
-0.0036520578
0.0298349969
0.0344274305
0.0076434724
0.0024059794
-0.0032568476
0.0008072778
-0.0005482431
-0.0130337700
-0.0023429217
-0.0176045299
-0.0020877272
-0.0008529050
-0.0075986376
-0.0067272838
-0.0148201128
0.0104677863
0.0204416588
0.0211061053
0.0082270643
-0.0028697536
0.0057715047
0.0019829720
-0.0034469387
-0.0052157226
0.0057007624
0.0105153034
-0.0015935188
-0.0134256938
0.0058400584
0.0118299611
-0.0098498948
-0.0192993004
-0.0167612359
-0.0061301296
0.0026851550
-0.0034972518
-0.0119479466
-0.0040093283
0.0034432923
0.0073303208
-0.0381005444
-0.0086060762
-0.0346436948
-0.0373388678
-0.0171024483
-0.0528172553
-0.0078005157
-0.0399477668
-0.0441523865
-0.0300952885
0.0049576904
0.0613683388
0.0079844007
-0.0259432122
-0.0192504581
-0.0061322106
0.0306255966
0.0003978680
-0.0169461593
-0.0114245396
-0.0039286460
0.0247479752
-0.0010082128
-0.0310146119
-0.0232651532
0.0178536456
0.0107109314
-0.0009704909
-0.0129939774
-0.0054134484
0.0116610527
0.0137735764
-0.0053935177
0.0020338739
0.0176146645
-0.0057353247
0.0165760256
0.0014555099
-0.0058122054
-0.0029221771
-0.0053348779
0.0173470154
0.0317832753
0.0242303349
0.0162843540
-0.0096170343
0.0076747006
0.0374214426
0.0283032302
0.0201285072
-0.0224757418
-0.0379319713
-0.0173015948
-0.0187202040
0.0006263840
-0.0043672221
-0.0702597052
-0.0256620664
0.0009862152
-0.0058237151
-0.0030922387
-0.1086073145
-0.0587354675
-0.0001921587
0.0104014585
-0.0146863675
-0.0662298277
-0.0365495607
-0.0014544443
-0.0046900837
-0.0207806490
-0.0494286045
-0.0381084979
0.0035060041
0.0016398396
-0.0002378329
0.0222306941
-0.0000360963
-0.0085160080
-0.0037183715
-0.0057860408
0.0080297450
-0.0061308094
-0.0023705207
0.0040746718
0.0038316166
0.0075055175
-0.0054670395
0.0091824867
0.0157694239
-0.0057615936
-0.0053987191
-0.0172965247
-0.0081424173
-0.0118551124
-0.0064764759
-0.0012192312
-0.0061469600
-0.0083169173
-0.0080833351
-0.0295493044
-0.0111206733
-0.0065448470
-0.0048759347
0.0019054461
-0.0175949838
0.0042873882
-0.0028652470
-0.0126525899
0.0036658635
-0.0106148431
0.0263294745
0.0292442646
0.0190700423
0.0216721352
-0.0109294513
-0.0214232206
-0.0138814328
-0.0035229682
0.0001666219
-0.0122655025
-0.0052598743
-0.0002138905
-0.0010202371
0.0062543270
0.0320850760
0.0350495204
0.0132737514
-0.0091947606
0.0017133050
0.0205870327
0.0153978607
0.0009966344
0.0024619226
0.0056522531
0.0300675444
-0.0050131059
-0.0499655716
-0.0231843162
0.0024544471
0.0310720745
0.0180674121
-0.0338421576
-0.0050509768
0.0046480303
0.0066173053
-0.0093910610
-0.0323949754
-0.0148024084
-0.0108812470
0.0052536353
0.0108707687
0.0041134371
-0.0069007087
-0.0110644698
-0.0002153175
0.0355702005
0.0158751830
-0.0037709284
-0.0017239593
0.0277952794
0.0865214467
0.0545568839
0.0162972752
0.0112744644
0.0055600554
0.0562731810
0.0317806453
0.0023797147
0.0007201062
0.0106627550
0.0437290296
0.0271746702
0.0081501305
0.0012874241
-0.0106371064
-0.0112650972
-0.0155209322
-0.0027529027
-0.0025496543
-0.0119081261
-0.0259354785
-0.0251329225
0.0091229165
0.0111528933
-0.0029457361
-0.0147470832
0.0133727044
0.0300996304
0.0308334194
-0.0211413279
-0.0336609706
0.0118639506
0.0241058823
-0.0009328988
-0.0175644644
-0.0138556799
0.0211931840
0.0206129272
0.0150041012
-0.0149411829
0.0115527976
0.0083640553
-0.0038761415
0.0032478909
-0.0053460686
0.0349649303
0.0225731805
0.0010763553
0.0090071540
0.0185029544
0.0610358901
0.0415578336
0.0087869074
0.0128016798
0.0101585155
0.0355523676
0.0124788573
-0.0057052858
-0.0008881667
-0.0015688824
0.0112232938
0.0038392218
0.0002233020
-0.0037078275
-0.0103523023
-0.0094176549
0.0196023211
-0.0121298069
-0.0211278461
-0.0206351932
-0.0645545796
0.0073364712
-0.0086525092
-0.0301929079
-0.0219789110
-0.0908785015
-0.0102158505
0.0076358318
0.0043260516
-0.0270383134
-0.0537876524
-0.0060522556
0.0005992708
0.0005243248
-0.0403642505
-0.0610762723
-0.0314932540
-0.0028153069
-0.0074728811
0.0009074637
0.0307448450
0.0178191010
-0.0005014941
0.0036825361
-0.0016064363
0.0145055186
-0.0066472087
-0.0020339626
0.0071229329
0.0040464229
0.0147389350
-0.0031882469
0.0220139064
0.0347524509
-0.0055667441
-0.0176163837
-0.0116346870
0.0103919944
0.0133267660
0.0033254009
0.0124353552
0.0124203758
0.0043632207
0.0119038094
-0.0001693297
0.0134991622
0.0004556411
-0.0015748299
0.0045578037
0.0093479631
0.0354721248
0.0242258813
-0.0046326504
0.0054160752
0.0229641646
0.0576830506
0.0323360749
-0.0075911223
-0.0047820657
-0.0015777071
0.0377773345
0.0167335626
0.0062404140
-0.0039751427
-0.0023472717
0.0271599442
0.0068122512
-0.0063988911
-0.0039641159
0.0118167792
0.0000601030
0.0080889296
0.0018254727
-0.0029664037
-0.0102146678
-0.0443304516
-0.0172383394
-0.0038510300
-0.0083006080
-0.0048263106
-0.0263275448
0.0050713979
0.0223529823
0.0037527848
-0.0111444304
-0.0286019053
0.0019553790
0.0060928664
-0.0076596364
0.0039850692
-0.0112972334
0.0130498875
0.0153520843
0.0069114040
0.0076766289
0.0062065078
-0.0101444684
-0.0167240761
-0.0235034116
0.0109671429
0.0132670859
0.0049689612
-0.0141727589
-0.0284932572
0.0211035851
0.0441675670
0.0384458676
0.0067470064
-0.0149979563
0.0159213860
0.0454251282
0.0374927856
-0.0069041499
-0.0195088629
0.0150906704
0.0286033731
0.0259787701
-0.0055269850
-0.0117847091
-0.0028697280
0.0162456799
-0.0026558230
-0.0214856565
-0.0160709154
0.0311582666
0.0522677265
0.0078215776
-0.0215390455
-0.0146597661
0.0686290041
0.0660962462
0.0169782285
-0.0089274785
-0.0045983000
0.0147882458
0.0259311944
-0.0173487794
-0.0220319275
-0.0163212903
-0.0018323379
0.0074948533
-0.0133234784
-0.0149915302
-0.0131263295
-0.0309329741
0.0229380857
0.0193229709
0.0041478295
-0.0073304330
-0.0444999970
0.0057528066
0.0183167756
0.0005128577
0.0026546011
-0.0024742656
0.0495102368
0.0713340268
0.0205205940
0.0187202785
-0.0285398327
0.0104655568
0.0207565501
0.0084725916
0.0023402909
-0.0250880383
0.0126863867
0.0096696662
-0.0067315074
-0.0070816497
0.0073851687
0.0086867679
0.0135202464
0.0198361799
0.0137431659
-0.0022422986
-0.0307515953
-0.0103848204
0.0046282415
0.0087962439
-0.0209322795
-0.0386561081
-0.0069105932
0.0162625127
0.0153448805
-0.0268601421
-0.0443255268
-0.0072684675
0.0108571146
0.0059431158
-0.0139418310
-0.0279104523
-0.0137333535
0.0028853000
0.0037045113
-0.0008060696
0.0025460056
-0.0134931225
-0.0220874269
-0.0267805252
0.0018256712
0.0311996918
-0.0015969046
-0.0213245191
-0.0308661163
0.0239461213
0.0477795564
0.0132279126
-0.0195179451
-0.0083578788
0.0063403156
0.0257644821
-0.0033699102
-0.0213063303
-0.0202792082
0.0128423264
0.0265900865
0.0051908195
-0.0118188318
-0.0092776809
-0.0222771484
-0.0171725042
-0.0130152972
-0.0138477888
-0.0024328667
-0.0413351208
-0.0388511531
-0.0341003649
-0.0269333199
-0.0156199588
-0.0160873588
-0.0527125038
-0.0468732417
-0.0283865053
-0.0189114157
-0.0061097373
-0.0277556647
-0.0301636588
-0.0163844042
-0.0066487542
-0.0235810000
-0.0141698169
-0.0200106259
-0.0121105472
-0.0074498584
-0.0102478508
-0.0102280565
-0.0110750329
-0.0063466323
-0.0021914160
-0.0185499322
-0.0486105196
-0.0394052789
-0.0117085660
-0.0137981381
0.0068029691
-0.0272794496
-0.0353501067
-0.0131674036
-0.0129670473
-0.0030169478
-0.0373324454
-0.0390329286
-0.0271014720
-0.0214980338
-0.0079946788
-0.0192089733
-0.0279764757
-0.0104870796
-0.0024944665
-0.0614612140
-0.0071956264
0.0145467641
0.0089618219
-0.0076839044
-0.0496237017
0.0164470803
0.0543180071
0.0227551069
0.0112426011
-0.0099154683
0.0648079738
0.0945444480
0.0444430374
0.0384448394
-0.0355203934
0.0237597916
0.0257493444
0.0058162599
0.0138583817
-0.0081869569
0.0180904288
0.0168926213
-0.0074542877
-0.0065811509
-0.0460005477
-0.0158509053
0.0236193184
0.0042521013
0.0127247432
-0.0496732965
-0.0377053283
-0.0084563317
-0.0093905851
-0.0035955203
-0.0549280755
-0.0477492213
-0.0306993816
-0.0180219412
0.0071115349
-0.0442059636
-0.0295284595
-0.0276007466
-0.0290350989
-0.0170964058
-0.0423098244
-0.0320619643
-0.0233044997
-0.0267844666
-0.0230606552
-0.0308064856
0.0052852291
0.0266753137
0.0054844706
0.0106014237
-0.0338430740
-0.0151765356
-0.0057772668
-0.0047651567
0.0003514938
-0.0143476985
0.0117851244
0.0043021743
0.0075605744
0.0183424838
-0.0236980300
-0.0105324602
-0.0224054325
-0.0254860520
-0.0116198147
-0.0248767994
-0.0174255259
-0.0178716946
-0.0124115897
-0.0025655751
0.0093314042
-0.0122434804
-0.0107943313
-0.0174111333
-0.0270499978
-0.0115843527
-0.0285384264
-0.0195083469
-0.0125077236
-0.0334437154
-0.0095487349
-0.0118409544
0.0131500568
0.0018651128
-0.0155780856
-0.0149155287
-0.0153324418
0.0243283473
0.0087113539
-0.0082087489
-0.0058780303
0.0070655486
0.0396084562
0.0213520639
-0.0002896266
0.0265916772
0.0478170589
0.0200925432
-0.0189534351
-0.0024941508
0.0460217074
-0.0305879768
-0.1429487020
-0.0980914831
0.0249390192
0.0058379578
-0.0601675697
-0.0774527043
-0.0304784868
0.0010887816
0.0032642395
0.0006500628
0.0226066168
-0.0022453703
-0.0164553858
0.0074486369
0.0079619391
0.0054199174
-0.0046628756
0.0017105634
0.0013926547
-0.0199340601
-0.0182643998
0.0262652393
0.0301182140
-0.0407329202
-0.0197715946
0.1277218163
0.1434848905
0.0136310002
-0.0306713153
0.0383753702
0.0565733686
-0.0035422035
-0.0134948734
-0.0260916147
-0.0382730402
-0.0216385983
-0.0065982039
-0.0033183498
-0.0218358338
-0.0251088403
-0.0034771096
-0.0235584956
-0.0120490212
-0.0283904932
-0.0381698757
-0.0157119893
0.0094100721
0.0115002375
-0.0320459232
0.0091330167
0.0706578493
0.0318673924
0.0105980299
0.0092364857
0.0651831850
0.0472097211
0.0164284986
-0.0085614314
0.0205833055
0.0254329592
0.0064909887
0.0116939656
0.0157236531
0.0138247721
-0.0008750696
0.0045489571
0.0127305584
0.0060774926
0.0225971732
0.0039236695
-0.0311654285
-0.0413552746
-0.0235527977
-0.0130796321
-0.0151003851
-0.0275051873
-0.0458196402
-0.0188422948
0.0002076183
0.0251655299
0.0438156091
-0.0082034850
0.0127857607
0.0187282208
0.0179799385
-0.0086670322
0.0006457969
0.0119346315
0.0018966002
-0.0001414792
0.0050925803
-0.0096272035
0.0092933150
0.0150639135
0.0420702174
0.0378548317
-0.0100499215
-0.0050324062
0.0419301614
-0.0098051745
-0.0816832185
-0.0628232509
0.0017581108
-0.0141539760
-0.0682952031
-0.0549066328
-0.0051558297
0.0125008114
-0.0265933033
-0.0248990543
0.0125651835
-0.0112671563
-0.0061983312
-0.0211235192
-0.0016623770
-0.0077802828
-0.0042007910
-0.0097241728
0.0007783746
-0.0414343290
-0.0299175456
0.0290790182
0.0384853669
-0.0175359864
-0.0292699561
0.0684994459
0.0727382675
0.0048137456
-0.0193547588
-0.0397057608
-0.0026261022
-0.0037030135
-0.0185015053
-0.0411243066
-0.0360342078
-0.0091995215
-0.0194291566
-0.0039186608
-0.0136389965
-0.0048591923
-0.0148458751
-0.0147103220
-0.0124922786
-0.0179072693
-0.0328837968
-0.0184023455
0.0158275831
0.0079541886
-0.0484044291
0.0042459848
0.0671367124
0.0506089665
0.0115299039
-0.0071314471
0.0691343322
0.1017423272
0.0117837368
0.0091295354
0.0272169840
0.0342029072
0.0002134465
0.0205592923
0.0137359565
0.0019410964
-0.0025327648
0.0192493778
0.0063195471
0.0142956078
0.0156521928
-0.0048313509
-0.0143665466
-0.0447388589
-0.0368293673
-0.0140269091
0.0072748438
-0.0015844030
-0.0767681822
-0.0304828789
0.0182264931
0.1027374566
0.0250413921
-0.0087025417
0.0096964398
0.0576383807
0.0543679968
0.0181402210
0.0010854901
-0.0073551522
0.0318514593
0.0119202593
0.0116677191
-0.0083643878
-0.0100363176
0.0271152537
0.0196043011
0.0091788638
0.0187295936
0.0099498248
0.0201371815
-0.0466280729
-0.0781887546
-0.0318919085
0.0020630355
-0.0216648914
-0.0854398906
-0.0679008812
0.0019648559
0.0216458347
-0.0199788939
-0.0301012881
-0.0134942895
-0.0037292684
0.0137166036
0.0054604388
0.0193715822
-0.0008749569
-0.0009504804
0.0073551550
-0.0358540043
-0.0110990806
0.0117952349
-0.0042456137
-0.0352716707
-0.0220758673
0.0427934751
0.0636773705
0.0353829265
-0.0065581808
0.0185435284
0.0662981346
0.0695431754
0.0383415073
0.0016770563
0.0015502379
0.0273302160
0.0395926759
0.0100401947
-0.0117575936
-0.0020583698
0.0038827742
0.0007774947
-0.0135414554
-0.0254648272
-0.0221738461
-0.0194974653
-0.0064777932
0.0035456216
0.0014856317
-0.0076376488
0.0042269151
0.0099041909
-0.0015722661
0.0031394460
-0.0009145666
-0.0010160571
-0.0148024866
-0.0105326828
-0.0020584476
0.0015864966
-0.0145832822
-0.0161854364
-0.0003805211
0.0044192732
-0.0007406861
-0.0080771428
-0.0038262014
0.0040333099
0.0042200694
0.0050964793
-0.0145093342
-0.0569594800
-0.0427779779
0.0171049312
-0.0321257263
-0.0760397092
-0.1093342602
-0.0514323562
0.0248621851
-0.0513586886
-0.0450784676
-0.0609401241
0.0002278149
0.0274389945
-0.0313974209
-0.0025137276
0.0047865300
-0.0062466445
-0.0067567071
-0.0078579821
-0.0082638916
-0.0022332557
-0.0098209688
-0.0081492672
0.0095215393
-0.0485223830
-0.0307081994
0.0385130830
0.0492461994
-0.0246685296
-0.0234312061
0.0642498583
0.0803409368
-0.0004414166
-0.0014165365
-0.0520131998
-0.0361423232
-0.0114274388
-0.0254459549
-0.0456930809
-0.0901450962
-0.0275469925
0.0007273944
0.0041169170
-0.0271412041
-0.0062060431
0.0025701085
-0.0010197343
0.0072645317
-0.0095779803
0.0167270526
0.0234004799
-0.0082477964
-0.0172991101
0.0244924370
0.0503966324
0.0323176868
-0.0000249602
0.0121665467
0.0367002822
0.0582405552
0.0663675889
0.0410385877
0.0065110540
0.0269626155
0.0331985615
0.0481733270
0.0244550090
0.0016204694
0.0086457804
0.0198930111
0.0143918851
-0.0002027081
-0.0073524560
0.0176625028
0.0256464612
0.0341392420
0.0121549144
-0.0137245739
0.0367823467
0.0273715165
-0.0531184115
-0.0674520880
0.0052086413
0.0316748396
-0.0250558574
-0.0760078356
-0.0393125862
0.0010727908
0.0037466448
-0.0340816267
0.0030132406
0.0116239125
-0.0053825392
-0.0138246240
-0.0086159920
0.0137087246
0.0105218496
0.0129509335
-0.0083394237
-0.0282724053
-0.0201121084
0.0092641599
-0.0035295677
-0.0174736679
0.0155862831
0.0733318701
0.0345943421
-0.0371636525
0.0332373604
0.0752298310
0.0720905215
0.0070866086
-0.0018487065
0.0219411142
0.0197321791
-0.0065534557
0.0166290179
0.0082305716
0.0066495780
-0.0048415526
-0.0013054216
-0.0010610038
-0.0006228937
0.0273980591
-0.0071903411
-0.0600804240
-0.0321155228
0.0198631287
-0.0218185410
-0.1059919968
-0.1321544349
-0.0167015027
0.0301271994
-0.0436138734
-0.0876318887
-0.0533393696
0.0148785952
0.0216488037
-0.0075786295
-0.0132132098
-0.0114670219
-0.0049135052
0.0004932841
0.0130827129
-0.0050679464
-0.0028495346
-0.0041545518
-0.0036159155
0.0224091746
0.0198034383
-0.0285567194
-0.0201710202
0.0210260991
0.0175179988
-0.0457373783
-0.0972140729
-0.0127684139
0.0670445710
-0.0034437093
-0.0803028569
-0.0996557176
-0.0371968336
-0.0130438050
-0.0077955471
-0.0466423891
-0.0226495191
-0.0072378227
-0.0040762587
-0.0095262537
0.0033434264
0.0098651405
-0.0021057981
0.0059110769
-0.0408080667
-0.0139836753
0.0255107209
0.0300477389
0.0120466910
0.0102024544
0.0409081876
0.0515631475
0.0147506194
-0.0210433025
0.0134330830
0.0294342898
0.0225511082
0.0279213954
-0.0022223173
-0.0049366597
0.0003844404
0.0171179064
0.0081830202
0.0027855104
-0.0048247292
0.0006958994
0.0047114878
-0.0007102674
-0.0144574922
0.0213495884
-0.0093399016
-0.0037315867
-0.0275559835
-0.0336582661
-0.0194701459
0.0504851788
0.0178429652
-0.0501223430
-0.0505944602
0.0762447640
0.1135354787
0.0146609247
-0.0157692898
-0.0030608531
0.0452598147
0.0363622718
0.0028750233
0.0166220795
-0.0037396417
0.0045957523
-0.0188318118
0.0122066932
0.0195502676
0.0033782469
-0.0181860011
-0.0600695275
-0.0232977029
0.0160720795
-0.0062550134
-0.0449869707
-0.0665042326
0.0317614190
0.0385399014
-0.0081242183
-0.0646774247
-0.0763761923
-0.0250771604
0.0009872053
0.0052131680
-0.0425859876
-0.0170440674
-0.0049379016
0.0040153069
0.0125737330
-0.0048965574
0.0341617428
0.0005486583
-0.0060168621
0.0129725784
0.0183585752
0.0191194694
0.0084852325
0.0351932161
0.0305703152
0.0227658432
0.0012049106
0.0074703693
0.0432503335
0.0328424387
-0.0122231264
-0.0394022390
-0.0050029238
0.0471201800
0.0294262785
-0.0362834930
-0.0260061901
0.0005594054
0.0152472323
0.0048755375
-0.0057366793
-0.0054663816
-0.0012234077
0.0071954913
-0.0102943815
0.0223194193
0.0240715761
0.0064865765
-0.0180704109
-0.0038724018
0.0384526439
0.0420068800
-0.0427379236
-0.0483543612
0.0355182849
0.0779581442
0.0314440280
-0.0289208312
-0.0200883579
-0.0114698820
0.0505974777
0.0236818194
0.0386799052
0.0283809528
0.0003661056
0.0157032590
0.0205741394
0.0327962488
0.0169851556
0.0198681373
-0.0252017062
-0.0004801058
0.0228647906
0.0204411391
-0.0097102569
-0.0032461800
0.0396364853
0.0426367074
0.0181681924
-0.0063964012
0.0079776878
0.0445502289
0.0427767821
0.0290100332
0.0038519297
0.0053253416
0.0348207615
0.0318624191
0.0102070319
-0.0068172328
-0.0120591298
0.0089276582
0.0066737891
-0.0137605909
-0.0174074825
-0.0114025669
-0.0086082229
-0.0199681260
-0.0095127570
0.0026818796
-0.0109380679
-0.0152321262
-0.0315367356
-0.0184973553
0.0115616769
0.0046675638
0.0008856255
-0.0134581616
0.0039276411
0.0282050036
-0.0056750150
-0.0055798036
-0.0174172055
-0.0038966383
0.0112277670
-0.0069071120
-0.0107972324
-0.0092243189
-0.0017159154
0.0106685888
-0.0016851965
-0.0196613818
0.0037378902
0.0438321121
0.0443853848
-0.0192697030
0.0077968743
0.0638411418
0.0636635646
0.0060587716
0.0114953974
0.0033406748
-0.0512265712
0.0056552193
0.0033877592
-0.0302484296
-0.0621932782
-0.0046962877
0.0233508348
0.0150162969
-0.0179484840
-0.0170843489
0.0097321747
0.0095155668
0.0041969330
0.0135846846
-0.0182710253
-0.0019405187
-0.0005907877
-0.0104800574
-0.0039627403
0.0142133106
0.0297763683
-0.0241213962
-0.0225937497
0.0116492640
0.0161351077
0.0018176726
-0.0219718460
-0.0181820653
0.0082718842
0.0075857919
-0.0053243586
-0.0169683937
-0.0070003495
0.0082940804
0.0151534900
0.0248931441
0.0064290660
-0.0057367929
0.0129244924
0.0298360605
0.0238277093
-0.0139465379
-0.0155890817
0.0258590076
0.0316608474
-0.0028077164
-0.0112800580
0.0276592150
0.0311098378
0.0246978831
0.0473122671
0.0245659072
0.0110445861
0.0167390872
0.0306450017
0.0358364396
-0.0021035755
-0.0028484524
-0.0037462017
0.0018521599
0.0103359884
-0.0019932082
-0.0008447832
0.0077366456
0.0104419412
-0.0352577679
-0.0133910999
-0.0034293996
0.0129788816
-0.0583977848
-0.1105294004
-0.0589039773
-0.0127523523
-0.0270719547
-0.0613383837
-0.0538372025
-0.0087371934
0.0067105778
0.0046353070
0.0116933612
-0.0022874067
-0.0136881620
-0.0078859897
0.0361584276
0.0190996118
-0.0081748376
-0.0099302046
-0.0061036241
-0.0018801155
-0.0095611941
-0.0158197787
-0.0083634593
0.0087021189
-0.0094914697
-0.0249214116
-0.0335994810
0.0013704043
0.0184613913
-0.0415930226
-0.0508577451
-0.0576366223
-0.0540075004
0.0015003668
-0.0286800060
-0.0432648435
-0.0314398184
-0.0158492792
0.0037155747
-0.0344595835
-0.0245472621
-0.0122838505
-0.0101529146
0.0148208234
-0.0205069631
-0.0434449129
-0.0011918528
0.0096035255
-0.0240905881
-0.0430413932
0.0547375418
0.1889461875
0.0774805397
-0.0146054635
0.0516659133
0.1849975437
0.1501450837
0.0140892332
-0.0120915500
0.0433965959
0.0455020145
-0.0182598233
-0.0053073312
-0.0045318645
-0.0124901375
-0.0111221438
-0.0086787241
-0.0158933699
-0.0187003817
0.0217606928
0.0102802096
-0.0249555483
-0.0126897469
0.0153980525
0.0076191430
-0.0368356034
-0.0715723336
-0.0237105284
0.0175792426
-0.0348806605
-0.0673470646
-0.0512985848
0.0103633450
0.0273115430
-0.0221333411
-0.0131086251
-0.0199076030
-0.0139614502
0.0030927088
0.0221630670
0.0160802547
-0.0167205967
-0.0087109674
0.0016097648
-0.0042129932
-0.0069369045
-0.0292342063
-0.0144755775
0.0180004016
0.0021465230
-0.0510627925
-0.0749796554
-0.0176985096
0.0317897834
-0.0197383091
-0.0708277822
-0.0583121516
-0.0047371075
-0.0119276764
-0.0217945445
-0.0135517735
0.0039797337
-0.0163504127
-0.0102689164
-0.0069932872
-0.0120102242
-0.0176036749
-0.0152284438
-0.0018458985
0.0030729258
0.0071231411
-0.0071301749
-0.0212823153
-0.0268234946
0.0000435178
-0.0212859139
-0.0592788234
-0.0557674952
-0.0220471304
-0.0080246096
-0.0278409850
-0.0005932084
0.0052767815
0.0199561212
-0.0074010002
0.0132389041
0.0086839935
-0.0083193500
-0.0021564357
0.0085237762
0.0117910197
0.0142622897
0.0092635714
-0.0003156561
-0.0047583748
-0.0351387374
0.0129545415
0.0298779253
-0.0022559708
-0.0422579758
0.0501762368
0.1828625947
0.0668610781
-0.0200790726
0.0202361066
0.1425765008
0.0612912215
-0.0040213377
0.0156855863
0.0201451182
-0.0004735157
-0.0037593113
0.0109633943
0.0027528212
-0.0032471844
-0.0114384806
0.0138585214
0.0033429095
-0.0131118298
0.0186418500
-0.0070540202
-0.0417389385
-0.0136261713
0.0199801195
0.0078925481
-0.0610790253
-0.0648354515
0.0108144796
0.0108627826
-0.0306079593
-0.0854944140
-0.0632699281
-0.0198732875
-0.0262029935
-0.0270469561
-0.0257546064
-0.0100995312
-0.0060945731
-0.0057146139
-0.0198919680
-0.0070023974
-0.0092616268
-0.0143471546
-0.0092803556
0.0091833463
0.0087218760
-0.0110010691
0.0157257579
0.0153375296
0.0212065130
-0.0366766900
-0.0746569484
-0.0175997429
0.0007391135
-0.0149110481
-0.0643737912
-0.0600346625
0.0067894538
0.0108133024
-0.0075379792
-0.0127178878
-0.0242034458
0.0044095027
0.0116156247
0.0165158696
0.0136522772
-0.0020903554
0.0039143851
0.0104881274
-0.0048760818
-0.0269728247
-0.0335685164
-0.0665887594
-0.0684609488
-0.0364843309
0.0217933077
-0.0069122030
-0.0995835066
-0.0378922783
0.0362125747
0.0784648880
0.0046727532
-0.0194932148
0.0130236624
0.0210135914
-0.0051871119
0.0153457606
-0.0120798228
-0.0053304774
-0.0067450213
-0.0121240718
0.0050130258
-0.0000043415
-0.0001845951
0.0126420222
0.0035864643
-0.0481419750
-0.0464632772
-0.0164910927
-0.0000824314
-0.0259665325
-0.0671795383
-0.0258002691
0.0106209926
0.0136397034
-0.0027082784
-0.0237206295
-0.0094564212
-0.0105166808
0.0367354229
0.0425308980
0.0282173753
0.0109149255
0.0083546359
0.0331548080
0.0289046317
0.0049291500
-0.0058808466
0.0110550113
0.0158292465
-0.0127602899
-0.0107758362
0.0216452200
0.0150584439
-0.0120235970
-0.0414697714
-0.0096576195
0.0278427936
0.0192194898
-0.0344021395
-0.0709452257
-0.0301211961
0.0006312998
0.0075052534
-0.0499824472
-0.0522988811
-0.0134930620
0.0076945713
-0.0024157648
-0.0393404551
-0.0234139431
0.0155298822
0.0092421602
0.0000362112
-0.0005564142
0.0233513564
0.0497484840
0.0479726717
0.0242438186
0.0269198548
0.0258078482
0.0014023316
-0.0082517266
-0.0084464690
0.0079657072
-0.0016037965
-0.0053187432
0.0122110434
-0.0082789930
-0.0223102402
-0.0111287609
0.0103602475
0.0023931721
0.0044203629
-0.0091703832
0.0061648120
0.0091545070
0.0089639006
0.0070783827
-0.0177404340
-0.0258369334
0.0340596326
-0.0156729929
-0.0451223031
-0.0099963127
0.0687026754
0.0899345726
-0.0028809786
-0.0137151079
0.0371532626
0.0392511748
0.0188186187
0.0099424897
0.0197502729
-0.0196425132
-0.0222548414
0.0157469343
0.0031270320
0.0070253736
-0.0314037502
0.0103506744
0.0054399935
-0.0099471696
-0.0047083413
-0.0181879736
-0.0045629926
0.0104961833
0.0132738417
0.0167438425
-0.0165376812
-0.0017008799
0.0011504554
0.0064418102
0.0131570874
-0.0003507775
-0.0039440379
-0.0248982720
-0.0132575603
0.0134971878
-0.0180010628
-0.0316431224
-0.0113255242
-0.0037269888
0.0125494553
-0.0116504170
-0.0008715272
0.0065644444
0.0128248781
0.0241987407
0.0359540097
0.0093429945
-0.0232263394
-0.0119120684
0.0162848420
0.0169661269
-0.0498189442
-0.1018575802
-0.0451838635
-0.0230201203
-0.0170864090
-0.0496565998
-0.0856788829
-0.0190219618
-0.0088132648
-0.0158873722
-0.0157563649
-0.0204238482
0.0107864458
0.0109173628
0.0247780532
0.0097347740
-0.0072478713
-0.0118958084
-0.0053858929
0.0065749716
-0.0013288934
0.0006581108
-0.0002294301
0.0176588148
-0.0149049135
-0.0164893251
0.0065302020
-0.0227692202
0.0162512567
-0.0088063478
-0.0044515664
-0.0031937289
-0.0104930885
-0.0049773268
-0.0096019777
-0.0176742598
0.0052496423
-0.0026036869
-0.0028285028
-0.0079840301
-0.0158179794
0.0099255275
-0.0029549245
-0.0150943492
0.0092307311
0.0021714570
-0.0158039182
-0.0124844098
-0.0113210008
0.0082041183
-0.0091588525
-0.0033757051
-0.0112016806
-0.0157464035
-0.0061015203
0.0099201286
0.0020934856
-0.0073269731
-0.0026604016
0.0008990012
0.0166618712
-0.0078117088
-0.0094559062
-0.0024866844
0.0136343688
0.0063122967
-0.0059884549
-0.0003741387
0.0091033587
0.0144999987
0.0102132643
-0.0182055756
-0.0241099838
-0.0248390716
-0.0022091107
-0.0030343458
-0.0162196811
-0.0189542361
-0.0270204078
0.0062286919
0.0126720238
-0.0114670405
-0.0058915666
-0.0034773736
-0.0002746576
0.0028262318
-0.0035964339
0.0048071514
-0.0048821913
0.0159612689
0.0143521065
0.0014873942
0.0023191704
-0.0005317741
-0.0243657492
0.0040671746
0.0326371379
0.0486156791
0.0164270364
0.0043388736
0.0167796873
0.0364702530
0.0517127998
0.0170145612
-0.0104453433
-0.0220965054
0.0311921481
0.0584079847
0.0122962650
-0.0292655863
-0.0158838537
0.0240261294
0.0201183800
-0.0137591837
-0.0226853602
0.0022254551
-0.0048581325
-0.0139235612
-0.0191668719
-0.0226843320
-0.0038649556
-0.0091406489
-0.0121641932
0.0205656048
-0.0257284548
-0.0091907512
0.1239629239
-0.0501613058
-0.0317970924
0.0256013889
-0.0352291018
0.0070915697
-0.0589611083
-0.0472916663
-0.0100039868
0.0084459176
-0.0422853194
-0.0591594912
-0.0088381022
-0.0209688805
0.0048761712
-0.0089641595
0.0001250223
-0.0087883128
0.0185935404
0.0192535650
0.0244420208
0.0121683935
0.0182368178
0.0077242618
0.0296140071
-0.0234722830
-0.0131489169
0.0219351500
-0.0162220765
-0.0158960223
-0.0666602626
-0.0258240160
0.0782203302
-0.0047628945
-0.0163759980
-0.0093617477
-0.0026913912
0.0375452377
-0.0026626259
-0.0145651912
-0.0055424012
-0.0081779752
0.0095778750
0.0105541442
0.0072483919
-0.0299223568
-0.0199022721
0.0147778727
0.0197139382
-0.0135460319
-0.1333267987
-0.0397844948
0.0308857728
-0.0121072866
0.0056133070
-0.0798483193
-0.0464392491
0.0359550789
-0.0161714945
-0.0069415350
-0.0373114608
-0.0212650821
0.0256149862
0.0034138937
0.0017292489
0.0039013613
0.0062799929
0.0214500502
-0.0056124036
-0.0160526242
-0.0109560890
0.0134708518
-0.0088732541
0.0111697214
-0.0008845894
-0.0189974755
-0.0073728394
-0.0104243513
0.0088600172
0.0057983734
-0.0049624802
-0.0205695238
0.0006551474
0.0016516013
-0.0158420950
0.0048179091
-0.0187237132
0.0045497860
0.0041129249
-0.0032958549
0.0034130479
-0.0049252058
-0.0223323572
-0.0147432406
0.0001660835
0.0266587064
-0.0535728373
0.0385719910
-0.0083814822
-0.0370321162
0.1867459714
0.0191261042
-0.0111137209
0.0026187438
-0.0588788353
0.1129476428
0.0833576247
-0.0735697672
-0.0139954528
0.0043277703
-0.0388563871
0.0406822823
-0.0370389819
-0.0128020914
0.0072223707
-0.0358777829
0.0030428802
0.0196653660
0.0135464855
0.0183545407
-0.0057516899
0.0267142784
-0.0006937411
0.0216362644
0.0399812795
-0.0802854598
-0.0193176493
0.0473420992
-0.0011385261
0.0016093674
-0.0757806748
-0.0247914623
0.0597452074
-0.0034036441
-0.0068956395
0.0085062450
0.0070969164
0.0291678905
-0.0003321662
0.0005171982
0.0172135569
-0.0048483773
0.0120711904
-0.0111497240
0.0075644315
-0.0028110479
0.0039317934
-0.0206023157
0.0116963582
0.0426541157
-0.0695390031
-0.0238587633
-0.0215002820
0.0346210822
0.0220840443
-0.0569755435
-0.0818388537
-0.0186720528
0.0103141675
-0.0223132148
-0.0167077761
-0.0344198123
-0.0050069299
0.0178097524
0.0031682977
0.0104642883
0.0157914758
-0.0106049534
-0.0008648614
0.0019175720
0.0127657056
-0.0013616696
0.0027506459
-0.0017871883
0.0084559033
-0.0519521534
-0.0487948246
-0.0216108393
0.0037053030
0.0539844222
-0.0284730028
-0.0344795063
-0.0110160615
-0.0205131304
0.0263123959
0.0052029444
0.0081008747
-0.0162583627
0.0001020751
0.0004181344
0.0197497942
0.0178379547
-0.0034404462
-0.0128987534
-0.0591746010
-0.0113167632
-0.0301767103
-0.0082458518
-0.0094101261
-0.0695904940
0.0263084788
0.0839829072
-0.0258802325
0.0176985674
0.0067604398
0.0173219498
0.0948108807
-0.0002417696
0.0135246320
0.0373862833
0.0184952375
0.0002213632
-0.0051038428
-0.0035498464
0.0046803663
-0.0036074482
-0.0311036315
0.0097862715
0.0158533268
0.0128959958
0.0019292453
-0.0050658667
0.0223286580
0.0018637840
-0.0667483956
0.1025725380
0.0145540666
-0.0063323323
0.0199643802
-0.0542155281
0.1556076705
0.0843833983
-0.0406526849
0.0154375145
0.0186244119
0.0058643105
0.0016241848
-0.0282759275
-0.0045647989
0.0227450039
-0.0134546002
-0.0126228295
-0.0115967207
0.0068124519
0.0165555179
0.0122911949
-0.0027617058
-0.0141950147
0.0092373965
0.0051763090
0.0088775326
0.0130219636
-0.0002657126
0.0052101370
-0.0100281276
-0.0182454996
0.0039114035
0.0019597055
0.0018079416
-0.0096265730
-0.0118023008
0.0023107852
0.0021772997
0.0038272822
0.0022025073
0.0046703396
0.0065688705
0.0018553720
0.0004826764
0.0412969328
0.0155431600
0.0113143511
0.0183289628
-0.0073428219
0.0439066514
-0.0474849120
-0.0601630472
0.0220629554
0.0171113927
0.0689310655
-0.0107544642
-0.0347982049
0.0026181811
-0.0175339095
0.0050847363
0.0313843824
0.0415324941
0.0019782651
-0.0090660667
-0.0313841365
0.0115783783
0.0293488074
-0.0027337854
-0.0061332630
0.0023884303
-0.0201704036
-0.0080800662
0.0003635632
-0.0197235141
0.0601968989
-0.0301063117
-0.0558174700
0.0209755935
-0.0262064822
0.0043464750
-0.0252401847
0.0214729607
0.0572218969
-0.0059251064
0.0045920718
0.0141964387
0.0365524404
0.0325709917
-0.0019515730
-0.0031859528
0.0152565716
-0.0107605932
-0.0035893605
-0.0126965437
-0.0170371309
0.0834993199
-0.0146161495
-0.0313867442
0.0026810730
-0.0348380320
0.0856502429
0.0182544533
-0.0577442199
0.0136861131
-0.0094828233
-0.0406923108
-0.0631184727
-0.0536034331
-0.0013248429
0.0118718771
-0.0111313723
-0.0225212444
-0.0144385183
0.0005400024
0.0019085129
0.0011138798
0.0110525927
0.0171537139
-0.0325793959
-0.0359013118
0.0381739102
-0.0359990112
-0.0049789818
-0.0268349368
-0.0470490642
0.1303450912
0.1027523279
-0.0638863221
-0.0058563035
-0.0084536849
0.0342909805
0.0566516444
-0.0280760732
-0.0183543637
0.0216025040
0.0001560771
-0.0172520336
-0.0232579019
-0.0079815723
0.0071953726
0.0072620017
-0.0092570484
-0.0042013554
-0.0300378837
-0.0116264913
-0.0588270463
-0.0274698399
-0.0021095448
-0.0044399104
0.0195952728
-0.0470031127
-0.0533115976
0.0204118118
-0.0127804279
0.0023764360
0.0334918015
-0.0068320422
0.0185450092
0.0068918872
0.0142763136
0.0268921666
-0.0064546219
-0.0073526767
0.0131857172
0.0182414558
0.0085567646
-0.0126977507
-0.0305640977
0.0153797651
0.0319632813
0.0037693824
0.0120211123
0.0216133613
0.0036773172
0.0000679264
-0.0754976869
-0.0334300660
0.0126505867
0.0332027152
0.0381592028
-0.0457784459
-0.0456248298
-0.0060297828
0.0048277746
0.0144132217
0.0196949802
-0.0122109940
-0.0347812772
-0.0012071158
-0.0058180843
0.0226493254
0.0014260490
-0.0101004317
-0.0196920466
-0.0140054319
-0.0108743999
-0.0452058613
0.0218854081
-0.0075060772
0.0443114191
0.1102848947
-0.0747849867
-0.0399107561
0.0067559145
-0.0308376569
0.0264828783
-0.0574709214
-0.0196256991
0.0227754861
0.0056217615
-0.0320509598
-0.0092486301
0.0039880048
0.0009285447
-0.0036973062
-0.0207897816
0.0172936749
0.0032298935
0.0269616041
-0.0386048928
-0.0089253215
-0.0306372046
-0.0009806430
-0.0054567293
-0.1183698773
0.0012959375
0.1080569178
-0.0336781368
0.0054291859
-0.0366778970
0.0256849658
0.1820589006
-0.0024958695
-0.0014162455
0.0183819737
-0.0030736935
0.0330945253
-0.0051197456
-0.0104386266
0.0129555836
0.0038601542
-0.0247309189
0.0031893563
-0.0337554142
0.0040721451
0.0054445388
-0.0136834802
-0.0006179740
-0.0016771407
0.0524729751
-0.0402093120
-0.0369269662
0.0058857915
0.0050420184
0.0869427845
-0.0135221239
-0.0484814979
-0.0208941344
-0.0155243129
0.0152981123
0.0333228409
-0.0255446676
-0.0180645045
0.0046614031
-0.0072276844
0.0125797922
-0.0057381182
-0.0101818806
-0.0043110996
-0.0000989005
-0.0099798292
-0.0066159563
-0.0264571495
-0.0047968761
0.0311869048
-0.0379001163
0.0029728799
0.0215247050
-0.0204484034
-0.0118601052
-0.0283597037
0.0040625148
0.0474465601
0.0060421438
-0.0093207285
0.0014475957
0.0034177776
0.0113009857
-0.0089023877
-0.0055717272
0.0043254546
-0.0169835277
-0.0064060809
0.0415524803
0.0327747986
-0.0096392101
-0.0031349487
0.0273213685
-0.0070909401
-0.0289073922
-0.0880188644
-0.0576339625
0.0030205948
0.0003828377
-0.0168194994
-0.0329359360
-0.0148064848
-0.0209541861
0.0162096750
0.0133042540
0.0120911431
0.0343782902
-0.0080194613
-0.0036652486
0.0033756196
-0.0221932735
0.0088102156
0.0065541221
-0.0144762285
0.0165177640
0.0048995181
-0.0510160439
0.0023102728
-0.0211430136
0.0452789888
0.1661438793
-0.0484305918
-0.0476685613
0.0102846753
-0.0179747120
-0.0301600527
-0.0754172876
-0.0262281280
0.0047192043
0.0111714117
-0.0308297090
-0.0219003949
0.0287065320
-0.0020541043
-0.0085584139
0.0018584905
0.0219396520
0.0171653666
0.0021910921
-0.0284873545
0.0110354042
-0.0137500810
-0.0014864686
0.0115926070
-0.0956651047
0.0594059303
0.1097111031
-0.0358391255
0.0165478010
-0.0346274078
0.0424207896
0.1275321990
-0.0164150726
-0.0020037272
0.0150585966
-0.0217631627
-0.0171184205
-0.0254828390
-0.0029100452
0.0122070117
0.0055233757
-0.0273939949
-0.0172752850
-0.0176650304
-0.0156524461
-0.0040518939
0.0063960357
-0.0557165034
-0.0024551237
-0.0121724410
-0.0167259369
0.0151251107
-0.0114669632
-0.0049056918
0.0063950871
0.0003191055
0.0156191066
0.0020288832
-0.0130110299
0.0025497763
0.0169507451
0.0000107017
-0.0099223750
-0.0044010640
0.0136195701
0.0038441126
0.0075531090
-0.0097916769
0.0068343314
0.0278282557
0.0292351171
0.0079810396
0.0150299538
0.0053299661
0.0449478291
-0.0179248694
-0.0272717010
0.0238086283
-0.0079716649
0.0068977633
-0.0449269712
-0.0394386351
0.0577103496
0.0216937363
0.0165928788
0.0147532467
-0.0215817299
0.0223276876
0.0067256400
-0.0114108520
0.0247113481
-0.0110025238
-0.0028660439
-0.0066467351
0.0083727119
-0.0074901800
-0.0287165828
-0.0040319157
0.0043343008
0.0284560025
0.0298286993
0.0375492759
-0.0274062287
0.0033912295
0.0012131868
0.0331151299
0.0288200751
-0.0006781141
-0.0067820628
0.0144465510
-0.0114905825
0.0375002027
0.0065513188
-0.0069387611
0.0021368596
-0.0017970477
0.0153037142
0.0083979797
-0.0108301062
0.0212728214
0.0356989913
-0.0203564856
0.0088352663
-0.0033876563
0.0347525887
0.0893029645
-0.0545131415
-0.0011484991
0.0166458115
-0.0048934701
-0.0038386192
-0.0950204805
-0.0371372811
0.0015654375
-0.0053368262
-0.0468186103
-0.0742035061
-0.0084047988
-0.0049256412
0.0063452949
-0.0093980050
-0.0176883433
-0.0056423759
0.0036020142
0.0003535292
-0.0240995996
-0.0071126679
0.0143769160
-0.0006364565
-0.0433216169
0.0080184443
-0.0193573013
0.0022451605
-0.0089722648
-0.0283679217
0.0598872527
0.0539786518
-0.0316912234
-0.0106440503
-0.0131556457
-0.0016772725
0.0444685519
-0.0297914483
-0.0086070439
0.0148365395
-0.0176678486
0.0209589247
0.0123137059
-0.0165493451
0.0077113626
0.0520602316
-0.0555998608
-0.0099024354
-0.0130099086
0.0008685591
0.1102987528
0.1175388843
-0.0613665730
-0.0088820886
-0.0362518169
-0.0362938792
0.0703632906
0.0113894381
0.0000563807
0.0026286701
-0.0362956114
-0.0107688755
0.0393905640
-0.0130507695
-0.0029478858
-0.0055765673
-0.0215212554
0.0117816580
0.0059080813
0.0010754925
-0.0084590027
0.0288859867
0.0151068596
0.0267174151
0.0532372855
-0.0566819049
-0.0415408015
0.0223073438
-0.0033525021
0.0380234420
-0.0478220582
-0.0595269948
0.0162533373
-0.0123015810
-0.0201630164
-0.0042629945
-0.0368596017
-0.0003829948
-0.0022237729
-0.0196921807
0.0339924581
-0.0178765226
-0.0103344386
0.0277349427
0.0075802617
-0.0445078462
-0.0006116041
0.0164841730
0.0136977732
-0.0333381034
-0.1089172736
-0.0447725840
0.0068178345
-0.0097807515
-0.0133567611
-0.0427255072
-0.0084657194
-0.0097750770
-0.0101342043
-0.0031030709
-0.0060362169
0.0104045225
-0.0154992566
0.0057615032
0.0092425765
-0.0054216860
0.0120177381
0.0061091292
0.0128051760
0.0446851589
0.0319411233
0.0020909735
0.0112208584
0.0138344988
0.0146105038
-0.0049733878
-0.0746741518
-0.0027091249
0.0220523085
-0.0177425090
-0.0721109733
-0.0909419432
0.0074331877
0.0060527399
-0.0075819609
-0.0207867920
-0.0442361347
0.0309741478
0.0080666607
-0.0022693535
-0.0087808194
-0.0043411031
0.0126375156
-0.0171724856
-0.0041058105
0.0204981249
-0.0396413766
0.0050978488
-0.0032690247
-0.0172892846
0.0975866541
0.0758999288
-0.0536747314
0.0198107231
-0.0033300768
0.0733633786
0.0375915579
-0.0488174595
0.0005108856
0.0067635588
-0.0228374284
0.0004606844
-0.0273399167
-0.0199097991
-0.0060661403
-0.0102122063
-0.0077877915
0.0118414760
-0.0154195046
-0.0297205839
-0.0151983621
0.0336364321
0.0104906131
0.0129750082
0.0402096324
0.0040425509
0.0134642655
0.0150426906
-0.0016134809
0.0335688666
0.0275966506
-0.0127408840
-0.0075085955
-0.0158272814
0.0052320543
-0.0136242509
-0.0229002833
-0.0362904444
-0.0119165424
0.0007008104
0.0044374950
-0.0070105796
-0.0365249403
0.0185374245
0.0179202277
-0.0133911138
-0.0123487972
0.0160736758
0.0116667049
0.0100762984
-0.0354459547
-0.0611670762
0.0284317024
0.0039553200
-0.0212845448
-0.0712315813
-0.0524339229
0.0438409522
0.0136082275
0.0014348851
-0.0008482834
-0.0167221744
0.0468905084
0.0153173711
0.0022983607
-0.0026393887
-0.0050352286
0.0186606999
0.0187222976
-0.0135501595
-0.0392541997
-0.0350093469
0.0157768782
-0.0088263610
-0.0637117699
-0.0766390786
-0.0450021438
-0.0248685908
-0.0104047870
-0.0025173221
-0.0207968540
0.0475735366
-0.0560649745
0.0009711137
0.0226579811
0.0017341581
0.0341212600
-0.0123282177
-0.0104144821
0.0134672560
-0.0036466313
0.0044240481
0.0092109134
-0.0221125931
0.0139916642
0.0190512482
0.0274580382
0.0102149080
0.0028573882
0.0414053313
-0.0231996384
0.0036274008
0.0301691424
-0.0011800011
0.0546195544
0.0005020666
-0.0162791368
0.0041208742
-0.0301793776
-0.0175097417
0.0346870832
-0.0005878315
-0.0106036803
-0.0022980680
-0.0067404625
0.0391665064
0.0248952247
0.0094119310
0.0081938766
0.0052119535
-0.0056941523
-0.0075179213
0.0018763489
0.0003412012
0.0122885387
0.0241829306
-0.0415173359
-0.0059290142
0.0174551327
-0.0241506714
-0.0562499091
-0.0288153645
0.0485513359
0.0180337299
-0.0140720066
-0.0365178809
0.0075010266
0.0689351857
0.0124307163
-0.0059445607
-0.0110435355
0.0147443134
0.0258020740
-0.0216135848
-0.0185024049
-0.0118092429
0.0041656489
-0.0098151034
-0.0082962988
0.0100141652
0.0149069875
-0.0214062110
-0.0078698499
-0.0090937205
-0.0031278534
0.0145889921
-0.0325888060
-0.0207601544
-0.0078700352
0.0149033871
-0.0169242807
-0.0185846668
-0.0112233199
0.0068937796
0.0029501675
-0.0127965957
-0.0099778902
0.0137230279
0.0025720324
-0.0406341217
0.0034650944
-0.0267677549
-0.0025649627
-0.0233391169
-0.1117991060
0.1019001454
0.0976489559
-0.0399010181
-0.0163971055
-0.0350793824
0.1068657935
0.1046004444
-0.0207661707
-0.0214955732
0.0277768150
-0.0014471008
0.0048971772
-0.0343941338
-0.0232503749
0.0191550106
-0.0174986180
-0.0061470047
-0.0060519832
-0.0217551589
0.0094719911
0.0059027234
0.0011434722
0.0023107047
-0.0108214663
0.0448049344
-0.0076395008
0.0165266339
0.0322582424
-0.0322884656
0.0006379463
-0.0209704190
0.0358584411
0.0241479315
-0.0193923060
-0.0083347671
0.0033653763
-0.0035728444
0.0053353906
-0.0156566426
-0.0074916896
0.0168640986
-0.0185696539
-0.0024269435
-0.0056942003
-0.0062659807
-0.0206145141
-0.0396335348
-0.0221082438
0.0043970901
0.0218266882
0.0168553311
-0.0411925167
-0.0182756353
0.0134830652
-0.0079240277
0.0441647582
-0.0132902982
-0.0223754793
0.0255774725
0.0028091706
0.0057319095
0.0049395943
-0.0302008074
0.0202756189
0.0116963182
-0.0087463772
-0.0064030029
-0.0195625350
0.0033143335
0.0040702969
-0.0076682935
-0.0034455117
0.0226179194
-0.0050317785
-0.0378297009
-0.0552030355
-0.0094349226
0.0005089161
0.0063201059
-0.0122629870
-0.0209042523
0.0338051356
0.0083569046
-0.0052570477
0.0201062523
0.0120474165
0.0334209949
0.0108583178
0.0015931425
0.0038906699
0.0034035193
0.0051846514
0.0062915543
0.0034942292
0.0102008497
-0.0044383798
-0.0183237623
-0.0101582156
0.0036189766
0.0021151558
-0.0038081587
-0.0240996014
0.0053029601
-0.0046531153
-0.0141830184
-0.0126855215
-0.0357370079
0.0132944128
-0.0010633955
0.0103727076
0.0109957363
-0.0230641980
0.0068119094
0.0014003509
-0.0101176389
-0.0015993305
0.0111468807
-0.0081499191
-0.0182968657
-0.0097310413
0.0465176068
-0.0060648662
-0.0039210222
0.0021254034
-0.0293403734
0.0404702574
0.0522085391
-0.0152981747
0.0069730920
-0.0221920367
-0.0158724580
0.0080312593
-0.0126855597
0.0070059798
-0.0122360429
-0.0242877845
-0.0247783773
-0.0097634038
0.0069465111
-0.0017248759
-0.0093947249
-0.0151013127
0.0032620300
0.0011842125
-0.0002207273
-0.0149173355
0.0096001048
0.0185107626
0.0049608247
0.0131008103
-0.0034875758
-0.0061585763
0.0227781143
0.0098671336
0.0102185253
-0.0148013392
-0.0218255129
0.0074748448
0.0165726393
0.0024088360
-0.0321894698
-0.0206288900
0.0063504032
0.0078171762
0.0117245419
-0.0051202080
-0.0215886831
-0.0047993688
0.0451369770
0.0140340710
-0.0314906351
-0.0132268257
0.0314591751
0.0045264470
-0.0834835991
-0.0638862401
-0.0335707255
-0.0013604357
-0.0209018476
-0.0681738928
0.0123843402
0.0640817210
-0.0110039460
0.0102150571
0.0234035607
0.0275285207
0.0376121402
-0.0065264041
0.0085219005
0.0121220620
-0.0219366085
-0.0058496776
0.0122414231
0.0003076355
0.0180901103
0.0108856689
-0.0026984694
-0.0063915937
0.0106991278
0.0151343718
0.0006661294
-0.0116099156
-0.0257393662
-0.0086281905
-0.0140871294
-0.0208502337
-0.0140884155
-0.0110236332
0.0040734741
0.0069325021
-0.0018659123
-0.0021965629
-0.0061275591
0.0158742033
0.0112884473
0.0152763072
0.0064210342
-0.0001076884
0.0034402153
-0.0026033095
0.0076871654
0.0220602378
0.0177342687
0.0127118407
0.0172001980
0.0047414228
-0.0152009008
-0.0206857156
0.0173097588
0.0035367100
-0.0330283120
-0.0483680405
-0.0215082075
0.0107720941
0.0057535749
-0.0040784511
0.0037614754
0.0099411225
0.0146560157
0.0113872383
0.0102337832
0.0152370445
0.0054237461
0.0111752404
-0.0063183783
-0.0199586805
-0.0109875407
-0.0326374993
0.0109485853
-0.0090001719
0.0043120454
0.0436761081
-0.0052549192
0.0281843729
0.0282368306
0.0647663251
0.0984658152
0.0265405215
-0.0055075339
-0.0142682111
0.0120599344
0.0297756866
-0.0194674879
-0.0077511719
-0.0073523545
-0.0038011477
0.0067978604
-0.0008524834
-0.0294053499
-0.0370174125
-0.0152362259
-0.0634379908
-0.0606820881
-0.0375028551
-0.0220909007
-0.0557191335
-0.1683494300
-0.0668878481
-0.0490756258
-0.0479417443
-0.1346655786
-0.2095161378
-0.0490025356
-0.0253514964
-0.0170209818
-0.0894625857
-0.1040165946
-0.0174328629
-0.0107531436
-0.0167208482
-0.0474868156
-0.0665440112
-0.0408710316
-0.0210708156
-0.0209111869
-0.0165078957
-0.0085878512
-0.0083886599
-0.0082034487
0.0003481885
-0.0077253962
-0.0009492895
-0.0167192090
0.0066512856
0.0247886535
0.0159619246
0.0336954966
0.0030141529
0.0098702721
0.0131001323
0.0235188734
0.0113487449
-0.0224097613
0.0227094255
0.0289703533
0.0229156520
0.0070242463
-0.0114469025
-0.0103847319
-0.0205501691
-0.0087929955
0.0078384290
-0.0124633899
-0.0072304728
-0.0176538043
-0.0114887701
-0.0020297866
-0.0285245962
-0.0042903842
-0.0209481344
-0.0180622116
0.0188641548
-0.0188451950
-0.0118954238
-0.0123443091
-0.0039807200
0.0118589550
-0.0128795663
0.0019153478
-0.0029504034
0.0015507039
0.0027001929
-0.0073354295
-0.0105522946
-0.0178334825
-0.0078387950
-0.0025975935
-0.0141271902
-0.0072955829
-0.0108826747
-0.0274739861
-0.0646535382
-0.0249488205
-0.0193659943
-0.0155843245
-0.0722783655
-0.0776121095
0.0050577559
-0.0087881116
-0.0223460682
-0.0610429570
-0.0080105215
0.0181262325
-0.0027031871
-0.0263709202
-0.0396753065
-0.0113592483
-0.0204071812
0.0137470299
0.0125364717
0.0073140222
-0.0373330899
-0.0281796101
0.0108005283
0.0005374185
-0.0154580865
-0.0613797195
-0.0245134570
0.0239891727
0.0035654716
-0.0154341338
-0.0395219587
0.0097537898
-0.0038437506
-0.0275930092
-0.0293050744
-0.0443412773
-0.0023230838
0.0016322861
-0.0099226888
-0.0067929612
-0.0174863581
0.0066160108
0.0164563619
0.0169793740
-0.0218699723
-0.0234753154
0.0104891229
0.0135947205
0.0160507597
-0.0587646067
-0.0350009836
0.0171598271
0.0013070026
0.0005439447
-0.0730138794
-0.0184820089
0.0349155553
-0.0051781163
-0.0066327332
-0.0352549590
-0.0109712491
0.0032887384
0.0001795896
0.0087856343
-0.0007238727
0.0031847346
0.0122979647
-0.0342302993
-0.0217558742
-0.0039238450
0.0077269040
0.0083444547
-0.0138999484
0.0007928972
0.0120309331
0.0194128864
0.0115678059
-0.0126263909
0.0132999541
0.0298257060
0.0410144739
0.0102116372
-0.0179169960
0.0053702458
0.0233755410
0.0289945547
-0.0046311105
-0.0188815147
-0.0074789049
0.0109893475
0.0147039285
-0.0143591631
0.0038364260
-0.0023145976
-0.0031189830
0.0005871755
0.0103560425
-0.0056686862
-0.0086691929
-0.0064398074
-0.0003085544
0.0081384787
-0.0041242568
-0.0040424592
0.0040503973
0.0111914128
0.0157094952
-0.0086294040
-0.0068910313
-0.0002082666
0.0008967743
0.0073007001
-0.0074548232
-0.0091367960
-0.0054391064
-0.0035806652
0.0052524218
-0.0094714370
-0.0032954998
0.0136897657
-0.0051212539
0.0037414867
0.0020596376
0.0095744394
0.0182027202
-0.0308484398
-0.0140085258
-0.0001647210
0.0134670930
0.0092396168
-0.0341068953
0.0044795172
0.0115548624
0.0219901036
0.0116500519
-0.0161108002
-0.0017895314
0.0082661668
0.0223085135
0.0259658080
-0.0013624367
0.0047638533
0.0134525951
0.0029339399
0.0100289229
0.0208082851
0.0045136367
0.0103892526
0.0184617434
0.0022389854
-0.0246943086
-0.0096578058
0.0110587655
-0.0030270824
-0.0402721390
-0.0408735052
-0.0112395305
-0.0082736919
-0.0108953556
-0.0280050971
-0.0115829268
0.0130626094
0.0064077759
0.0075859237
-0.0000516868
0.0044852151
0.0127439164
-0.0154411364
-0.0075053419
0.0063379966
0.0090130987
0.0134174218
-0.0187414009
-0.0075237942
0.0033570246
0.0232234299
0.0343458951
-0.0177237894
-0.0151707530
0.0057546133
0.0285497569
0.0208234396
-0.0253955349
-0.0276801344
-0.0036807784
-0.0011532883
-0.0076997699
-0.0462629274
-0.0286616944
-0.0155997928
-0.0083097173
-0.0118031930
0.0042645563
0.0026343979
0.0012736191
-0.0006991655
0.0077983537
0.0088101523
0.0002583877
-0.0069068405
-0.0191219877
-0.0024136365
0.0151173575
-0.0130027412
-0.0252936091
-0.0277132448
0.0098100342
0.0177240260
0.0032782792
0.0009794057
-0.0208008401
0.0066658389
0.0133473966
-0.0016831099
0.0146430703
0.0012215821
0.0024717902
-0.0006857495
0.0050251503
0.0105379187
-0.0121400626
0.0108507508
-0.0099825431
0.0114490660
-0.0116109736
-0.0951021016
0.0058058365
-0.0247107781
-0.0123553500
-0.0873744339
-0.0937159061
0.0501368828
-0.0093924850
-0.0039652181
-0.0583300292
-0.0081324810
0.0401047133
-0.0146525903
-0.0160459094
-0.0279224385
-0.0160825532
-0.0072076628
0.0039299452
0.0085578188
0.0132490164
-0.0048650927
0.0034138879
0.0078970129
0.0059269043
-0.0101944776
-0.0237829760
0.0009231966
0.0140817100
0.0139119979
-0.0286251400
-0.0144338077
0.0110810176
0.0113228783
0.0115121799
-0.0245592576
-0.0179782398
-0.0029657211
0.0116781248
0.0182922501
-0.0012791674
-0.0098156789
-0.0053739096
0.0020061033
0.0067076748
0.0046463129
0.0125027541
0.0080178017
0.0107557168
0.0041279006
0.0032052642
0.0065815896
-0.0146494173
0.0051221671
-0.0076151523
-0.0304669347
-0.0224337485
-0.0203335769
0.0108230067
-0.0064683380
-0.0127097908
0.0162539333
0.0077646421
0.0101585528
0.0043635494
0.0048717498
0.0044253482
-0.0070299790
-0.0147589175
-0.0118179806
0.0028741912
0.0029545552
0.0165466964
-0.0066150147
-0.0134172235
-0.0051119910
0.0031387976
0.0039555826
0.0025580835
-0.0013249575
0.0143136149
0.0177309215
0.0198759027
-0.0094984071
-0.0070598158
0.0102517335
0.0087886257
0.0093989801
-0.0120332111
-0.0178526379
0.0106294313
0.0249920320
0.0096778572
0.0135986414
0.0011439084
0.0126825720
-0.0137349721
-0.0104411971
0.0093111545
0.0038088886
-0.0223063603
-0.0843358859
-0.0199393723
0.0099446950
0.0042772684
-0.0707599223
-0.0818043053
0.0153055442
0.0020608590
-0.0004062243
-0.0437586047
-0.0344212390
0.0396067686
0.0112874052
0.0075946432
-0.0101453215
-0.0009991250
0.0287202485
0.0059206784
0.0006536809
0.0208979063
0.0217736419
0.0223407187
0.0077189505
0.0080415271
0.0024596127
-0.0152389733
0.0049755573
0.0089981761
0.0015441447
-0.0159365498
-0.0131086921
0.0091023585
-0.0076229004
-0.0071571968
-0.0173952077
-0.0141662536
-0.0037500549
-0.0186369754
-0.0204560347
-0.0209807940
-0.0232347529
-0.0257930495
-0.0051941215
0.0088409334
0.0040686680
-0.0053218454
-0.0009635746
0.0007258290
0.0056392783
-0.0044083977
-0.0307565387
-0.0101965219
0.0025698377
0.0141918380
0.0021523261
-0.0198186170
0.0026157082
-0.0001744648
0.0129404971
0.0057409378
-0.0120400032
0.0008543018
0.0033001634
0.0143876169
0.0051368563
-0.0048631211
-0.0133495582
-0.0163802505
0.0079274541
0.0085980371
0.0216981843
0.0153381154
-0.0064363619
0.0099756550
0.0252541341
0.0333648548
0.0209604111
-0.0182904340
-0.0041793641
0.0179818757
0.0385127105
0.0262183212
0.0051209857
0.0058587482
0.0214884803
0.0214670934
0.0082320506
0.0003333082
-0.0026308922
0.0190211870
0.0044709030
-0.0062379250
-0.0045403261
-0.0104903849
0.0000784839
0.0111144632
0.0111669172
-0.0130448313
0.0047421427
0.0182651728
0.0234188959
0.0219959766
-0.0082397265
0.0031191714
0.0229515862
0.0233698562
0.0252212640
-0.0203311872
-0.0034220868
0.0131674185
0.0173173361
0.0091952290
-0.0222586319
-0.0137767680
0.0113041541
0.0153163671
-0.0010367304
-0.0081989877
-0.0161125418
-0.0140280528
-0.0157554522
-0.0087954467
-0.0084560290
-0.0088345828
-0.0048670745
-0.0023866303
0.0111771571
-0.0076616458
-0.0028970428
0.0107518658
0.0180811062
0.0422380604
0.0006023085
-0.0041932897
0.0032175630
-0.0001773146
0.0162442755
-0.0072993250
-0.0114102187
-0.0014224615
0.0045723366
0.0225569699
-0.0009481457
0.0112937577
0.0215982813
-0.0000654009
-0.0071740365
0.0098199248
0.0110247908
-0.0044868840
-0.0414344780
-0.0223762505
-0.0016606065
-0.0083826119
-0.0301942788
-0.0228528827
0.0022386345
0.0056666993
0.0148127638
0.0164607484
0.0299263336
0.0202623941
0.0017169850
0.0179800000
0.0164839551
0.0198876429
-0.0039967750
-0.0178259853
-0.0050668907
0.0185732152
0.0346977934
0.0289364681
-0.0058697942
-0.0019376168
0.0491202809
0.0945780203
0.0761447251
0.0165211130
0.0370480865
0.1113728434
0.1312636733
0.1091571748
-0.0043981019
0.0014340858
0.0340796858
0.0507753603
0.0288543254
0.0081752343
0.0075442404
0.0262979455
0.0379904322
0.0200151671
-0.0044450606
-0.0172935370
-0.0127484165
0.0147431968
0.0017892389
0.0029096599
0.0108109144
0.0205431841
0.0525748506
0.0188648533
0.0000610522
0.0219414942
0.0405796207
0.0686117038
0.0120132286
0.0021593201
0.0138129601
0.0346704312
0.0377864279
-0.0146718025
-0.0045408146
-0.0027062898
0.0135251582
0.0142116267
-0.0029314945
-0.0241117049
-0.0186058916
0.0002334735
-0.0145588070
-0.0046956008
-0.0131799895
0.0096475920
0.0103439419
-0.0490399897
0.0043410347
0.0011204343
0.0167353321
0.0059076194
-0.0479706898
0.0116697345
-0.0017541016
0.0146416454
0.0022626310
-0.0348275863
-0.0029626475
0.0054665436
-0.0010877347
-0.0033462874
-0.0157307424
0.0111717032
-0.0108322063
-0.0179125611
-0.0135225318
0.0045887535
-0.0043047620
0.0025910540
-0.0179994609
-0.0350861996
-0.0182532836
-0.0341086872
0.0024399264
-0.0245089084
-0.0369513631
0.0102379732
0.0046298406
0.0116848592
-0.0193351042
-0.0124457981
0.0285987705
-0.0001241165
-0.0004816569
-0.0203994215
-0.0167660043
-0.0084436117
-0.0364584886
0.0037226586
-0.0245104823
-0.0038611079
0.0130751031
-0.0141466781
0.0001357681
0.0026746748
0.0204898492
-0.0047917659
-0.0120668178
0.0076030167
0.0117201423
-0.0061299517
-0.0463322662
-0.0123770870
-0.0169683248
-0.0187173579
-0.0509728417
-0.0382958092
0.0091388309
-0.0124699967
-0.0044497978
-0.0213035177
-0.0119433980
0.0005052994
0.0118055101
0.0202644058
0.0207274277
-0.0088214492
0.0034984932
0.0171869677
0.0414073430
0.0152585888
-0.0307669938
0.0219032988
0.0115422374
0.0338040665
0.0093372865
-0.0308375694
0.0224039964
0.0057486054
0.0170968454
-0.0016556695
-0.0296411794
-0.0083313063
0.0140941432
0.0184378177
0.0066549242
-0.0096787428
-0.0080088573
-0.0008034855
-0.0057270168
0.0089741172
0.0096524162
0.0034171741
0.0009098571
0.0080977716
0.0218368955
0.0319941305
0.0214297287
0.0015935742
0.0206029750
0.0440397710
0.0570593551
0.0260787718
0.0020056963
0.0177673530
0.0444920771
0.0386120230
0.0041890503
-0.0051875119
-0.0067335679
0.0126812970
0.0016025240
-0.0096150897
-0.0086408183
-0.0153554669
-0.0172965787
0.0060523455
0.0145882228
-0.0075579514
-0.0129419761
0.0323758796
0.0862410590
0.0672106296
0.0312311538
0.0520258062
0.1488620937
0.1779998988
0.1170278862
0.0026636450
0.0202044845
0.0667257980
0.0648604929
0.0151850460
0.0121022500
0.0248138439
0.0400194526
0.0292120334
0.0222742744
-0.0105842976
0.0024828701
0.0344420783
-0.0034969652
-0.0063373102
-0.0141884228
0.0140288826
0.0108379768
-0.0601478554
0.0017786394
-0.0108446423
0.0130080953
-0.0333172716
-0.0630351007
0.0251919702
-0.0197054707
-0.0117426505
-0.0282586850
-0.0227764193
0.0242276732
-0.0273075886
-0.0206114277
-0.0125510534
0.0036737050
-0.0002720029
-0.0033707141
-0.0023748472
-0.0013629547
0.0045541162
0.0021016931
-0.0084327189
-0.0035098279
0.0056430530
0.0052361721
-0.0064173480
-0.0099748746
-0.0091429362
-0.0021097458
0.0057480303
-0.0047711567
-0.0005251073
-0.0011793870
0.0124930674
0.0239701010
0.0083676390
-0.0096557597
-0.0091653690
0.0041940394
0.0078835562
-0.0101273889
0.0099751931
-0.0031656981
-0.0202389024
-0.0414852798
-0.0044233757
-0.0029741409
-0.0015808234
-0.0290683415
-0.0568349436
-0.0192777812
-0.0019469510
-0.0076687499
-0.0285324007
-0.0496621430
-0.0037838451
-0.0016848658
-0.0112115173
-0.0294391792
-0.0515190065
-0.0104350150
0.0114253815
0.0033671034
-0.0029584530
-0.0234392677
-0.0019651016
0.0009000844
0.0041721966
0.0295429975
0.0009940732
0.0016986968
0.0099449977
0.0072484436
-0.0103490362
-0.0470686927
-0.0077095944
0.0121798888
0.0166847408
-0.0205529854
-0.0241223760
0.0184673835
0.0160665177
0.0086721722
-0.0089698918
0.0077842223
0.0031758163
0.0180594921
0.0100011798
0.0064379144
0.0077850674
-0.0053790440
-0.0247415416
-0.0070628827
0.0048519163
0.0188982524
0.0174275041
-0.0164147038
-0.0019677966
0.0104373656
0.0259853769
0.0253486037
-0.0119609348
-0.0156864710
-0.0000171735
0.0222645439
0.0219991542
-0.0296904240
-0.0120856613
-0.0062979362
0.0091378484
0.0190552864
-0.0344156846
-0.0056107091
-0.0060604075
-0.0033461517
0.0084319422
0.0265257247
0.0178194456
-0.0064199367
-0.0153064253
-0.0082634334
0.0152907073
0.0135173881
-0.0161686484
-0.0159726646
0.0092797838
0.0075988472
0.0020743359
-0.0188888349
-0.0254757404
0.0053448593
-0.0016681388
0.0024439129
-0.0233036149
-0.0256322697
-0.0021898884
-0.0175315682
0.0015524507
-0.0078390762
-0.0075258678
-0.0007020964
0.0133799510
0.0234958977
0.0317086950
0.0158270132
0.0075537371
0.0062856604
0.0126552936
0.0252236854
-0.0167053789
-0.0088910041
-0.0045345081
0.0140214302
0.0213723462
-0.0134356888
-0.0036362216
0.0000411553
0.0126073239
0.0297484510
-0.0041502696
-0.0033882477
0.0048023076
0.0028721774
0.0340796560
0.0143337073
-0.0080557801
-0.0028909431
-0.0116645312
0.0022811145
0.0042991168
-0.0025306486
0.0078390660
0.0118845887
-0.0072192773
-0.0292676650
-0.0152919423
0.0231184475
0.0174065568
-0.0087455912
-0.0130140260
0.0082450928
0.0055744429
0.0018490840
-0.0104398839
-0.0073003699
-0.0085202595
0.0085096424
-0.0039799097
-0.0129781533
-0.0115980646
-0.0157636199
-0.0050590853
-0.0233291797
-0.0146830687
-0.0028813574
-0.0289076827
-0.0142733296
-0.0366797298
-0.0328349583
-0.0032027820
-0.0325359218
-0.0121334568
-0.0412813276
-0.0275404714
0.0101480661
-0.0015332890
-0.0131516466
-0.0417144299
-0.0332673341
0.0148124294
-0.0054631270
0.0000122174
-0.0236056764
-0.0113440836
0.0142226452
-0.0032474028
-0.0024730084
0.0092777489
0.0025494928
-0.0317459963
-0.0078022592
-0.0065719341
0.0253128279
-0.0263618175
-0.1014918014
-0.0346066616
-0.0034797918
0.0147455968
-0.0625947118
-0.0932015255
0.0015135690
0.0091158981
-0.0055002775
-0.0565371402
-0.0593816265
-0.0016469666
0.0237701889
0.0070065078
-0.0207161158
-0.0165261254
0.0052798078
-0.0023228852
-0.0095213922
0.0113015529
0.0235066842
-0.0016555305
-0.0049682776
-0.0048567052
0.0630777851
0.0692597106
0.0079128761
-0.0059560998
0.0023783243
0.0680117533
0.0837742239
0.0117038200
-0.0243328586
-0.0143148368
0.0172910299
0.0067842333
-0.0325620659
-0.0138721662
-0.0111533431
0.0116545008
-0.0038398586
-0.0292751137
-0.0027418421
-0.0162269045
-0.0070156385
0.0100789098
-0.0132843358
-0.0107824886
-0.0291581620
-0.0161014535
-0.0160170253
-0.0407619476
0.0168266576
-0.0114342496
0.0046856981
-0.0109932702
-0.0451747514
0.0101006757
-0.0117452703
0.0037591022
-0.0062567517
-0.0551286191
0.0276368428
-0.0000962971
-0.0014513601
-0.0084869713
-0.0454397313
0.0004677451
0.0042105871
0.0306234900
0.0099327490
-0.0125053301
-0.0015919252
0.0183683913
0.0306972377
-0.0086205956
-0.0195005871
0.0118177850
0.0281803552
0.0287135020
-0.0066147828
-0.0097670685
-0.0167374592
-0.0085140448
-0.0081181675
-0.0243776198
-0.0189356953
0.0060807834
0.0018334306
-0.0044864276
-0.0101591814
-0.0131228790
-0.0180391651
0.0022078140
0.0119897574
-0.0052696229
0.0102802683
-0.0142571861
0.0033767908
-0.0032172627
-0.0196198691
0.0016293055
-0.0227235537
-0.0047345515
0.0011475309
-0.0062839570
-0.0047218823
-0.0115477014
0.0103762820
0.0133346338
0.0072355843
-0.0056675035
-0.0040375795
0.0074045570
0.0262192842
0.0052349148
-0.0107336612
0.0104172062
0.0063424483
-0.0015341534
0.0085181827
0.0051077018
-0.0004003545
0.0006266274
0.0181070268
0.0281052459
0.0189664233
-0.0001268321
0.0138539206
-0.0188517030
-0.0162827801
-0.0099388277
-0.0092331376
-0.0226405561
-0.0367419720
-0.0303231124
-0.0050370041
-0.0135738673
-0.0128398482
-0.0282245874
-0.0055797519
0.0030520710
0.0140450466
0.0054854513
-0.0003976633
-0.0268230252
-0.0240047034
0.0206327867
0.0243758354
0.0037409295
-0.0314879753
-0.0168861281
0.0058026873
-0.0115003204
-0.0707431212
-0.0548882671
0.0061711972
-0.0240661241
-0.0380224399
-0.0021794627
0.0635214522
0.0527762920
-0.0025599508
0.0275950544
0.0591321886
0.0290975478
-0.0365535170
0.0018423200
-0.0071997060
-0.0057976595
-0.0128270937
0.0032939364
-0.0003768034
-0.0273567401
-0.0463663079
0.0099915480
0.0159942582
-0.0509011000
-0.0602338985
0.0695304871
0.1033519804
0.0287830867
0.0146411462
0.0530759804
0.1204973459
0.0518297404
-0.0339548327
0.0164969601
0.0168115869
0.0115065509
-0.0281217787
-0.0367331393
0.0138443299
0.0254064985
0.0048149591
0.0213582255
0.0339935645
-0.0021036575
0.0168032721
-0.0100834491
-0.0277937930
-0.0069875601
0.0135612823
0.0255634040
-0.0627205446
-0.0891655162
-0.0262708683
-0.0201249141
-0.0388105288
-0.0728916377
-0.0137359267
0.0119505255
-0.0495159552
-0.0338866748
0.0046075513
0.0356517881
0.0162257906
0.0072929780
-0.0096554337
0.0138141727
0.0122149494
0.0093876785
0.0084426422
-0.0108418418
-0.0119597586
0.0125683919
0.0113503970
0.0203189310
-0.0024507558
-0.0350481607
0.0031404905
0.0055958591
0.0161483772
-0.0119236922
-0.0349520110
-0.0168107823
0.0144146541
0.0094145052
0.0042540794
-0.0204196554
-0.0102944244
0.0075679226
0.0219076946
0.0124399941
0.0097114639
-0.0083209109
-0.0093141375
0.0240948182
0.0049446030
-0.0180520192
-0.0371639431
-0.0106137777
-0.0120634167
-0.0480473265
-0.0675290450
-0.0096393945
0.0201072060
-0.0188644081
-0.0042819064
0.0530237816
0.0391618051
-0.0021515442
0.0347750783
0.0347785614
0.0195575282
-0.0095272092
-0.0269039329
0.0130535392
0.0195380244
0.0022537201
-0.0074855946
-0.0216757879
0.0148572102
0.0066034105
0.0060160006
-0.0229562465
-0.0171519760
0.0179560073
-0.0036450110
-0.0505908690
-0.0582749769
0.0112918597
-0.0142152254
-0.0630363226
-0.0579829812
0.0172515884
0.0413064770
-0.0082285730
-0.0054044030
0.0273760464
0.0403296165
0.0152489496
0.0088197840
0.0183324311
0.0010112086
0.0005196516
0.0085468236
0.0018444502
0.0191210676
-0.0295523107
-0.0223476198
0.0254568383
0.0057735364
-0.0009704893
-0.0513719693
0.0339255668
0.0415961631
-0.0052915672
-0.0310988110
0.0007102028
0.0416720435
0.0039664814
-0.0289313756
-0.0157278366
0.0152117098
0.0140409805
-0.0171683468
0.0092224954
0.0092901001
-0.0004794878
0.0110928593
-0.0036536714
0.0233022105
0.0189153496
-0.0133995013
0.0062165139
0.0050117634
0.0199864022
0.0161972083
-0.0197922718
-0.0112263570
-0.0119044567
0.0232928582
0.0364491194
-0.0160025340
-0.0228686240
-0.0108225411
0.0054818192
0.0009875004
-0.0109558804
-0.0111857830
-0.0004028480
-0.0047462275
-0.0188109260
-0.0089644520
-0.0043581510
-0.0019084185
0.0050484906
-0.0053310380
-0.0155471582
0.0006620353
0.0086699110
-0.0003266021
-0.0179937594
-0.0290161166
-0.0033265771
0.0133464327
-0.0050620916
0.0009888586
0.0137748998
0.0265403539
0.0374827497
0.0125756096
0.0258423593
0.0217543393
0.0252395924
0.0144373858
0.0026913625
-0.0030017388
-0.0065629561
-0.0006849408
0.0083612818
-0.0029026228
-0.0101587744
-0.0170830525
-0.0076755751
0.0072731744
-0.0141723333
-0.0181861129
-0.0140908286
-0.0013745039
0.0072302553
-0.0069904560
-0.0057196803
0.0047667939
0.0104620242
0.0105974656
-0.0022119291
0.0007802061
0.0069271051
0.0088091036
0.0105027221
0.0107591394
0.0085719712
-0.0137737012
-0.0049630590
0.0046234331
0.0124788005
0.0018589558
-0.0239830036
-0.0115473364
0.0135878893
-0.0007609690
-0.0130742276
-0.0451062880
0.0015409652
0.0200634375
-0.0041057179
-0.0213156398
-0.0230364595
0.0228127185
0.0178252272
-0.0059522572
-0.0039397101
0.0052648336
0.0079314318
-0.0172350723
0.0069504348
0.0084991455
0.0038364821
-0.0215175431
-0.0147370901
0.0327188410
0.0121356519
-0.0218556020
-0.0449461229
-0.0198911205
-0.0113024190
-0.0541791916
-0.0704234466
0.0004973605
0.0268646609
-0.0292806514
0.0053414311
0.0595381297
0.0466681644
0.0068253726
0.0206216443
0.0429509282
0.0267217308
-0.0173920915
-0.0415168367
-0.0066583888
-0.0022102145
0.0023016727
-0.0052063363
-0.0041109393
-0.0064694900
-0.0036675804
-0.0165439695
-0.0144400252
0.0158766080
-0.0006095606
-0.0231819190
-0.0230949726
0.0013242222
0.0145238228
0.0000571569
0.0040609073
0.0168804210
0.0225076657
0.0142474240
0.0016620354
0.0159048196
0.0286678020
0.0254476257
0.0045256610
0.0053577754
0.0001511960
-0.0074791955
0.0004936400
-0.0057901717
0.0125665544
0.0005899529
-0.0125151770
-0.0047672647
0.0092628282
0.0057478636
-0.0097070280
-0.0379671976
-0.0274545774
0.0071847304
0.0007607474
0.0001383799
-0.0142823206
0.0077952123
0.0267023779
-0.0034874086
0.0209301673
0.0177512392
0.0299153365
0.0303153768
-0.0039907745
0.0100569744
-0.0128064789
-0.0153542040
-0.0073037520
0.0065525360
0.0086016366
-0.0226694793
-0.0316583253
-0.0128829898
-0.0079069873
-0.0070851790
-0.0629988015
-0.0313545652
0.0212905109
-0.0327388085
-0.0227693301
0.0048842519
0.0436907522
0.0162788387
-0.0074034808
0.0178800374
0.0480137430
0.0144055560
-0.0239816085
0.0053061936
0.0066366750
-0.0024676039
-0.0071862312
0.0199465174
0.0175008532
0.0023408311
-0.0287222993
0.0026064445
0.0226793066
0.0055497517
-0.0203379393
-0.0479698293
0.0074057318
0.0278035514
-0.0059052436
-0.0202760044
0.0053121294
0.0262450017
0.0092521906
0.0003496130
0.0012338968
0.0106362561
-0.0003725183
-0.0215638634
0.0011639006
-0.0042726784
-0.0026200314
-0.0086335400
-0.0122446511
0.0041367305
0.0098747574
0.0124836406
0.0076371520
0.0016989127
0.0145085920
-0.0138582317
-0.0391080268
-0.0318730287
-0.0049947309
0.0134947347
-0.0242581721
-0.0486551039
-0.0244877562
0.0191339273
-0.0049326122
-0.0143279415
-0.0219153464
-0.0155662745
-0.0050359252
0.0023036555
-0.0055642780
-0.0184359122
-0.0128892735
-0.0182024259
-0.0087865349
-0.0023986294
-0.0292457230
-0.0298102666
0.0029368319
-0.0067669163
0.0017493130
-0.0346625857
-0.0163240861
0.0147290276
-0.0052388934
0.0077242889
-0.0012917836
0.0269782320
0.0292146429
-0.0055098170
0.0214375202
0.0193604473
0.0300413892
0.0105774207
0.0032906933
0.0062405178
-0.0131829958
-0.0320858769
-0.0018816723
0.0085401349
-0.0204546172
-0.0559351370
-0.0209889077
0.0104573555
-0.0185674001
-0.0548075289
-0.0253585037
0.0227994099
0.0390094034
-0.0237105414
-0.0176892187
0.0157950856
0.0437424332
0.0144984033
-0.0123108653
0.0108573176
0.0163536239
0.0033826639
-0.0437213033
-0.0078442208
-0.0021809533
-0.0030166353
-0.0231029615
-0.0144438744
0.0046773865
-0.0061821644
-0.0336233675
-0.0423229225
-0.0094968807
-0.0260537546
-0.0555422120
-0.0432327017
0.0004193103
0.0181490295
-0.0155358575
0.0087718628
0.0497016832
0.0239520241
-0.0013199832
0.0236140564
0.0371536724
0.0339324735
-0.0023137988
-0.0100901611
0.0028881133
0.0126445014
-0.0030987852
-0.0094494065
-0.0039545633
0.0072286911
0.0174894333
-0.0074168551
-0.0019240363
-0.0019390169
0.0137734022
0.0160842426
-0.0219187140
-0.0033369786
-0.0030124518
0.0090544792
0.0044969139
-0.0064468607
0.0054899650
-0.0008108095
0.0020412800
0.0103939483
-0.0002181347
-0.0045985095
-0.0048994203
-0.0068941009
-0.0032906856
-0.0088036628
-0.0194570534
-0.0052774125
-0.0084711611
-0.0005344299
-0.0036630288
0.0040976582
0.0179683734
-0.0087983562
-0.0240077712
-0.0432550870
-0.0111596193
0.0248726010
-0.0048662215
-0.0166987311
0.0025385616
0.0245368145
0.0332104526
0.0004050793
0.0144568253
0.0213869102
0.0189672355
0.0116602443
0.0042704311
-0.0058058696
-0.0071727443
-0.0014042440
-0.0082495436
-0.0070924470
-0.0119295083
-0.0174267534
-0.0073058866
0.0040058759
-0.0013893771
0.0009419168
-0.0298232436
-0.0191714205
0.0011003971
-0.0046165930
-0.0022885129
-0.0243376698
0.0019135900
0.0240018778
-0.0080857873
0.0001379736
0.0108401598
0.0308220163
0.0144622177
0.0048330161
0.0051418724
-0.0004307957
0.0009768368
0.0042237728
0.0025081609
-0.0014840445
0.0017804691
0.0006413755
0.0033961076
0.0009750382
0.0111778816
0.0070246533
-0.0013791377
-0.0187442396
0.0128864255
0.0151365763
-0.0021025867
-0.0124707501
-0.0098687550
0.0027750500
-0.0082800630
-0.0202887785
-0.0117487814
-0.0081933718
0.0020531972
-0.0019982317
0.0006655466
-0.0065368251
-0.0043413141
0.0282247737
0.0204414316
0.0040047085
-0.0210146885
-0.0050641457
-0.0085129961
-0.0484526418
-0.0891200975
0.0057343543
0.0521868318
-0.0339986198
0.0011825499
0.0837676451
0.0833427608
0.0173062552
0.0276744962
0.0489121526
0.0685346052
-0.0100133382
-0.0611784011
0.0088067232
0.0042315708
-0.0035811614
0.0003834141
0.0120426295
0.0068468084
0.0101026567
-0.0316025130
0.0111270174
0.0366947092
0.0156238256
-0.0140014626
0.0086736726
0.0797010884
0.0489503853
0.0150722731
0.0010939679
0.0236380789
0.0212397147
-0.0223745238
-0.0130754933
-0.0102294823
-0.0288298670
-0.0484577119
-0.0244156364
0.0038250582
0.0027019505
-0.0019528492
-0.0024306821
0.0021359266
0.0019220454
-0.0133986864
-0.0139795253
-0.0012420628
0.0067454851
-0.0021890795
-0.0207714960
-0.0236802828
-0.0056606932
0.0057817972
-0.0005851910
-0.0065557887
-0.0011079703
0.0123591498
0.0183857419
-0.0128683755
0.0150271486
0.0232914798
0.0254219398
0.0139957517
0.0152068632
-0.0065350109
0.0152939539
0.0205851141
0.0167497341
0.0074674669
-0.0003140720
0.0032897652
0.0231482852
-0.0011041515
-0.0036572393
0.0135875624
0.0059216758
-0.0163674001
-0.0185580291
0.0025993944
-0.0022889182
-0.0177180301
-0.0251372308
0.0149609428
-0.0106844734
-0.0173725076
-0.0194260869
-0.0025368757
-0.0001723893
-0.0057166670
0.0014564123
-0.0010165240
0.0063089263
-0.0068839910
0.0038706078
0.0153940460
0.0021225470
-0.0075222789
-0.0094527369
-0.0028465888
0.0022538949
-0.0527504161
-0.0531091467
-0.0002789147
-0.0027821076
-0.0304849744
-0.0637976900
-0.0165926367
0.0266677178
-0.0009916598
-0.0061431294
0.0004766736
0.0079961373
0.0060993615
0.0065371878
0.0070070368
-0.0191463530
-0.0406934805
-0.0117590819
0.0021413064
-0.0226455033
-0.0610808395
-0.0334016010
0.0063176514
-0.0310681667
-0.0644188374
0.0082891388
0.0379304588
0.0272296835
-0.0435791053
-0.0091502229
0.0466041975
0.0534436852
0.0199931823
-0.0212659594
0.0092285406
0.0445344597
0.0268305317
-0.0034758963
0.0163075030
0.0027960932
0.0033218255
0.0172437280
0.0212349314
0.0054762354
0.0017170071
-0.0041217110
0.0164710991
0.0171586759
0.0123466533
0.0291383211
-0.0185111966
0.0113480277
0.0026956443
0.0109563461
-0.0035961338
-0.0202480257
0.0118147191
-0.0088580325
0.0048917062
0.0010357338
0.0007257095
0.0108552277
-0.0089665297
0.0102032823
0.0020028795
-0.0018775051
0.0095449677
0.0059758946
0.0094244946
-0.0076195858
-0.0019591034
0.0017048803
0.0051284195
-0.0127233714
-0.0383533984
-0.0499278903
-0.0071122213
0.0181455463
-0.0061876965
0.0004570517
0.0274844691
0.0122478334
-0.0075554391
0.0035087508
-0.0012596357
-0.0030077952
-0.0142909726
-0.0172913764
0.0021250139
-0.0107660545
0.0038522969
0.0135440519
0.0201234780
-0.0026035174
-0.0136743179
-0.0333154462
0.0421131551
0.0365899019
0.0004490885
-0.0274908971
0.0615187772
0.0682217330
0.0006648928
0.0049562571
0.0130435200
0.0181521047
-0.0274396334
-0.0279047824
-0.0175083838
-0.0207500625
-0.0532603152
-0.0315323994
-0.0064532133
-0.0044048559
-0.0192401856
-0.0188968331
-0.0250554234
-0.0099576609
-0.0079743080
-0.0130221667
-0.0308809336
-0.0462751947
-0.0118029620
-0.0172500350
-0.0207164437
-0.0717338473
0.0024801923
0.0477553830
-0.0445655808
-0.0426685140
0.0375202894
0.0959518552
0.0327577963
0.0009190058
0.0234897882
0.0773886815
0.0218424480
-0.0389775820
0.0140637215
0.0096358918
0.0066603422
0.0010951525
-0.0004921868
0.0057290411
-0.0000928412
-0.0047016069
-0.0113386987
-0.0015814947
-0.0272182412
-0.0425652191
-0.0154869640
-0.0200004727
-0.0198719352
-0.0111145694
-0.0140665518
0.0027626960
-0.0072500366
-0.0164827574
0.0063048326
0.0022616589
0.0041393302
-0.0103770336
-0.0278725140
0.0074008517
0.0026986990
-0.0116330208
0.0054593170
-0.0057893978
-0.0020571200
0.0035422284
-0.0188170839
-0.0065472242
-0.0004326310
-0.0047605154
0.0189946909
-0.0239829589
-0.0191585720
-0.0182286520
0.0004684893
0.0191366002
-0.0314372703
-0.0252330191
-0.0109999897
-0.0039977068
-0.0099915406
-0.0254173968
0.0008156390
-0.0035397378
-0.0017103807
0.0117918653
-0.0150222247
-0.0334400125
-0.0030338501
0.0072750049
-0.0120442109
-0.0566785969
-0.0312143862
0.0123275779
-0.0165971667
-0.0683394298
-0.0641919225
0.0325147882
0.0465832353
-0.0429714806
-0.0447206087
0.0194390174
0.0448115431
0.0055326521
-0.0188843105
0.0120408572
0.0178127419
0.0029735477
-0.0023415412
0.0006178538
0.0080014924
0.0140860472
0.0012100618
-0.0010419582
0.0039708144
0.0088456087
0.0106211919
0.0052882838
-0.0025930917
-0.0040382100
-0.0148005458
-0.0358730555
-0.0381215625
-0.0186474863
0.0030023858
-0.0127250878
-0.0193597935
-0.0028459686
0.0065708524
-0.0034534051
-0.0100802956
0.0075561716
0.0153676663
-0.0009870519
-0.0051916279
0.0174400844
0.0120060248
0.0076415404
0.0084104147
0.0090288864
0.0127381450
-0.0038984164
-0.0086400658
-0.0025030912
-0.0085219983
-0.0166498739
-0.0199466068
-0.0080560604
-0.0042268927
-0.0029038624
0.0038845071
0.0099459728
0.0050427448
0.0009571822
-0.0061873957
-0.0044150525
-0.0034865821
-0.0202107038
-0.0117223142
0.0012352536
-0.0062097036
-0.0190257579
-0.0118048284
-0.0205938462
0.0007212706
0.0006803598
-0.0201843884
-0.0171408504
-0.0059756543
-0.0006602071
0.0072954567
-0.0237923004
-0.0161267277
0.0101969410
0.0086019738
0.0145133203
-0.0056281607
0.0068409070
0.0194080286
0.0019287710
0.0199926514
0.0128882388
0.0194085669
0.0057022600
-0.0003585443
-0.0025846809
-0.0134707829
-0.0312391650
-0.0188547913
0.0052847220
-0.0169445761
-0.0426681638
-0.0376306362
0.0105162095
-0.0356141068
-0.0618419684
-0.0212036017
0.0321130939
0.0332103670
-0.0288945306
-0.0040764329
0.0524695590
0.0361364782
0.0095942607
0.0083390838
0.0284786038
0.0265581645
0.0080244318
0.0041241725
0.0085854381
0.0003251074
0.0094763357
0.0080902763
0.0026769324
0.0141610419
0.0148698622
0.0306578018
0.0255261660
-0.0031223118
0.0145088155
0.0177122839
0.0034527422
-0.0211057551
-0.0280978791
-0.0036993248
-0.0244228859
-0.0414090529
-0.0418313257
-0.0200254004
-0.0141443927
-0.0244744495
-0.0234882161
0.0094523281
0.0028262625
0.0177379772
0.0107303495
-0.0010596836
0.0123488475
0.0035735783
0.0218876749
0.0102615990
-0.0054372279
0.0103021925
0.0099118212
0.0213923547
0.0227706432
-0.0133180199
0.0001093320
0.0081945518
0.0105820447
0.0007675258
-0.0232788883
-0.0038706653
0.0072614932
-0.0199131332
-0.0101095540
-0.0071573369
-0.0018062055
-0.0193572287
0.0049677379
-0.0006725815
-0.0037489578
-0.0032697786
0.0155471656
0.0008616390
-0.0073261359
-0.0073413486
0.0094573852
0.0221831240
-0.0240892842
-0.0141769266
0.0422527008
0.0612659603
0.0035054768
0.0087813735
0.0501377769
0.0866342187
0.0561713278
-0.0252393093
0.0202642530
0.0302189570
0.0213732421
-0.0232367348
-0.0422589444
-0.0192543343
-0.0232269969
-0.0266049933
-0.0198271517
-0.0070056873
-0.0253087711
-0.0386076905
-0.0250582751
0.0008974606
0.0014626543
-0.0195601378
-0.0174171701
-0.0066233557
-0.0187172294
-0.0044396590
-0.0011721881
-0.0035493374
-0.0209594667
-0.0240707770
-0.0095430659
-0.0160578284
-0.0186407790
-0.0307229832
-0.0100053661
-0.0264473800
0.0021310695
-0.0044421577
-0.0120837260
-0.0052786120
0.0045182891
-0.0293359272
-0.0333789736
-0.0096031185
0.0033307334
-0.0039130663
-0.0131402416
-0.0123112835
-0.0074956818
-0.0121600432
-0.0147457737
-0.0047310102
-0.0195136108
-0.0214812458
-0.0120939398
-0.0062732934
-0.0073863640
-0.0176010337
-0.0092898812
0.0003955780
-0.0154387802
0.0072014066
0.0025569790
-0.0016849738
0.0051378198
0.0012215638
0.0106406966
0.0233587753
-0.0141910538
-0.0063409009
0.0027549064
0.0096542956
0.0078836950
-0.0239792559
-0.0031518782
0.0130163897
0.0068019442
0.0032459574
0.0057247537
0.0231766347
0.0090754107
0.0172280930
0.0313424058
0.0134338457
-0.0097872540
-0.0197830945
-0.0032803533
-0.0117973397
-0.0177189577
-0.0092890924
-0.0125938365
-0.0034409470
-0.0276685208
-0.0200466830
-0.0053340928
-0.0039583938
-0.0101898005
-0.0334117450
-0.0388446227
-0.0199604463
-0.0123595679
-0.0126918796
-0.0300280377
-0.0335294344
-0.0181347243
-0.0207702126
-0.0154187074
-0.0225224905
-0.0220841058
-0.0099713579
-0.0052814754
-0.0092440443
0.0110436734
0.0382747799
0.0290521644
0.0130666047
-0.0133226383
0.0221942756
0.0568145886
0.0339141004
0.0204474386
-0.0076342742
0.0401082188
0.0808567777
0.0491774678
0.0278625078
-0.0129127121
0.0367119126
0.0549242012
0.0192696899
0.0188271236
-0.0189779662
0.0113463886
0.0283229351
0.0000602402
0.0030154388
-0.0052426932
0.0078014540
0.0118991379
0.0067468449
0.0163721330
-0.0015099403
0.0051573953
-0.0061288364
-0.0232999884
-0.0070828646
0.0057873135
0.0017669714
-0.0051104920
-0.0188678112
-0.0017244690
-0.0026646049
-0.0048711901
-0.0047555054
-0.0016798971
-0.0019672357
0.0027339486
0.0094447816
-0.0002775627
0.0035805637
-0.0005396807
-0.0003931743
-0.0056540007
0.0115929404
0.0053111776
-0.0059965579
0.0066110189
-0.0012321970
0.0174275674
0.0211330820
0.0098810187
0.0144760031
-0.0006184089
0.0197112113
0.0187634733
0.0148731368
0.0057122274
-0.0057193930
-0.0077062389
-0.0122064240
-0.0128757721
-0.0031145024
-0.0196251348
-0.0031453567
-0.0136040235
-0.0240953118
-0.0221416727
-0.0346392430
-0.0395302288
-0.0259141605
-0.0101098092
-0.0219021160
-0.0399690792
-0.0365928710
-0.0267392080
-0.0104213441
-0.0360062979
-0.0398415923
-0.0343637466
-0.0316940397
-0.0254426282
-0.0359021761
-0.0391609557
-0.0224356111
-0.0222150739
-0.0283162333
-0.0314003900
-0.0408446528
-0.0229910407
-0.0286243334
-0.0184435640
-0.0010798544
0.0072953231
0.0384530611
0.0334314331
0.0306870285
-0.0075108204
0.0173638444
0.0352382027
0.0106045380
0.0100811236
-0.0012988655
0.0095540173
0.0209419020
0.0115017230
0.0026250461
-0.0076319515
0.0063575725
0.0109676765
-0.0048355772
0.0001636052
-0.0116438093
0.0047266618
0.0033596456
-0.0072907652
-0.0048435894
-0.0143260900
0.0068987878
0.0083265249
-0.0100226160
0.0046012271
-0.0058528692
-0.0015326914
-0.0036006086
-0.0296124592
-0.0222078823
0.0032883391
0.0108609293
0.0273417458
0.0029257936
0.0047663958
-0.0080783013
0.0124371629
0.0320874713
0.0231621787
0.0168972593
-0.0048798248
0.0023127445
0.0305636078
0.0187985450
0.0080051506
0.0144902850
0.0099689877
0.0032334314
-0.0135997767
-0.0094690155
0.0126352869
0.0049609649
-0.0054614907
0.0013339163
0.0177426208
0.0229648743
0.0102039976
0.0031677491
0.0112199895
0.0225740243
0.0111698378
-0.0030162551
0.0032922172
-0.0009796158
0.0024440319
0.0090083769
-0.0087556140
-0.0028318132
0.0058453828
0.0070739510
0.0057813437
-0.0043666060
-0.0021458557
0.0076806601
-0.0038491911
0.0006865635
-0.0080867251
0.0111533226
0.0235704482
0.0056996951
0.0082804970
-0.0015763820
0.0100434721
0.0207660291
0.0136596607
0.0051177256
0.0011939033
0.0004302719
0.0004294713
-0.0024054369
0.0016462179
0.0049881293
-0.0029795042
0.0044182739
-0.0114601590
0.0066116154
-0.0185002424
-0.0357828513
-0.0143071115
-0.0021882874
-0.0174856000
-0.0485913120
-0.0603871010
-0.0443218276
-0.0163161773
-0.0303883497
-0.0491984859
-0.0533128232
-0.0376252122
-0.0258120932
-0.0318784043
-0.0393373370
-0.0354890190
-0.0313737653
-0.0150671564
-0.0257831104
-0.0192848798
-0.0129363956
-0.0099994969
-0.0034842822
0.0073893797
0.0022470674
-0.0047314451
-0.0024347578
0.0094762184
0.0020220908
-0.0079643205
-0.0173459277
-0.0128534511
0.0010683046
-0.0086275414
-0.0220975429
-0.0214193705
-0.0129222320
0.0044615753
-0.0148032084
-0.0214253366
-0.0142069208
-0.0026427372
0.0069260052
-0.0095653059
-0.0143444547
-0.0065993178
0.0016962910
0.0110307643
-0.0076291449
-0.0008210324
-0.0251245163
-0.0456718840
-0.0313130766
0.0031945962
0.0281004570
0.0281742699
0.0276345164
0.0301080514
0.0306860991
0.0463058911
0.0629243702
0.0544431135
0.0502688251
0.0360122696
0.0353290588
0.0397429802
0.0267821029
0.0219416004
0.0261738636
0.0161801130
0.0079503730
0.0019383685
0.0033004719
0.0041120220
0.0233481303
0.0529144444
0.0233067609
-0.0028623571
-0.0142697431
-0.0022185089
0.0249690637
-0.0100676911
-0.0149813350
-0.0142304404
0.0065352740
0.0333323628
0.0181212928
0.0137080150
-0.0270856693
0.0011812948
0.0158366375
-0.0001368248
0.0192700606
-0.0141815357
0.0061453753
0.0303618368
0.0087880753
0.0207196269
0.0138206519
-0.0059031337
-0.0185296051
-0.0108396607
0.0029831047
-0.0029851089
-0.0359645002
-0.0495655276
-0.0483962893
-0.0194554199
-0.0220600739
-0.0572610945
-0.0747042224
-0.0611035414
-0.0310879685
-0.0274280943
-0.0530890375
-0.0546970814
-0.0357402116
-0.0088495910
-0.0264327526
-0.0359391868
-0.0183431637
-0.0038517171
0.0120912818
0.0019288876
-0.0000655750
-0.0022016084
-0.0069075027
-0.0185255017
-0.0012262288
-0.0149045922
-0.0168500245
-0.0023913782
-0.0181689169
-0.0136330398
-0.0323232636
-0.0275359452
-0.0078582065
-0.0005821885
-0.0158590451
-0.0289210174
-0.0246782843
-0.0146695282
0.0056549460
-0.0189890619
-0.0088338796
-0.0037743007
-0.0001142483
0.0047313222
0.0045331866
0.0129858423
0.0095128063
-0.0032593417
-0.0091564963
-0.0023057151
-0.0262279622
-0.0147614870
-0.0182709321
0.0008567806
-0.0018279226
-0.0207740851
-0.0141118541
-0.0019166674
0.0149989547
-0.0150870532
-0.0333775207
-0.0266114175
-0.0054699522
-0.0037350645
-0.0168792196
-0.0269603897
-0.0158863403
-0.0110008661
-0.0239296742
-0.0113283694
-0.0144735193
-0.0233753640
-0.0240501240
-0.0136526693
-0.0023433010
0.0085452367
0.0154177258
0.0170333069
0.0198640116
0.0260035563
0.0447235778
0.0578091778
0.0372064151
0.0375940800
0.0354115181
0.0357167572
0.0450863428
0.0272950660
0.0160466786
0.0232488550
0.0170961767
0.0122574596
0.0072362409
0.0083883042
-0.0139089897
-0.0197772942
0.0024275822
-0.0052403677
-0.0039116512
-0.0141241876
-0.0220993217
-0.0063833222
-0.0090390472
-0.0135769583
-0.0192232151
-0.0151437381
-0.0095025022
-0.0147748077
-0.0046553137
-0.0264836289
-0.0084112659
0.0071751890
0.0004179429
0.0009974566
-0.0163150281
-0.0003292344
0.0135307126
0.0101809632
0.0087738065
0.0045507494
-0.0219489876
-0.0464647599
-0.0380604379
-0.0175272990
-0.0108128097
-0.0509261936
-0.0663327575
-0.0527802706
-0.0292882659
-0.0230576620
-0.0624643713
-0.0762851909
-0.0568710789
-0.0381215215
-0.0293403249
-0.0539550222
-0.0537197478
-0.0427011400
-0.0230826717
-0.0262536928
-0.0286496803
-0.0187788084
-0.0158947445
-0.0114414357
0.0164149702
0.0190183651
-0.0065407641
-0.0275271572
-0.0266477130
0.0075186277
-0.0025424720
-0.0060313083
-0.0044508227
0.0010956518
0.0152098611
0.0047374303
0.0128021166
0.0064278035
0.0235695299
0.0019372237
-0.0168370530
-0.0155107332
-0.0068748784
0.0151821971
-0.0097348504
-0.0221133512
0.0019163931
0.0066949548
0.0109773381
0.0104672257
0.0495894849
0.0952092931
0.0637039691
0.0245883297
0.0143685983
0.0500382297
0.0856446847
0.0420625135
0.0167846903
0.0085681099
0.0414485075
0.0677185431
0.0423182584
0.0225047488
-0.0219894778
0.0217199549
0.0440876707
0.0323501602
0.0228750277
-0.0213247705
0.0067824614
0.0270898063
0.0163673349
0.0117185470
-0.0046903477
-0.0173143391
-0.0471695475
-0.0379591435
-0.0168363992
-0.0118813599
-0.0197968148
-0.0295296423
-0.0239291359
-0.0014597612
0.0003966436
0.0073667136
0.0095639108
0.0183924884
0.0229765028
0.0126406159
0.0193811599
0.0317431763
0.0188394487
0.0073653664
0.0250547994
0.0291643236
0.0175768565
0.0010654454
-0.0041598012
0.0064013507
-0.0005111075
-0.0063544344
-0.0062411730
-0.0165951718
0.0008947821
-0.0315654986
-0.0427167863
-0.0231145266
-0.0131176198
-0.0182902794
-0.0613251552
-0.0670806542
-0.0373839512
-0.0148609467
-0.0277816076
-0.0514646955
-0.0601321757
-0.0362060256
-0.0102111055
-0.0334019177
-0.0267473217
-0.0269072820
-0.0176766999
0.0100870710
0.0069863424
-0.0133880209
-0.0358932614
-0.0368085280
-0.0237379409
0.0009154042
-0.0323442630
-0.0613192134
-0.0511060506
-0.0282540582
-0.0151697444
-0.0536614507
-0.0699359924
-0.0547890589
-0.0282244533
-0.0220486484
-0.0545347482
-0.0576815903
-0.0481618531
-0.0303654373
-0.0281603634
-0.0393605083
-0.0278160907
-0.0199745446
-0.0100317188
-0.0068776268
-0.0082350653
-0.0035560406
-0.0055269706
0.0105200419
0.0034357563
-0.0066018365
-0.0045254650
-0.0069886534
0.0047304095
0.0183425583
-0.0020865109
-0.0095888395
-0.0145022245
-0.0074513420
0.0052189534
-0.0090915039
-0.0144239552
-0.0207040459
-0.0073846793
-0.0022998147
-0.0109800249
-0.0196680985
-0.0204649325
-0.0077814898
-0.0083505195
-0.0060703014
0.0031158552
-0.0123431822
-0.0148330629
-0.0180068910
-0.0168566220
-0.0036402338
-0.0181123279
-0.0149041517
-0.0135006029
-0.0043004588
0.0215287488
0.0088257277
0.0135376407
-0.0151392454
0.0053940718
0.0184487514
0.0071885893
0.0223516617
-0.0000587732
0.0253587607
0.0276968759
0.0098372232
0.0015686762
0.0188502856
0.0226140097
0.0165934283
0.0145993242
0.0053628739
0.0225918610
0.0139133921
0.0023178840
-0.0018880735
-0.0059520476
0.0199286770
0.0249183308
0.0200153198
0.0147020463
0.0072134594
0.0068119545
0.0156248286
0.0183632653
0.0148004377
0.0050289617
0.0003286964
-0.0027795192
0.0057528256
0.0003306526
0.0027295474
-0.0103849052
-0.0235977955
-0.0269529857
-0.0219772011
-0.0164730400
-0.0238459352
-0.0458426848
-0.0489014611
-0.0384482034
-0.0306171644
-0.0408138447
-0.0594703667
-0.0678891614
-0.0562328994
-0.0319403373
-0.0371983573
-0.0479313396
-0.0550884828
-0.0389087535
-0.0265600774
-0.0345656686
-0.0319584794
-0.0331635401
-0.0199698675
-0.0075843236
0.0004827238
0.0010025918
-0.0065378263
-0.0033478991
0.0005267657
0.0160225257
0.0138743231
0.0078758802
0.0133358175
0.0170628373
0.0315750726
0.0282886159
0.0190341678
0.0142969517
0.0099760927
0.0195961725
0.0198371448
0.0121275969
0.0036097441
-0.0065867985
0.0173296705
0.0013899648
0.0101856375
-0.0064395913
-0.0156526025
-0.0260092150
-0.0156671889
-0.0026256405
0.0036552020
0.0144484397
-0.0069893296
0.0032594868
0.0194717795
0.0062675783
-0.0052954857
-0.0165511183
0.0011468965
0.0189225152
0.0084464690
-0.0087625571
-0.0095114475
0.0010329124
0.0177918859
0.0154850176
0.0058038319
-0.0140705444
-0.0015831192
0.0045587216
0.0023283125
0.0013488183
0.0175164118
0.0407985374
0.0506516621
0.0129436683
-0.0019845013
0.0134730032
0.0283379387
0.0188394338
-0.0064838231
-0.0088756913
0.0292770658
0.0243990608
0.0304860994
0.0076641794
0.0184638202
0.0043669525
0.0065710209
0.0188229773
-0.0007288448
0.0046691634
-0.0018476513
0.0006192751
0.0198764317
0.0091709783
0.0003884053
-0.0007738664
-0.0194837451
-0.0236571785
-0.0177714154
0.0025851973
-0.0015401194
-0.0025589382
0.0054446380
0.0025745053
0.0145379854
0.0106104780
0.0241777673
0.0302798580
0.0184144080
0.0123824431
0.0082433596
0.0276179910
0.0295857191
0.0121226087
-0.0049184239
0.0086056916
0.0145390155
0.0115250954
-0.0083779739
-0.0111822067
-0.0230434611
-0.0155000426
0.0053730537
0.0046502124
-0.0048622233
-0.0181370173
-0.0132843005
0.0035063068
-0.0006370085
-0.0138765322
-0.0279326867
-0.0255608615
-0.0092883930
-0.0029981805
-0.0069865733
-0.0172723737
-0.0216256436
-0.0179399047
-0.0101990094
-0.0056349826
-0.0098412475
-0.0158000719
-0.0182174910
-0.0103535959
0.0006383846
0.0056794062
0.0082934955
0.0070323795
0.0121866371
0.0122906035
0.0168509744
0.0157791544
0.0146714533
0.0065113083
0.0034115226
0.0184953678
0.0191150531
0.0165768787
0.0154197384
0.0039464538
0.0107178362
0.0020641179
0.0121967224
0.0104601160
-0.0117757143
0.0075327326
-0.0102636367
0.0005798734
-0.0079204943
-0.0137777990
0.0067290240
0.0108548068
0.0116980579
0.0020547092
-0.0015085042
0.0027042525
-0.0053188088
-0.0186668504
-0.0304954201
-0.0107821357
0.0217203610
0.0114693325
0.0037086161
-0.0120042572
-0.0027517620
-0.0047057308
0.0042092581
0.0086304070
0.0039456701
0.0038802938
-0.0114928409
0.0058572749
0.0133831138
0.0081419162
-0.0009630260
-0.0106454315
-0.0148109840
0.0179666411
0.0050908653
0.0075748661
-0.0153823467
-0.0072522676
0.0177093856
0.0055483961
0.0059570796
-0.0183748398
-0.0132467849
-0.0004001840
-0.0042247744
-0.0037418006
-0.0099553335
-0.0050285761
-0.0051601422
-0.0059002424
-0.0019855590
-0.0087024439
-0.0074140001
-0.0031898534
-0.0160699040
-0.0023759734
-0.0124676256
-0.0157842897
-0.0207983088
-0.0083679901
-0.0003552547
-0.0146968262
-0.0111542214
-0.0118759759
-0.0038688858
-0.0057788203
-0.0015830616
-0.0005470655
0.0058343057
0.0100271767
-0.0004104203
-0.0005477963
0.0021045285
0.0176683795
0.0002618213
-0.0104666399
-0.0003167659
-0.0010652737
0.0011271284
-0.0074466122
-0.0249974038
0.0216628723
0.0454925746
0.0170549210
-0.0260403752
-0.0379403830
0.0393850692
0.0672362968
0.0573111288
0.0296091884
-0.0034157170
0.0676673874
0.0746695027
0.0909072310
0.0577032603
0.0284983031
0.0307148751
0.0396391861
0.0397195257
0.0288001969
0.0149296448
0.0029400918
0.0049809450
0.0096635120
0.0147420783
0.0139453690
0.0114169512
0.0189669654
0.0445627011
0.0427385867
0.0387554653
0.0018673054
-0.0095640793
-0.0021510606
0.0077841664
0.0203271974
-0.0095995860
-0.0417885594
-0.0392542444
-0.0297580119
-0.0069069476
-0.0204586592
-0.0504330210
-0.0422530212
-0.0295274835
-0.0014306984
-0.0132034300
-0.0174879041
-0.0038389934
-0.0074266875
0.0119861709
-0.0094542587
-0.0083058039
0.0066234004
-0.0024418999
-0.0085130781
-0.0161375962
-0.0215033479
-0.0043277931
-0.0147915510
-0.0301737953
-0.0145615982
-0.0117298216
0.0107967146
0.0089807613
0.0019383969
0.0025047858
0.0098772785
0.0232027378
0.0184863415
0.0151281878
0.0119479857
0.0236730166
0.0210230090
0.0134257972
0.0063026263
-0.0005131472
-0.0356042869
-0.0495271906
-0.0329666808
-0.0216675289
-0.0134893171
-0.0571776740
-0.0585071445
-0.0300008487
-0.0140857957
-0.0269372649
-0.0564521141
-0.0616087131
-0.0354796723
-0.0213193968
-0.0256592631
-0.0369448699
-0.0249738861
-0.0234635845
-0.0207251310
-0.0272468720
-0.0291817635
-0.0087816324
-0.0055415104
-0.0130540598
0.0070033246
0.0613481291
0.0676068738
0.0133089377
-0.0277886763
0.0249963794
0.0818205252
0.0738278106
0.0249508210
-0.0055270270
0.0354412571
0.0723167732
0.0813287869
0.0376976430
0.0185260028
0.0057775984
0.0374140479
0.0357811041
0.0156910922
0.0106023811
-0.0181757081
0.0049809101
0.0185584221
0.0016208582
-0.0059175487
0.0059424499
0.0002954405
0.0011841824
-0.0041561089
0.0066652684
-0.0003342525
0.0002851287
0.0010780923
-0.0053206771
0.0022409295
0.0016899636
0.0019233151
0.0048459545
-0.0009782064
-0.0039651608
-0.0128456168
-0.0195128471
-0.0118642971
-0.0123637328
-0.0071936953
-0.0200674552
-0.0296065062
-0.0174885280
-0.0161671545
-0.0062621511
0.0114635238
-0.0058245389
-0.0169356074
-0.0039554741
0.0167736448
0.0062690238
-0.0009396416
0.0099786920
0.0271150786
0.0289983172
0.0312549733
0.0242965780
0.0328704529
0.0335621573
0.0190958418
0.0280645844
0.0145714367
0.0182241779
0.0161384176
0.0025851869
0.0204023980
0.0009564279
-0.0021128845
-0.0063222218
-0.0082568852
-0.0026689670
0.0087878667
0.0105967727
-0.0013425460
-0.0128160724
-0.0067229061
-0.0170951616
-0.0024508445
-0.0103209652
-0.0049841190
-0.0034188281
-0.0151697136
-0.0025432755
-0.0207336228
0.0071677072
-0.0051073530
-0.0188349914
-0.0226689596
-0.0214189254
-0.0017895673
-0.0105293728
-0.0190275367
-0.0191755909
-0.0181295145
-0.0102275601
-0.0209102072
-0.0229411479
-0.0205199607
-0.0182802249
-0.0088367444
-0.0168399811
0.0000191707
0.0072716642
-0.0138029680
-0.0125260213
-0.0069027841
0.0134767657
0.0217271913
0.0029401330
-0.0132417511
-0.0071869190
-0.0019836868
0.0027685657
-0.0078135515
-0.0163181406
0.0011615580
-0.0043614032
0.0061652185
-0.0110999234
-0.0145581877
-0.0019156489
0.0068148598
0.0032593377
-0.0037829431
-0.0029924149
-0.0000004679
0.0018412471
-0.0051502115
-0.0058916099
-0.0147930300
0.0144056380
0.0076737660
-0.0022911457
-0.0013549200
-0.0153186666
0.0093611320
-0.0011836868
-0.0038788642
-0.0136430953
-0.0261220764
0.0024659198
-0.0090769837
-0.0031466424
-0.0154584087
-0.0214884877
0.0125850542
-0.0181141309
-0.0377630033
-0.0242275875
0.0031545821
-0.0052394676
-0.0339757875
-0.0295086130
-0.0018486391
0.0165215433
-0.0098705487
-0.0199557114
0.0024191220
0.0122283883
0.0171039533
0.0011776821
0.0032311797
0.0127799874
0.0046570827
0.0056127412
0.0167932045
0.0226487219
0.0167873111
0.0092710387
-0.0001419403
0.0009588458
0.0040078172
0.0107855462
0.0202272478
0.0028313252
-0.0151008544
0.0032889054
0.0047945194
0.0001723024
0.0110905217
0.0053581381
0.0203979313
0.0121159302
-0.0128680523
-0.0172868799
-0.0079134312
-0.0022688427
0.0044595976
-0.0068232352
-0.0199107975
0.0051222914
0.0058952603
-0.0057637827
-0.0050775553
-0.0058314884
0.0112023791
0.0168468188
0.0101736635
-0.0093839886
-0.0120947687
-0.0095731169
-0.0103434687
0.0035787483
-0.0169516895
-0.0157811176
-0.0106495656
-0.0141252195
0.0071439170
-0.0115503790
-0.0092159808
-0.0191441551
-0.0196210053
-0.0041227853
-0.0090683987
-0.0061397962
-0.0089326315
-0.0099890297
0.0015712621
0.0034312720
0.0056718197
-0.0077944724
-0.0095069110
0.0089741619
-0.0143280094
-0.0011235224
-0.0030318412
-0.0052122176
0.0158097763
-0.0143000921
-0.0199293960
0.0012277466
0.0091113625
0.0347495303
0.0018490700
0.0006913845
-0.0177983623
0.0000592713
0.0101442197
-0.0203516483
-0.0093744677
-0.0109766023
-0.0034404618
-0.0041194819
-0.0104231583
-0.0045416518
0.0062315851
0.0340110585
0.0205332991
-0.0022157982
-0.0168047454
-0.0010430638
0.0422092341
0.0445130318
0.0206705555
-0.0129556758
0.0404528826
0.0888687223
0.0923795477
0.0640908331
0.0294139814
-0.0015772643
0.0361951403
0.0516602546
0.0370179415
0.0113421222
0.0008163746
0.0191028584
0.0206586346
0.0099535557
-0.0085886950
-0.0124516999
-0.0157334171
-0.0026926615
0.0020551698
-0.0032111434
-0.0087053301
-0.0088972915
-0.0116641549
-0.0171724539
0.0059859916
0.0192116480
0.0238389578
0.0169585142
-0.0155985504
0.0025144077
0.0088695306
0.0059570284
0.0050445409
-0.0164083298
-0.0158271361
0.0160863865
0.0113255186
0.0077864621
-0.0192977656
-0.0153157040
-0.0177893173
0.0040267492
0.0305166747
0.0063343295
-0.0088993181
-0.0007031696
0.0242481921
0.0331195556
0.0079764761
-0.0107002240
0.0028815418
0.0131283682
0.0290784016
0.0124845887
0.0035977392
0.0074485936
0.0130983619
0.0230721105
0.0088526504
0.0031407177
0.0019540582
0.0082690082
0.0207709614
0.0128350342
0.0090855462
-0.0020419604
0.0180749055
0.0140316486
-0.0039808806
-0.0109982463
-0.0034107775
0.0441042446
0.0680756941
0.0177917350
-0.0110102603
-0.0170029700
0.0456562005
0.0985769853
0.0339517593
-0.0002002307
-0.0274794511
0.0064820829
0.0609088093
0.0328035727
0.0116223041
0.0024095767
0.0089666862
0.0467261076
0.0235063788
0.0130278068
0.0094420714
-0.0080181072
-0.0139948837
-0.0179777630
0.0044903052
0.0108173508
-0.0192456171
-0.0225807745
-0.0249304529
-0.0071649156
0.0282259900
-0.0200392380
-0.0256075468
-0.0203876495
0.0116475997
0.0123562859
