-0.0005473664
-0.0065236934
-0.0225860700
0.0383085757
-0.0130218714
0.0157355051
0.0040916828
0.0460711606
-0.0028452505
-0.0249861255
0.0190045424
0.0002921875
0.0343419202
-0.0279469173
-0.0312794559
0.0146697219
-0.0081352349
0.0296339337
-0.0091156047
-0.0002435901
-0.0166339856
-0.0326829068
-0.0173737332
0.0081623932
0.0006800951
-0.0095972382
0.0206472874
0.0336335003
0.0066003879
-0.0103823822
-0.0071804165
-0.0026840409
0.0013828400
-0.0013008707
-0.0312923454
0.0045472658
-0.0122592021
0.0311783347
-0.0184036326
-0.0238669440
-0.0210431684
0.0066835354
-0.0007818288
-0.0347043984
0.0269106608
-0.0218159650
-0.0612461492
0.0075399792
-0.0400927141
-0.0370231569
-0.0089002876
0.0375772901
0.0400258750
0.0072018635
-0.0176873393
0.0507451147
-0.0743679553
-0.0054119737
0.0358986817
-0.0289707370
-0.0008159020
-0.0008617441
-0.0154594965
-0.0203742906
0.0116700996
-0.0642296672
0.0224125963
-0.0226556454
-0.0297696460
-0.0333042517
0.0029270181
-0.0343982540
0.0049894266
-0.0381408259
-0.0340464562
-0.0226909891
0.0278709512
-0.0037123531
0.0038895658
-0.0176533107
0.0228075851
-0.0253338870
-0.0217225403
-0.0209703930
-0.0188633259
-0.0354086645
-0.0062373476
-0.0324805416
0.0096304175
0.0020855581
0.0013397451
0.0057395552
0.0190679971
0.0028253179
-0.0127157075
0.0124495486
-0.0473212935
-0.0019642813
-0.0035665883
0.0260240361
-0.0369643383
-0.0200010221
-0.0098142494
0.0381237604
-0.0185192712
0.0058477786
-0.0196996722
-0.0056918436
-0.0063181035
-0.0207616873
-0.0323977843
0.0065283095
-0.0075140516
-0.0140969008
0.0119641880
0.0329094604
-0.0102578448
-0.0015616019
0.0026962417
-0.0058195274
0.0028444615
0.0052296706
0.0346037745
0.0130955223
0.0190324895
-0.0273615234
0.0208103415
-0.0263002086
0.0364547670
0.0118193924
-0.0195029676
-0.0222698525
-0.0024653957
0.0108465208
0.0071334657
-0.0092876181
-0.0195839629
-0.0114216935
0.0038026148
0.0009475514
-0.0039114025
0.0027105380
0.0460230671
-0.0164487828
-0.0163042769
-0.0606147870
-0.0078133028
-0.0014572261
-0.0254907105
0.0198902283
0.0177742634
0.0155763710
-0.0208243374
-0.0072352882
0.0022516032
0.0110129416
0.0048270677
0.0239624772
-0.0169536360
-0.0259140953
0.0365226157
0.0002042003
-0.0140596041
-0.0303484667
-0.0266224314
-0.0640463829
0.0087484634
0.0036849517
0.0164795276
-0.0128561640
0.0091599608
0.0231509171
-0.0130240917
-0.0305487514
0.0101749497
-0.0194157884
0.0071823769
-0.0033408375
-0.0140720895
0.0019306497
-0.0232023280
0.0061769015
-0.0350081958
-0.0452562533
0.0138109308
0.0905463770
0.0215572845
-0.0505785681
0.0109465038
0.0001286830
-0.0176039673
-0.0304736812
-0.0603535958
-0.0013125002
0.0145484209
-0.0454910062
0.0391592495
-0.0235984474
-0.0666580200
-0.0034961023
0.0318666287
0.0034218829
0.0021282744
-0.0468161777
0.0338732302
0.0311916973
-0.0427143909
-0.0673320442
-0.0018054005
-0.0267185904
-0.0451472104
-0.0429855809
-0.0525090471
-0.0082212221
-0.0148006482
0.0071715722
-0.0496344194
-0.0177178159
0.0324074700
-0.0197067838
0.0439733528
-0.1036220193
0.0107196523
-0.0312324110
-0.0420357548
0.0025769118
-0.0030892852
0.0020289661
-0.0348124355
-0.0369349271
0.0093221888
-0.0409586206
0.0313962474
-0.0132186031
-0.0174135007
-0.0254705176
-0.0507614203
0.0248949341
0.0484185182
0.0630066767
-0.0242621750
-0.0317606069
-0.0293910019
-0.0022612631
-0.0309192371
0.0103614097
0.0067360005
-0.0193873029
-0.0127740307
0.0269972831
-0.0152034890
-0.0467232205
0.0247447547
0.0554833263
-0.0567342155
-0.0325209536
0.0294037890
-0.0057944418
-0.0445030555
0.0102046933
-0.0188234225
0.0039628134
0.0560612604
-0.0183038749
-0.0647973567
0.0426800251
-0.0210046005
0.0283208247
-0.0624887981
-0.0496019796
0.0040985220
-0.0343246236
-0.0014150791
0.0265494678
0.0135105681
-0.0025606698
-0.0781164989
-0.0287133772
0.0160251800
0.0681400970
-0.0052356413
-0.0401078723
0.0112780230
-0.0103960922
-0.0414918363
0.0015477695
0.0172206461
0.0126937646
-0.0253503677
-0.0415566377
0.0076134871
-0.0166291408
0.0029622477
-0.0206670258
-0.0191993676
-0.0100623472
-0.0054267733
0.0276594348
-0.0142116789
-0.0091771092
-0.0294287894
-0.0056349910
0.0178074855
0.0770909563
0.0288326778
-0.0123902187
0.0005556721
-0.0203410946
-0.0138303963
0.0010269977
-0.0478252508
-0.0330124497
0.0547008440
-0.0181390829
-0.0276705530
-0.0043302630
-0.0161371510
0.0492137559
0.0423758850
0.0302514303
-0.0558900759
0.0931322277
0.0590777770
0.0183040556
-0.0394392312
-0.0545746498
-0.0384636894
0.0336429253
-0.0125260027
-0.0016845041
0.0265784729
-0.0352335311
0.0397060551
0.0203701239
-0.0566407815
-0.0072152191
0.0443241075
-0.0652348623
-0.0013689627
0.0114432219
0.0051212236
-0.0327120647
0.0524219163
-0.0181966368
-0.0019105045
-0.0110416766
-0.0017685456
-0.0801903233
0.0262295306
0.0156272911
-0.0325765535
-0.0453065708
-0.0588536598
-0.0115328785
0.0198101327
0.0051238514
-0.0492132977
0.0049418714
-0.0058796876
-0.0081746336
-0.0091527104
0.0277202465
0.0556878485
-0.0321919508
-0.0046104034
0.0020718067
-0.0700455606
0.0265811887
0.0007266096
0.0143425316
-0.0019913164
-0.0280673951
-0.0517778844
-0.0453753248
0.0236123316
0.0235669184
0.0551734790
-0.0084619205
0.0317660011
-0.0270862449
0.0604663081
0.0675438121
-0.0292723142
-0.0140154092
